{"learner":{"attributes":{"best_iteration":"34","best_score":"0.6689129926656422","scikit_learn":"{\"_estimator_type\": \"classifier\"}"},"feature_names":["dist_poc","dist_val","dist_vwap","ha_green","above_vwap","vol_expand","macd_hist","block_red_flag_on","htf_green","atr_pct","conf","spy_htf_green","sym_TSLA","sym_ARM","sym_MU","sym_SPY","sym_IONQ","sym_APLD"],"feature_types":["float","float","float","float","float","float","float","float","float","float","float","float","float","float","float","float","float","float"],"gradient_booster":{"model":{"cats":{"enc":[],"feature_segments":[],"sorted_idx":[]},"gbtree_model_param":{"num_parallel_tree":"1","num_trees":"60"},"iteration_indptr":[0,1,2,3,4,5,6,7,8,9,10,11,12,13,14,15,16,17,18,19,20,21,22,23,24,25,26,27,28,29,30,31,32,33,34,35,36,37,38,39,40,41,42,43,44,45,46,47,48,49,50,51,52,53,54,55,56,57,58,59,60],"tree_info":[0,0,0,0,0,0,0,0,0,0,0,0,0,0,0,0,0,0,0,0,0,0,0,0,0,0,0,0,0,0,0,0,0,0,0,0,0,0,0,0,0,0,0,0,0,0,0,0,0,0,0,0,0,0,0,0,0,0,0,0],"trees":[{"base_weights":[-3.6618244E-3,-5.040286E-1,2.812069E-1,-3.4400844E-3,-3.248966E-2,-8.824035E-2,2.5172506E-2,1.1929259E-2,-1.8191136E-2],"categories":[],"categories_nodes":[],"categories_segments":[],"categories_sizes":[],"default_left":[0,0,0,0,0,0,0,0,0],"id":0,"left_children":[1,3,5,-1,-1,7,-1,-1,-1],"loss_changes":[4.8223276E0,1.4760432E0,2.8574138E0,0E0,0E0,1.8721646E0,0E0,0E0,0E0],"parents":[2147483647,0,0,1,1,2,2,5,5],"right_children":[2,4,6,-1,-1,8,-1,-1,-1],"split_conditions":[1E0,3.056846E0,1E0,-3.4400844E-3,-3.248966E-2,1.7353659E1,2.5172506E-2,1.1929259E-2,-1.8191136E-2],"split_indices":[3,2,5,0,0,6,0,0,0],"split_type":[0,0,0,0,0,0,0,0,0],"sum_hessian":[3.0840115E1,1.0769564E1,2.007055E1,5.384782E0,5.384782E0,1.0280038E1,9.790512E0,5.140019E0,5.140019E0],"tree_param":{"num_deleted":"0","num_feature":"18","num_nodes":"9","size_leaf_vector":"1"}},{"base_weights":[-1.16930306E-1,-4.175002E-1,1.7894097E-2,-4.74654E-2,-4.5325782E-2,2.2805693E-2,-2.0464523E-2],"categories":[],"categories_nodes":[],"categories_segments":[],"categories_sizes":[],"default_left":[0,0,0,0,0,0,0],"id":1,"left_children":[1,3,-1,-1,5,-1,-1],"loss_changes":[5.4322696E0,5.8148665E0,0E0,0E0,4.8683224E0,0E0,0E0],"parents":[2147483647,0,0,1,1,4,4],"right_children":[2,4,-1,-1,6,-1,-1],"split_conditions":[2.980482E-2,-3.9521158E-1,1.7894097E-2,-4.74654E-2,2.5717576E0,2.2805693E-2,-2.0464523E-2],"split_indices":[9,6,0,0,1,0,0],"split_type":[0,0,0,0,0,0,0],"sum_hessian":[2.8876886E1,1.9095625E1,9.7812605E0,5.156545E0,1.393908E1,5.864388E0,8.074693E0],"tree_param":{"num_deleted":"0","num_feature":"18","num_nodes":"7","size_leaf_vector":"1"}},{"base_weights":[-5.147738E-2,-3.8349336E-1,3.931101E-1,-4.2903148E-2,8.047175E-2,2.6543764E-2,4.6224776E-3,1.8930174E-2,-1.4824948E-2],"categories":[],"categories_nodes":[],"categories_segments":[],"categories_sizes":[],"default_left":[0,0,0,0,0,0,0,0,0],"id":2,"left_children":[1,3,5,-1,7,-1,-1,-1,-1],"loss_changes":[5.0343556E0,6.3341193E0,9.8603916E-1,0E0,2.5652895E0,0E0,0E0,0E0,0E0],"parents":[2147483647,0,0,1,1,2,2,4,4],"right_children":[2,4,6,-1,8,-1,-1,-1,-1],"split_conditions":[2.7646309E-2,1E0,8.2734785E0,-4.2903148E-2,2.2264011E1,2.6543764E-2,4.6224776E-3,1.8930174E-2,-1.4824948E-2],"split_indices":[9,3,6,0,6,0,0,0,0],"split_type":[0,0,0,0,0,0,0,0,0],"sum_hessian":[3.1073797E1,1.790703E1,1.3166766E1,6.413698E0,1.1493332E1,5.6116095E0,7.555156E0,6.1043787E0,5.388953E0],"tree_param":{"num_deleted":"0","num_feature":"18","num_nodes":"9","size_leaf_vector":"1"}},{"base_weights":[7.3476955E-2,-2.2671506E-1,6.003712E-1,2.5106025E-1,-3.83304E-2,3.0712964E-2,1.186984E-2,-4.3892493E-3,2.1341544E-2],"categories":[],"categories_nodes":[],"categories_segments":[],"categories_sizes":[],"default_left":[0,0,0,0,0,0,0,0,0],"id":3,"left_children":[1,3,5,7,-1,-1,-1,-1,-1],"loss_changes":[5.1634855E0,7.7227364E0,2.577319E-1,1.5075219E0,0E0,0E0,0E0,0E0,0E0],"parents":[2147483647,0,0,1,1,2,2,3,3],"right_children":[2,4,6,8,-1,-1,-1,-1,-1],"split_conditions":[1.0186839E0,2.565294E0,1.7686415E-2,1E0,-3.83304E-2,3.0712964E-2,1.186984E-2,-4.3892493E-3,2.1341544E-2],"split_indices":[0,2,9,5,0,0,0,0,0],"split_type":[0,0,0,0,0,0,0,0,0],"sum_hessian":[2.985445E1,1.9563143E1,1.0291307E1,1.24301605E1,7.1329823E0,5.154987E0,5.1363206E0,5.86126E0,6.5689E0],"tree_param":{"num_deleted":"0","num_feature":"18","num_nodes":"9","size_leaf_vector":"1"}},{"base_weights":[8.624639E-3,4.4358894E-1,-4.431449E-1,2.8116505E-3,3.3979643E-2,-3.2619823E-2,8.107088E-3],"categories":[],"categories_nodes":[],"categories_segments":[],"categories_sizes":[],"default_left":[0,0,0,0,0,0,0],"id":4,"left_children":[1,3,5,-1,-1,-1,-1],"loss_changes":[6.214856E0,2.3497033E0,3.9820304E0,0E0,0E0,0E0,0E0],"parents":[2147483647,0,0,1,1,2,2],"right_children":[2,4,6,-1,-1,-1,-1],"split_conditions":[2.493116E0,1.5765966E1,1.0118074E0,2.8116505E-3,3.3979643E-2,-3.2619823E-2,8.107088E-3],"split_indices":[2,6,0,0,0,0,0],"split_type":[0,0,0,0,0,0,0],"sum_hessian":[2.8626648E1,1.4598427E1,1.4028222E1,8.521336E0,6.0770907E0,8.6480665E0,5.3801556E0],"tree_param":{"num_deleted":"0","num_feature":"18","num_nodes":"7","size_leaf_vector":"1"}},{"base_weights":[9.751409E-3,5.0822926E-1,-2.8404516E-1,-4.5048728E-4,3.5991736E-2,-2.9936904E-2,6.7384064E-2,-1.2506907E-2,1.5029548E-2],"categories":[],"categories_nodes":[],"categories_segments":[],"categories_sizes":[],"default_left":[0,0,0,0,0,0,0,0,0],"id":5,"left_children":[1,3,5,-1,-1,-1,7,-1,-1],"loss_changes":[4.7290344E0,2.448809E0,3.3964367E0,0E0,0E0,0E0,1.6949162E0,0E0,0E0],"parents":[2147483647,0,0,1,1,2,2,6,6],"right_children":[2,4,6,-1,-1,-1,8,-1,-1],"split_conditions":[2.113372E0,1.5135669E0,1.2470901E1,-4.5048728E-4,3.5991736E-2,-2.9936904E-2,1.0118074E0,-1.2506907E-2,1.5029548E-2],"split_indices":[1,1,6,0,0,0,0,0,0],"split_type":[0,0,0,0,0,0,0,0,0],"sum_hessian":[2.9312302E1,1.0463804E1,1.8848497E1,5.123402E0,5.340402E0,7.389523E0,1.1458974E1,5.1233187E0,6.3356557E0],"tree_param":{"num_deleted":"0","num_feature":"18","num_nodes":"9","size_leaf_vector":"1"}},{"base_weights":[7.8847095E-2,4.3362907E-1,-3.6444873E-1,-6.895081E-4,2.9809596E-2,-3.6221493E-2,1.3770695E-2],"categories":[],"categories_nodes":[],"categories_segments":[],"categories_sizes":[],"default_left":[0,0,0,0,0,0,0],"id":6,"left_children":[1,3,5,-1,-1,-1,-1],"loss_changes":[5.273613E0,2.6146324E0,6.239446E0,0E0,0E0,0E0,0E0],"parents":[2147483647,0,0,1,1,2,2],"right_children":[2,4,6,-1,-1,-1,-1],"split_conditions":[2.565294E0,2.0034656E-1,1.0118074E0,-6.895081E-4,2.9809596E-2,-3.6221493E-2,1.3770695E-2],"split_indices":[2,2,0,0,0,0,0],"split_type":[0,0,0,0,0,0,0],"sum_hessian":[3.0524242E1,1.6972994E1,1.3551249E1,7.515668E0,9.457325E0,7.4481683E0,6.10308E0],"tree_param":{"num_deleted":"0","num_feature":"18","num_nodes":"7","size_leaf_vector":"1"}},{"base_weights":[9.753699E-2,-8.744829E-2,2.8615147E-2,3.679381E-1,-2.7877906E-2,-1.5773599E-3,2.6092205E-2],"categories":[],"categories_nodes":[],"categories_segments":[],"categories_sizes":[],"default_left":[0,0,0,0,0,0,0],"id":7,"left_children":[1,3,-1,5,-1,-1,-1],"loss_changes":[3.6633651E0,7.426852E0,0E0,1.8345809E0,0E0,0E0,0E0],"parents":[2147483647,0,0,1,1,3,3],"right_children":[2,4,-1,6,-1,-1,-1],"split_conditions":[3.6830518E0,2.493116E0,2.8615147E-2,5.693177E-1,-2.7877906E-2,-1.5773599E-3,2.6092205E-2],"split_indices":[1,2,0,0,0,0,0],"split_type":[0,0,0,0,0,0,0],"sum_hessian":[2.973175E1,2.3872025E1,5.859726E0,1.4003686E1,9.868338E0,6.287899E0,7.715787E0],"tree_param":{"num_deleted":"0","num_feature":"18","num_nodes":"7","size_leaf_vector":"1"}},{"base_weights":[-7.4360736E-2,2.7632025E-1,-4.636218E-1,-4.116431E-3,2.4291778E-2,-3.4833897E-2,1.2450338E-2],"categories":[],"categories_nodes":[],"categories_segments":[],"categories_sizes":[],"default_left":[0,0,0,0,0,0,0],"id":8,"left_children":[1,3,5,-1,-1,-1,-1],"loss_changes":[4.6515207E0,2.3687625E0,5.468781E0,0E0,0E0,0E0,0E0],"parents":[2147483647,0,0,1,1,2,2],"right_children":[2,4,6,-1,-1,-1,-1],"split_conditions":[2.493116E0,1E0,3.6389596E0,-4.116431E-3,2.4291778E-2,-3.4833897E-2,1.2450338E-2],"split_indices":[2,5,1,0,0,0,0],"split_type":[0,0,0,0,0,0,0],"sum_hessian":[3.116775E1,1.6625359E1,1.454239E1,8.229537E0,8.395823E0,9.410884E0,5.131507E0],"tree_param":{"num_deleted":"0","num_feature":"18","num_nodes":"7","size_leaf_vector":"1"}},{"base_weights":[1.4074744E-2,4.1944888E-1,-4.1278818E-1,1.1575384E-3,2.512519E-2,-3.468279E-2,1.79079E-2],"categories":[],"categories_nodes":[],"categories_segments":[],"categories_sizes":[],"default_left":[0,0,0,0,0,0,0],"id":9,"left_children":[1,3,5,-1,-1,-1,-1],"loss_changes":[5.7835855E0,1.3676708E0,6.956026E0,0E0,0E0,0E0,0E0],"parents":[2147483647,0,0,1,1,2,2],"right_children":[2,4,6,-1,-1,-1,-1],"split_conditions":[2.493116E0,5.648232E-1,3.6830518E0,1.1575384E-3,2.512519E-2,-3.468279E-2,1.79079E-2],"split_indices":[2,0,1,0,0,0,0],"split_type":[0,0,0,0,0,0,0],"sum_hessian":[3.0422651E1,1.5617453E1,1.48052E1,6.033954E0,9.583498E0,9.682158E0,5.1230407E0],"tree_param":{"num_deleted":"0","num_feature":"18","num_nodes":"7","size_leaf_vector":"1"}},{"base_weights":[9.727633E-2,-1.6514906E-1,2.2526616E-2,-2.9376656E-2,1.0473588E-1,2.0010326E-2,-1.2016588E-2],"categories":[],"categories_nodes":[],"categories_segments":[],"categories_sizes":[],"default_left":[0,0,0,0,0,0,0],"id":10,"left_children":[1,3,-1,-1,5,-1,-1],"loss_changes":[3.796853E0,3.2335007E0,0E0,0E0,2.642077E0,0E0,0E0],"parents":[2147483647,0,0,1,1,4,4],"right_children":[2,4,-1,-1,6,-1,-1],"split_conditions":[2.980482E-2,5.007014E0,2.2526616E-2,-2.9376656E-2,2.4577565E0,2.0010326E-2,-1.2016588E-2],"split_indices":[9,6,0,0,2,0,0],"split_type":[0,0,0,0,0,0,0],"sum_hessian":[2.84142E1,1.8795418E1,9.618781E0,5.214552E0,1.3580867E1,6.6939135E0,6.8869534E0],"tree_param":{"num_deleted":"0","num_feature":"18","num_nodes":"7","size_leaf_vector":"1"}},{"base_weights":[7.831187E-2,4.2062768E-1,-3.047326E-1,-1.5314551E-3,3.2217775E-2,3.9632902E-3,-2.2620661E-2],"categories":[],"categories_nodes":[],"categories_segments":[],"categories_sizes":[],"default_left":[0,0,0,0,0,0,0],"id":11,"left_children":[1,3,5,-1,-1,-1,-1],"loss_changes":[4.1432014E0,2.9675288E0,1.6731257E0,0E0,0E0,0E0,0E0],"parents":[2147483647,0,0,1,1,2,2],"right_children":[2,4,6,-1,-1,-1,-1],"split_conditions":[2.493116E0,1E0,2.750078E0,-1.5314551E-3,3.2217775E-2,3.9632902E-3,-2.2620661E-2],"split_indices":[2,5,1,0,0,0,0],"split_type":[0,0,0,0,0,0,0],"sum_hessian":[2.8631691E1,1.5041954E1,1.3589738E1,7.476545E0,7.5654097E0,5.6974792E0,7.892258E0],"tree_param":{"num_deleted":"0","num_feature":"18","num_nodes":"7","size_leaf_vector":"1"}},{"base_weights":[3.4764808E-2,-2.9702319E-2,2.6209414E-1,2.5902895E-2,3.320373E-2,-1.419693E-2,2.55623E-2],"categories":[],"categories_nodes":[],"categories_segments":[],"categories_sizes":[],"default_left":[0,0,0,0,0,0,0],"id":12,"left_children":[1,-1,3,-1,5,-1,-1],"loss_changes":[5.3583574E0,0E0,2.0228717E0,0E0,4.148564E0,0E0,0E0],"parents":[2147483647,0,0,2,2,4,4],"right_children":[2,-1,4,-1,6,-1,-1],"split_conditions":[3.8897818E-1,-2.9702319E-2,1.3991958E0,2.5902895E-2,3.6389596E0,-1.419693E-2,2.55623E-2],"split_indices":[0,0,2,0,1,0,0],"split_type":[0,0,0,0,0,0,0],"sum_hessian":[2.7171135E1,5.3789296E0,2.1792206E1,7.0967226E0,1.4695482E1,9.335904E0,5.359578E0],"tree_param":{"num_deleted":"0","num_feature":"18","num_nodes":"7","size_leaf_vector":"1"}},{"base_weights":[1.6968699E-1,5.267609E-1,-1.0349351E-1,3.316453E-2,3.7004827E-3,-4.156394E-1,2.1482637E-2,-8.49869E-4,-3.123625E-2],"categories":[],"categories_nodes":[],"categories_segments":[],"categories_sizes":[],"default_left":[0,0,0,0,0,0,0,0,0],"id":13,"left_children":[1,3,5,-1,-1,7,-1,-1,-1],"loss_changes":[2.9598799E0,1.5964177E0,3.927909E0,0E0,0E0,1.8374858E0,0E0,0E0,0E0],"parents":[2147483647,0,0,1,1,2,2,5,5],"right_children":[2,4,6,-1,-1,8,-1,-1,-1],"split_conditions":[2.0593555E0,1E0,3.6427653E0,3.316453E-2,3.7004827E-3,2.766145E0,2.1482637E-2,-8.49869E-4,-3.123625E-2],"split_indices":[1,14,1,0,0,1,0,0,0],"split_type":[0,0,0,0,0,0,0,0,0],"sum_hessian":[2.8005224E1,1.1535201E1,1.6470024E1,5.996257E0,5.5389442E0,1.1427887E1,5.0421367E0,6.258065E0,5.169822E0],"tree_param":{"num_deleted":"0","num_feature":"18","num_nodes":"9","size_leaf_vector":"1"}},{"base_weights":[-5.0518215E-2,-3.4405932E-1,4.0367252E-1,-3.5630632E-2,3.5573235E-3,3.325409E-2,-1.8159403E-3,1.0617343E-2,-7.94443E-3],"categories":[],"categories_nodes":[],"categories_segments":[],"categories_sizes":[],"default_left":[0,0,0,0,0,0,0,0,0],"id":14,"left_children":[1,3,5,-1,7,-1,-1,-1,-1],"loss_changes":[4.3726177E0,3.7642753E0,2.5441694E0,0E0,7.984207E-1,0E0,0E0,0E0,0E0],"parents":[2147483647,0,0,1,1,2,2,4,4],"right_children":[2,4,6,-1,8,-1,-1,-1,-1],"split_conditions":[2.7646309E-2,1E0,2.0593555E0,-3.5630632E-2,1.5421784E-2,3.325409E-2,-1.8159403E-3,1.0617343E-2,-7.94443E-3],"split_indices":[9,3,1,0,9,0,0,0,0],"split_type":[0,0,0,0,0,0,0,0,0],"sum_hessian":[2.9734417E1,1.8282349E1,1.1452069E1,6.195216E0,1.20871315E1,5.2117095E0,6.2403593E0,5.0614433E0,7.025688E0],"tree_param":{"num_deleted":"0","num_feature":"18","num_nodes":"9","size_leaf_vector":"1"}},{"base_weights":[-3.0557765E-3,-2.3081009E-1,3.458002E-1,1.6469601E-1,-2.6897933E-2,2.714878E-2,4.204759E-4,9.91694E-3,1.8208256E-3],"categories":[],"categories_nodes":[],"categories_segments":[],"categories_sizes":[],"default_left":[0,0,0,0,0,0,0,0,0],"id":15,"left_children":[1,3,5,7,-1,-1,-1,-1,-1],"loss_changes":[2.617188E0,3.6450305E0,1.4422101E0,9.924042E-2,0E0,0E0,0E0,0E0,0E0],"parents":[2147483647,0,0,1,1,2,2,3,3],"right_children":[2,4,6,8,-1,-1,-1,-1,-1],"split_conditions":[1.0118074E0,2.565294E0,1.801184E0,4.7604024E-1,-2.6897933E-2,2.714878E-2,4.204759E-4,9.91694E-3,1.8208256E-3],"split_indices":[0,2,0,0,0,0,0,0,0],"split_type":[0,0,0,0,0,0,0,0,0],"sum_hessian":[2.993308E1,1.841695E1,1.151613E1,1.0212149E1,8.204801E0,5.0075407E0,6.50859E0,5.0587945E0,5.1533546E0],"tree_param":{"num_deleted":"0","num_feature":"18","num_nodes":"9","size_leaf_vector":"1"}},{"base_weights":[-4.886744E-2,-2.7089983E-1,1.6374515E-2,-2.8896881E-2,-2.4629885E-2,6.20348E-3,-1.1788723E-2],"categories":[],"categories_nodes":[],"categories_segments":[],"categories_sizes":[],"default_left":[0,0,0,0,0,0,0],"id":16,"left_children":[1,3,-1,-1,5,-1,-1],"loss_changes":[3.3374312E0,2.4082456E0,0E0,0E0,8.317114E-1,0E0,0E0],"parents":[2147483647,0,0,1,1,4,4],"right_children":[2,4,-1,-1,6,-1,-1],"split_conditions":[3.2782003E-2,1E0,1.6374515E-2,-2.8896881E-2,1.4389244E0,6.20348E-3,-1.1788723E-2],"split_indices":[9,3,0,0,0,0,0],"split_type":[0,0,0,0,0,0,0],"sum_hessian":[2.9667927E1,2.039762E1,9.2703085E0,6.1753235E0,1.4222295E1,8.923367E0,5.2989283E0],"tree_param":{"num_deleted":"0","num_feature":"18","num_nodes":"7","size_leaf_vector":"1"}},{"base_weights":[-1.0973529E-1,-4.4789976E-1,1.9172966E-1,-3.591561E-2,-1.2193033E-4,2.3436273E-2,-1.160648E-2],"categories":[],"categories_nodes":[],"categories_segments":[],"categories_sizes":[],"default_left":[0,0,0,0,0,0,0],"id":17,"left_children":[1,3,5,-1,-1,-1,-1],"loss_changes":[2.982871E0,2.7272434E0,3.2660327E0,0E0,0E0,0E0,0E0],"parents":[2147483647,0,0,1,1,2,2],"right_children":[2,4,6,-1,-1,-1,-1],"split_conditions":[1E0,2.0011206E0,2.565294E0,-3.591561E-2,-1.2193033E-4,2.3436273E-2,-1.160648E-2],"split_indices":[5,2,2,0,0,0,0],"split_type":[0,0,0,0,0,0,0],"sum_hessian":[2.6496124E1,1.2144533E1,1.4351592E1,5.277977E0,6.8665566E0,7.716163E0,6.6354284E0],"tree_param":{"num_deleted":"0","num_feature":"18","num_nodes":"7","size_leaf_vector":"1"}},{"base_weights":[1.2184459E-1,-1.2412291E-2,2.2505807E-2,-1.5719408E-2,2.1505785E-1,1.764029E-2,8.928729E-4],"categories":[],"categories_nodes":[],"categories_segments":[],"categories_sizes":[],"default_left":[0,0,0,0,0,0,0],"id":18,"left_children":[1,3,-1,-1,5,-1,-1],"loss_changes":[1.9057778E0,2.3789885E0,0E0,0E0,7.365822E-1,0E0,0E0],"parents":[2147483647,0,0,1,1,4,4],"right_children":[2,4,-1,-1,6,-1,-1],"split_conditions":[3.6830518E0,1E0,2.2505807E-2,-1.5719408E-2,1.9522316E0,1.764029E-2,8.928729E-4],"split_indices":[1,3,0,0,1,0,0],"split_type":[0,0,0,0,0,0,0],"sum_hessian":[3.0525778E1,2.4516443E1,6.009335E0,8.763337E0,1.5753106E1,6.362257E0,9.390849E0],"tree_param":{"num_deleted":"0","num_feature":"18","num_nodes":"7","size_leaf_vector":"1"}},{"base_weights":[9.463751E-2,-1.0503383E-1,4.2881963E-1,2.0458393E-1,-1.9568319E-2,9.5396023E-4,2.9278599E-2,1.6207902E-2,-2.3247988E-3],"categories":[],"categories_nodes":[],"categories_segments":[],"categories_sizes":[],"default_left":[0,0,0,0,0,0,0,0,0],"id":19,"left_children":[1,3,5,7,-1,-1,-1,-1,-1],"loss_changes":[2.2054784E0,2.679096E0,1.4812064E0,7.115294E-1,0E0,0E0,0E0,0E0,0E0],"parents":[2147483647,0,0,1,1,2,2,3,3],"right_children":[2,4,6,8,-1,-1,-1,-1,-1],"split_conditions":[1.0186839E0,2.4577565E0,1.843508E1,5.3899795E-1,-1.9568319E-2,9.5396023E-4,2.9278599E-2,1.6207902E-2,-2.3247988E-3],"split_indices":[0,2,6,0,0,0,0,0,0],"split_type":[0,0,0,0,0,0,0,0,0],"sum_hessian":[3.0539967E1,1.976129E1,1.0778676E1,1.1330721E1,8.43057E0,5.3070364E0,5.4716396E0,5.963263E0,5.367458E0],"tree_param":{"num_deleted":"0","num_feature":"18","num_nodes":"9","size_leaf_vector":"1"}},{"base_weights":[1.3621424E-1,-1.8388003E-1,2.6916549E-2,1.6510254E-1,-3.2943875E-2,-1.0783159E-2,1.816311E-2],"categories":[],"categories_nodes":[],"categories_segments":[],"categories_sizes":[],"default_left":[0,0,0,0,0,0,0],"id":20,"left_children":[1,3,-1,5,-1,-1,-1],"loss_changes":[5.390947E0,4.7042494E0,0E0,1.9789071E0,0E0,0E0,0E0],"parents":[2147483647,0,0,1,1,3,3],"right_children":[2,4,-1,6,-1,-1,-1],"split_conditions":[2.7646309E-2,1.865486E-2,2.6916549E-2,7.04784E-1,-3.2943875E-2,-1.0783159E-2,1.816311E-2],"split_indices":[9,9,0,0,0,0,0],"split_type":[0,0,0,0,0,0,0],"sum_hessian":[2.879984E1,1.8658035E1,1.0141805E1,1.2792343E1,5.8656936E0,5.148524E0,7.643819E0],"tree_param":{"num_deleted":"0","num_feature":"18","num_nodes":"7","size_leaf_vector":"1"}},{"base_weights":[-3.2956976E-2,-3.2044926E-1,2.9673895E-1,-2.2145249E-2,4.5423578E-3,2.077464E-2,-3.3702054E-3],"categories":[],"categories_nodes":[],"categories_segments":[],"categories_sizes":[],"default_left":[0,0,0,0,0,0,0],"id":21,"left_children":[1,3,5,-1,-1,-1,-1],"loss_changes":[3.0759337E0,1.8403274E0,1.354401E0,0E0,0E0,0E0,0E0],"parents":[2147483647,0,0,1,1,2,2],"right_children":[2,4,6,-1,-1,-1,-1],"split_conditions":[1E0,9.690676E-1,2.565294E0,-2.2145249E-2,4.5423578E-3,2.077464E-2,-3.3702054E-3],"split_indices":[5,0,2,0,0,0,0],"split_type":[0,0,0,0,0,0,0],"sum_hessian":[2.9446854E1,1.5752695E1,1.3694158E1,9.97821E0,5.7744837E0,8.299636E0,5.3945227E0],"tree_param":{"num_deleted":"0","num_feature":"18","num_nodes":"7","size_leaf_vector":"1"}},{"base_weights":[1.201073E-2,-1.7159536E-1,2.3330314E-2,1.2407788E-2,-5.1622015E-1,-1.2208965E-2,-2.5018238E-2],"categories":[],"categories_nodes":[],"categories_segments":[],"categories_sizes":[],"default_left":[0,0,0,0,0,0,0],"id":22,"left_children":[1,3,-1,-1,5,-1,-1],"loss_changes":[3.3238313E0,4.2347126E0,0E0,0E0,4.988599E-2,0E0,0E0],"parents":[2147483647,0,0,1,1,4,4],"right_children":[2,4,-1,-1,6,-1,-1],"split_conditions":[3.6830518E0,1.9804548E0,2.3330314E-2,1.2407788E-2,2.493116E0,-1.2208965E-2,-2.5018238E-2],"split_indices":[1,1,0,0,2,0,0],"split_type":[0,0,0,0,0,0,0],"sum_hessian":[2.8759058E1,2.2558037E1,6.2010217E0,9.469461E0,1.3088575E1,6.4060807E0,6.682494E0],"tree_param":{"num_deleted":"0","num_feature":"18","num_nodes":"7","size_leaf_vector":"1"}},{"base_weights":[-5.59448E-2,-2.0075464E-1,1.5752295E-2,-2.9650768E-2,9.432306E-2,-9.599462E-3,1.7019076E-2],"categories":[],"categories_nodes":[],"categories_segments":[],"categories_sizes":[],"default_left":[0,0,0,0,0,0,0],"id":23,"left_children":[1,3,-1,-1,5,-1,-1],"loss_changes":[2.2087588E0,4.135294E0,0E0,0E0,2.110143E0,0E0,0E0],"parents":[2147483647,0,0,1,1,4,4],"right_children":[2,4,-1,-1,6,-1,-1],"split_conditions":[3.9453283E-2,1E0,1.5752295E-2,-2.9650768E-2,1E0,-9.599462E-3,1.7019076E-2],"split_indices":[9,3,0,0,5,0,0],"split_type":[0,0,0,0,0,0,0],"sum_hessian":[3.0593008E1,2.377005E1,6.822959E0,7.593086E0,1.6176964E1,8.255622E0,7.921342E0],"tree_param":{"num_deleted":"0","num_feature":"18","num_nodes":"7","size_leaf_vector":"1"}},{"base_weights":[2.306455E-2,2.1091284E-2,-2.2340786E-1,-4.9773744E-1,1.2297967E-2,-3.176196E-2,-7.184257E-3],"categories":[],"categories_nodes":[],"categories_segments":[],"categories_sizes":[],"default_left":[0,0,0,0,0,0,0],"id":24,"left_children":[1,-1,3,5,-1,-1,-1],"loss_changes":[4.03579E0,0E0,3.4204082E0,1.2018058E0,0E0,0E0,0E0],"parents":[2147483647,0,0,2,2,3,3],"right_children":[2,-1,4,6,-1,-1,-1],"split_conditions":[1.9804548E0,2.1091284E-2,3.6830518E0,1E0,1.2297967E-2,-3.176196E-2,-7.184257E-3],"split_indices":[1,0,1,3,0,0,0],"split_type":[0,0,0,0,0,0,0],"sum_hessian":[2.9552656E1,9.141856E0,2.0410799E1,1.35184765E1,6.892323E0,5.8374367E0,7.68104E0],"tree_param":{"num_deleted":"0","num_feature":"18","num_nodes":"7","size_leaf_vector":"1"}},{"base_weights":[6.1115105E-2,-1.2504712E-1,3.504309E-1,-3.2586676E-1,1.170915E-2,2.599252E-2,-8.856041E-4,-2.530184E-2,-4.356336E-5],"categories":[],"categories_nodes":[],"categories_segments":[],"categories_sizes":[],"default_left":[0,0,0,0,0,0,0,0,0],"id":25,"left_children":[1,3,5,7,-1,-1,-1,-1,-1],"loss_changes":[1.6374038E0,1.7255046E0,1.3399491E0,1.3384255E0,0E0,0E0,0E0,0E0,0E0],"parents":[2147483647,0,0,1,1,2,2,3,3],"right_children":[2,4,6,8,-1,-1,-1,-1,-1],"split_conditions":[1.6613499E1,3.2782003E-2,3.2942795E1,-3.9521158E-1,1.170915E-2,2.599252E-2,-8.856041E-4,-2.530184E-2,-4.356336E-5],"split_indices":[6,9,6,6,0,0,0,0,0],"split_type":[0,0,0,0,0,0,0,0,0],"sum_hessian":[2.7680891E1,1.7361311E1,1.0319579E1,1.1948034E1,5.4132767E0,5.1029053E0,5.2166743E0,5.41415E0,6.5338845E0],"tree_param":{"num_deleted":"0","num_feature":"18","num_nodes":"9","size_leaf_vector":"1"}},{"base_weights":[6.133312E-3,-1.829214E-1,1.5523014E-2,9.426263E-2,-1.850222E-2,-9.449127E-3,1.5191407E-2],"categories":[],"categories_nodes":[],"categories_segments":[],"categories_sizes":[],"default_left":[0,0,0,0,0,0,0],"id":26,"left_children":[1,3,-1,5,-1,-1,-1],"loss_changes":[2.324931E0,1.7373154E0,0E0,1.2743468E0,0E0,0E0,0E0],"parents":[2147483647,0,0,1,1,3,3],"right_children":[2,4,-1,6,-1,-1,-1],"split_conditions":[1.0118074E0,5.0627154E-1,1.5523014E-2,2.7874976E-1,-1.850222E-2,-9.449127E-3,1.5191407E-2],"split_indices":[0,0,0,0,0,0,0],"split_type":[0,0,0,0,0,0,0],"sum_hessian":[2.9223072E1,2.0070255E1,9.152816E0,1.0578652E1,9.491603E0,5.023244E0,5.5554085E0],"tree_param":{"num_deleted":"0","num_feature":"18","num_nodes":"7","size_leaf_vector":"1"}},{"base_weights":[-1.6236968E-2,-1.4376602E-1,1.9884912E-2,-2.2742143E-2,8.8719755E-2,3.1063563E-1,-1.5389491E-2,-6.499759E-3,2.5148325E-2],"categories":[],"categories_nodes":[],"categories_segments":[],"categories_sizes":[],"default_left":[0,0,0,0,0,0,0,0,0],"id":27,"left_children":[1,3,-1,-1,5,7,-1,-1,-1],"loss_changes":[2.1682806E0,2.680976E0,0E0,0E0,2.1069727E0,2.1580606E0,0E0,0E0,0E0],"parents":[2147483647,0,0,1,1,4,4,5,5],"right_children":[2,4,-1,-1,6,8,-1,-1,-1],"split_conditions":[3.9453283E-2,1E0,1.9884912E-2,-2.2742143E-2,1.4389244E0,5.6291634E-1,-1.5389491E-2,-6.499759E-3,2.5148325E-2],"split_indices":[9,3,0,0,0,0,0,0,0],"split_type":[0,0,0,0,0,0,0,0,0],"sum_hessian":[2.9982063E1,2.4881033E1,5.10103E0,8.033772E0,1.6847261E1,1.1821982E1,5.0252786E0,5.0475283E0,6.774454E0],"tree_param":{"num_deleted":"0","num_feature":"18","num_nodes":"9","size_leaf_vector":"1"}},{"base_weights":[-9.301452E-2,-3.3654776E-1,1.4787298E-2,-4.8322138E-1,3.342626E-3,-1.1497451E-3,-2.9302398E-2],"categories":[],"categories_nodes":[],"categories_segments":[],"categories_sizes":[],"default_left":[0,0,0,0,0,0,0],"id":28,"left_children":[1,3,-1,5,-1,-1,-1],"loss_changes":[3.531148E0,1.3072069E0,0E0,1.6927755E0,0E0,0E0,0E0],"parents":[2147483647,0,0,1,1,3,3],"right_children":[2,4,-1,6,-1,-1,-1],"split_conditions":[2.980482E-2,1.6762261E0,1.4787298E-2,2.113372E0,3.342626E-3,-1.1497451E-3,-2.9302398E-2],"split_indices":[9,0,0,1,0,0,0],"split_type":[0,0,0,0,0,0,0],"sum_hessian":[2.8181065E1,1.8731169E1,9.449897E0,1.37168865E1,5.0142817E0,5.4520936E0,8.264793E0],"tree_param":{"num_deleted":"0","num_feature":"18","num_nodes":"7","size_leaf_vector":"1"}},{"base_weights":[1.888749E-2,1.4019061E-2,-1.1848575E-1,1.0975889E-2,-3.1207696E-1,-2.5537184E-2,-2.3911484E-3],"categories":[],"categories_nodes":[],"categories_segments":[],"categories_sizes":[],"default_left":[0,0,0,0,0,0,0],"id":29,"left_children":[1,-1,3,-1,5,-1,-1],"loss_changes":[1.4237126E0,0E0,1.8210307E0,0E0,1.2280248E0,0E0,0E0],"parents":[2147483647,0,0,2,2,4,4],"right_children":[2,-1,4,-1,6,-1,-1],"split_conditions":[1.5823947E-2,1.4019061E-2,4.8489097E-1,1.0975889E-2,8.426624E-1,-2.5537184E-2,-2.3911484E-3],"split_indices":[9,0,0,0,0,0,0],"split_type":[0,0,0,0,0,0,0],"sum_hessian":[2.8387579E1,7.633959E0,2.075362E1,6.6439567E0,1.4109663E1,5.1510267E0,8.958636E0],"tree_param":{"num_deleted":"0","num_feature":"18","num_nodes":"7","size_leaf_vector":"1"}},{"base_weights":[6.1704237E-2,2.5818828E-1,-2.7717638E-1,2.1745216E-2,2.1975502E-2,-2.3076696E-2,3.1664467E-3,1.0394909E-2,-7.840256E-3],"categories":[],"categories_nodes":[],"categories_segments":[],"categories_sizes":[],"default_left":[0,0,0,0,0,0,0,0,0],"id":30,"left_children":[1,3,5,-1,7,-1,-1,-1,-1],"loss_changes":[2.1041124E0,1.3143302E0,1.3213131E0,0E0,7.181399E-1,0E0,0E0,0E0,0E0],"parents":[2147483647,0,0,1,1,2,2,4,4],"right_children":[2,4,6,-1,8,-1,-1,-1,-1],"split_conditions":[3.016945E0,1.5573556E0,3.8982992E0,2.1745216E-2,5.0627154E-1,-2.3076696E-2,3.1664467E-3,1.0394909E-2,-7.840256E-3],"split_indices":[1,2,1,0,0,0,0,0,0],"split_type":[0,0,0,0,0,0,0,0,0],"sum_hessian":[2.8488405E1,1.825897E1,1.0229435E1,7.383953E0,1.0875016E1,5.051624E0,5.177811E0,5.0621324E0,5.8128843E0],"tree_param":{"num_deleted":"0","num_feature":"18","num_nodes":"9","size_leaf_vector":"1"}},{"base_weights":[2.7496101E-2,1.5843455E-2,-1.4439008E-1,-3.5029903E-1,1.6863298E-2,-6.2616456E-1,9.41076E-3,-3.3360157E-2,-1.04367575E-2],"categories":[],"categories_nodes":[],"categories_segments":[],"categories_sizes":[],"default_left":[0,0,0,0,0,0,0,0,0],"id":31,"left_children":[1,-1,3,5,-1,7,-1,-1,-1],"loss_changes":[2.0841231E0,0E0,2.8564377E0,3.031352E0,0E0,6.024437E-1,0E0,0E0,0E0],"parents":[2147483647,0,0,2,2,3,3,5,5],"right_children":[2,-1,4,6,-1,8,-1,-1,-1],"split_conditions":[1.5573556E0,1.5843455E-2,3.6830518E0,3.4008875E-2,1.6863298E-2,4.264858E0,9.41076E-3,-3.3360157E-2,-1.04367575E-2],"split_indices":[2,0,1,9,0,2,0,0,0],"split_type":[0,0,0,0,0,0,0,0,0],"sum_hessian":[3.0041609E1,8.931817E0,2.110979E1,1.5897612E1,5.212179E0,1.073587E1,5.1617417E0,5.6153827E0,5.120487E0],"tree_param":{"num_deleted":"0","num_feature":"18","num_nodes":"9","size_leaf_vector":"1"}},{"base_weights":[4.3877933E-2,3.142606E-1,-2.4807627E-1,2.7137403E-3,1.9226227E-2,-2.2431407E-2,2.2445964E-3],"categories":[],"categories_nodes":[],"categories_segments":[],"categories_sizes":[],"default_left":[0,0,0,0,0,0,0],"id":32,"left_children":[1,3,5,-1,-1,-1,-1],"loss_changes":[2.5259235E0,6.2785375E-1,1.5226969E0,0E0,0E0,0E0,0E0],"parents":[2147483647,0,0,1,1,2,2],"right_children":[2,4,6,-1,-1,-1,-1],"split_conditions":[2.565294E0,1E0,4.3080606E0,2.7137403E-3,1.9226227E-2,-2.2431407E-2,2.2445964E-3],"split_indices":[2,5,2,0,0,0,0],"split_type":[0,0,0,0,0,0,0],"sum_hessian":[2.9016874E1,1.5005487E1,1.4011388E1,6.899499E0,8.1059885E0,6.285053E0,7.726335E0],"tree_param":{"num_deleted":"0","num_feature":"18","num_nodes":"7","size_leaf_vector":"1"}},{"base_weights":[-4.8425365E-2,1.44513715E-2,-2.4649483E-1,-5.5277467E-1,1.1094004E-2,-2.9547889E-2,-1.0999157E-2],"categories":[],"categories_nodes":[],"categories_segments":[],"categories_sizes":[],"default_left":[0,0,0,0,0,0,0],"id":33,"left_children":[1,-1,3,5,-1,-1,-1],"loss_changes":[2.4100292E0,0E0,3.4070265E0,3.665831E-1,0E0,0E0,0E0],"parents":[2147483647,0,0,2,2,3,3],"right_children":[2,-1,4,6,-1,-1,-1],"split_conditions":[1.9804548E0,1.44513715E-2,3.6830518E0,2.0091789E0,1.1094004E-2,-2.9547889E-2,-1.0999157E-2],"split_indices":[1,0,1,2,0,0,0],"split_type":[0,0,0,0,0,0,0],"sum_hessian":[2.6552E1,8.250231E0,1.830177E1,1.1496939E1,6.80483E0,5.396485E0,6.100454E0],"tree_param":{"num_deleted":"0","num_feature":"18","num_nodes":"7","size_leaf_vector":"1"}},{"base_weights":[-7.5636834E-2,-2.1368933E-1,1.8955778E-2,-3.8446632E-1,1.4740281E-2,2.3752904E-4,-5.1116014E-1,-2.9395908E-2,-8.97549E-3],"categories":[],"categories_nodes":[],"categories_segments":[],"categories_sizes":[],"default_left":[0,0,0,0,0,0,0,0,0],"id":34,"left_children":[1,3,-1,5,-1,-1,7,-1,-1],"loss_changes":[2.5110974E0,2.7864237E0,0E0,1.0309062E0,0E0,0E0,7.589359E-1,0E0,0E0],"parents":[2147483647,0,0,1,1,3,3,6,6],"right_children":[2,4,-1,6,-1,-1,8,-1,-1],"split_conditions":[1E0,3.9117258E0,1.8955778E-2,-3.7305403E-1,1.4740281E-2,2.3752904E-4,2.4018319E0,-2.9395908E-2,-8.97549E-3],"split_indices":[16,1,0,2,0,0,1,0,0],"split_type":[0,0,0,0,0,0,0,0,0],"sum_hessian":[2.9597658E1,2.4387722E1,5.2099366E0,1.92504E1,5.1373224E0,5.0668106E0,1.4183589E1,6.650757E0,7.5328326E0],"tree_param":{"num_deleted":"0","num_feature":"18","num_nodes":"9","size_leaf_vector":"1"}},{"base_weights":[5.164025E-3,-2.6694995E-1,1.6571602E-1,-3.3594754E-3,-1.5771294E-2,-1.2269736E-2,3.6859292E-1,3.0950906E-2,1.6285568E-3],"categories":[],"categories_nodes":[],"categories_segments":[],"categories_sizes":[],"default_left":[0,0,0,0,0,0,0,0,0],"id":35,"left_children":[1,3,5,-1,-1,-1,7,-1,-1],"loss_changes":[1.440164E0,2.355597E-1,2.1539369E0,0E0,0E0,0E0,1.9673464E0,0E0,0E0],"parents":[2147483647,0,0,1,1,2,2,6,6],"right_children":[2,4,6,-1,-1,-1,8,-1,-1],"split_conditions":[1E0,3.056846E0,1.9028461E-1,-3.3594754E-3,-1.5771294E-2,-1.2269736E-2,2.5036836E0,3.0950906E-2,1.6285568E-3],"split_indices":[3,2,2,0,0,0,2,0,0],"split_type":[0,0,0,0,0,0,0,0,0],"sum_hessian":[2.9945547E1,1.0743208E1,1.920234E1,5.430106E0,5.3131022E0,5.5378494E0,1.366449E1,5.1993904E0,8.465099E0],"tree_param":{"num_deleted":"0","num_feature":"18","num_nodes":"9","size_leaf_vector":"1"}},{"base_weights":[7.1256585E-2,-2.175338E-1,4.671644E-1,7.338694E-2,-2.8560514E-2,2.4448998E-2,9.921306E-3,1.7281018E-2,-9.721087E-3],"categories":[],"categories_nodes":[],"categories_segments":[],"categories_sizes":[],"default_left":[0,0,0,0,0,0,0,0,0],"id":36,"left_children":[1,3,5,7,-1,-1,-1,-1,-1],"loss_changes":[3.6534717E0,2.7837703E0,1.9535065E-1,1.6519451E0,0E0,0E0,0E0,0E0,0E0],"parents":[2147483647,0,0,1,1,2,2,3,3],"right_children":[2,4,6,8,-1,-1,-1,-1,-1],"split_conditions":[2.7646309E-2,1.9290363E-2,8.2734785E0,3.860076E0,-2.8560514E-2,2.4448998E-2,9.921306E-3,1.7281018E-2,-9.721087E-3],"split_indices":[9,9,6,2,0,0,0,0,0],"split_type":[0,0,0,0,0,0,0,0,0],"sum_hessian":[2.9121027E1,1.72292E1,1.1891826E1,1.16695175E1,5.559684E0,5.5555596E0,6.336266E0,5.2129016E0,6.4566154E0],"tree_param":{"num_deleted":"0","num_feature":"18","num_nodes":"9","size_leaf_vector":"1"}},{"base_weights":[6.009403E-2,-1.684797E-1,3.16626E-1,7.0309215E-3,-1.873319E-2,2.3558266E-2,5.44704E-4],"categories":[],"categories_nodes":[],"categories_segments":[],"categories_sizes":[],"default_left":[0,0,0,0,0,0,0],"id":37,"left_children":[1,3,5,-1,-1,-1,-1],"loss_changes":[1.8582704E0,1.8799765E0,1.2101021E0,0E0,0E0,0E0,0E0],"parents":[2147483647,0,0,1,1,2,2],"right_children":[2,4,6,-1,-1,-1,-1],"split_conditions":[8.097839E-1,8.2734785E0,2.995062E0,7.0309215E-3,-1.873319E-2,2.3558266E-2,5.44704E-4],"split_indices":[0,6,1,0,0,0,0],"split_type":[0,0,0,0,0,0,0],"sum_hessian":[2.8826736E1,1.5516326E1,1.331041E1,7.51229E0,8.004036E0,6.2645564E0,7.045853E0],"tree_param":{"num_deleted":"0","num_feature":"18","num_nodes":"7","size_leaf_vector":"1"}},{"base_weights":[-3.7360255E-2,3.483244E-1,-2.8073752E-1,-1.116601E-3,2.4674283E-2,-5.073331E-1,8.116596E-3,-9.31832E-3,-2.62406E-2],"categories":[],"categories_nodes":[],"categories_segments":[],"categories_sizes":[],"default_left":[0,0,0,0,0,0,0,0,0],"id":38,"left_children":[1,3,5,-1,-1,7,-1,-1,-1],"loss_changes":[3.0032578E0,1.2830094E0,2.2902741E0,0E0,0E0,3.296399E-1,0E0,0E0,0E0],"parents":[2147483647,0,0,1,1,2,2,5,5],"right_children":[2,4,6,-1,-1,8,-1,-1,-1],"split_conditions":[1.9804548E0,1.4854516E0,3.6830518E0,-1.116601E-3,2.4674283E-2,2.4522955E0,8.116596E-3,-9.31832E-3,-2.62406E-2],"split_indices":[1,1,1,0,0,2,0,0,0],"split_type":[0,0,0,0,0,0,0,0,0],"sum_hessian":[2.8932205E1,1.0943312E1,1.7988894E1,5.1174107E0,5.8259006E0,1.2199755E1,5.789139E0,5.6407137E0,6.5590415E0],"tree_param":{"num_deleted":"0","num_feature":"18","num_nodes":"9","size_leaf_vector":"1"}},{"base_weights":[-7.308898E-2,1.1859018E-1,-3.8703856E-1,-1.5976083E-1,2.1559205E-2,-2.4632993E-3,-2.4729656E-2,8.067972E-3,-1.9847495E-2],"categories":[],"categories_nodes":[],"categories_segments":[],"categories_sizes":[],"default_left":[0,0,0,0,0,0,0,0,0],"id":39,"left_children":[1,3,5,7,-1,-1,-1,-1,-1],"loss_changes":[2.020476E0,2.619845E0,8.9446795E-1,1.848079E0,0E0,0E0,0E0,0E0,0E0],"parents":[2147483647,0,0,1,1,2,2,3,3],"right_children":[2,4,6,8,-1,-1,-1,-1,-1],"split_conditions":[1E0,1.0186839E0,6.1885446E-1,7.1370854E0,2.1559205E-2,-2.4632993E-3,-2.4729656E-2,8.067972E-3,-1.9847495E-2],"split_indices":[14,0,0,6,0,0,0,0,0],"split_type":[0,0,0,0,0,0,0,0,0],"sum_hessian":[3.0931135E1,1.9784983E1,1.11461525E1,1.2462918E1,7.322065E0,5.4184E0,5.727753E0,6.297509E0,6.165409E0],"tree_param":{"num_deleted":"0","num_feature":"18","num_nodes":"9","size_leaf_vector":"1"}},{"base_weights":[-1.1817718E-1,9.524522E-3,-2.7710688E-1,-3.0180534E-2,9.509755E-2,-1.4417713E-2,1.9274244E-2],"categories":[],"categories_nodes":[],"categories_segments":[],"categories_sizes":[],"default_left":[0,0,0,0,0,0,0],"id":40,"left_children":[1,-1,3,-1,5,-1,-1],"loss_changes":[1.7770897E0,0E0,3.8724263E0,0E0,2.5927413E0,0E0,0E0],"parents":[2147483647,0,0,2,2,4,4],"right_children":[2,-1,4,-1,6,-1,-1],"split_conditions":[1.6412348E-2,9.524522E-3,2.7646309E-2,-3.0180534E-2,1.8694167E0,-1.4417713E-2,1.9274244E-2],"split_indices":[9,0,9,0,2,0,0],"split_type":[0,0,0,0,0,0,0],"sum_hessian":[2.8135542E1,8.448428E0,1.9687115E1,7.9497194E0,1.1737395E1,5.4363265E0,6.3010693E0],"tree_param":{"num_deleted":"0","num_feature":"18","num_nodes":"7","size_leaf_vector":"1"}},{"base_weights":[1.4837804E-2,1.1429852E-2,-1.4418468E-1,-1.4457922E-2,4.3961126E-3],"categories":[],"categories_nodes":[],"categories_segments":[],"categories_sizes":[],"default_left":[0,0,0,0,0],"id":41,"left_children":[1,-1,3,-1,-1],"loss_changes":[1.2976863E0,0E0,1.112531E0,0E0,0E0],"parents":[2147483647,0,0,2,2],"right_children":[2,-1,4,-1,-1],"split_conditions":[1.9522316E0,1.1429852E-2,1.6294184E1,-1.4457922E-2,4.3961126E-3],"split_indices":[1,0,6,0,0],"split_type":[0,0,0,0,0],"sum_hessian":[2.71878E1,9.614068E0,1.7573732E1,9.131679E0,8.442053E0],"tree_param":{"num_deleted":"0","num_feature":"18","num_nodes":"5","size_leaf_vector":"1"}},{"base_weights":[1.10610025E-2,-1.7550777E-1,1.4288449E-2,1.04559045E-2,-5.280658E-1,-1.0851504E-2,-2.6514381E-2],"categories":[],"categories_nodes":[],"categories_segments":[],"categories_sizes":[],"default_left":[0,0,0,0,0,0,0],"id":42,"left_children":[1,3,-1,-1,5,-1,-1],"loss_changes":[1.99541E0,3.3087616E0,0E0,0E0,1.3316655E-1,0E0,0E0],"parents":[2147483647,0,0,1,1,4,4],"right_children":[2,4,-1,-1,6,-1,-1],"split_conditions":[1.0186839E0,5.0627154E-1,1.4288449E-2,1.04559045E-2,2.2972867E0,-1.0851504E-2,-2.6514381E-2],"split_indices":[0,0,0,0,1,0,0],"split_type":[0,0,0,0,0,0,0],"sum_hessian":[2.794171E1,1.8636454E1,9.305256E0,8.495861E0,1.0140592E1,5.0463533E0,5.0942383E0],"tree_param":{"num_deleted":"0","num_feature":"18","num_nodes":"7","size_leaf_vector":"1"}},{"base_weights":[1.1268213E-1,-3.6709227E-2,2.2443112E-2,2.1900082E-1,-2.0464487E-2,-9.147206E-3,2.4984779E-2],"categories":[],"categories_nodes":[],"categories_segments":[],"categories_sizes":[],"default_left":[0,0,0,0,0,0,0],"id":43,"left_children":[1,3,-1,5,-1,-1,-1],"loss_changes":[2.0716197E0,3.114049E0,0E0,3.2683911E0,0E0,0E0,0E0],"parents":[2147483647,0,0,1,1,3,3],"right_children":[2,4,-1,6,-1,-1,-1],"split_conditions":[4.7783093E0,2.565294E0,2.2443112E-2,1E0,-2.0464487E-2,-9.147206E-3,2.4984779E-2],"split_indices":[2,2,0,5,0,0,0],"split_type":[0,0,0,0,0,0,0],"sum_hessian":[2.8964745E1,2.275927E1,6.205475E0,1.5319051E1,7.440219E0,7.592996E0,7.7260547E0],"tree_param":{"num_deleted":"0","num_feature":"18","num_nodes":"7","size_leaf_vector":"1"}},{"base_weights":[-5.1649017E-3,-1.4447948E-1,1.5981624E-2,8.164629E-3,-3.737156E-1,-2.2271585E-2,-1.1658176E-3],"categories":[],"categories_nodes":[],"categories_segments":[],"categories_sizes":[],"default_left":[0,0,0,0,0,0,0],"id":44,"left_children":[1,3,-1,-1,5,-1,-1],"loss_changes":[1.7613595E0,1.9682826E0,0E0,0E0,8.919544E-1,0E0,0E0],"parents":[2147483647,0,0,1,1,4,4],"right_children":[2,4,-1,-1,6,-1,-1],"split_conditions":[3.9453283E-2,1.6412348E-2,1.5981624E-2,8.164629E-3,1.6613499E1,-2.2271585E-2,-1.1658176E-3],"split_indices":[9,9,0,0,6,0,0],"split_type":[0,0,0,0,0,0,0],"sum_hessian":[2.8204336E1,2.1699179E1,6.505157E0,8.673666E0,1.3025513E1,7.902814E0,5.122699E0],"tree_param":{"num_deleted":"0","num_feature":"18","num_nodes":"7","size_leaf_vector":"1"}},{"base_weights":[-4.177378E-2,-1.6954829E-1,1.4984738E-2,-2.5359077E-2,8.327859E-2,-7.062835E-3,1.0363589E-2],"categories":[],"categories_nodes":[],"categories_segments":[],"categories_sizes":[],"default_left":[0,0,0,0,0,0,0],"id":45,"left_children":[1,3,-1,-1,5,-1,-1],"loss_changes":[1.7522916E0,2.9987407E0,0E0,0E0,8.64698E-1,0E0,0E0],"parents":[2147483647,0,0,1,1,4,4],"right_children":[2,4,-1,-1,6,-1,-1],"split_conditions":[3.770893E-2,1E0,1.4984738E-2,-2.5359077E-2,7.553214E-1,-7.062835E-3,1.0363589E-2],"split_indices":[9,3,0,0,0,0,0],"split_type":[0,0,0,0,0,0,0],"sum_hessian":[2.9644424E1,2.3364115E1,6.280309E0,7.4385633E0,1.5925551E1,6.424152E0,9.5014E0],"tree_param":{"num_deleted":"0","num_feature":"18","num_nodes":"7","size_leaf_vector":"1"}},{"base_weights":[-4.49719E-2,-2.4688292E-1,1.2656353E-2,2.1715744E-3,-4.6857935E-1,-7.918733E-3,-2.518902E-2],"categories":[],"categories_nodes":[],"categories_segments":[],"categories_sizes":[],"default_left":[0,0,0,0,0,0,0],"id":46,"left_children":[1,3,-1,-1,5,-1,-1],"loss_changes":[2.3819783E0,1.4239852E0,0E0,0E0,3.411355E-1,0E0,0E0],"parents":[2147483647,0,0,1,1,4,4],"right_children":[2,4,-1,-1,6,-1,-1],"split_conditions":[1.0186839E0,4.8489097E-1,1.2656353E-2,2.1715744E-3,2.5997724E-2,-7.918733E-3,-2.518902E-2],"split_indices":[0,0,0,0,9,0,0],"split_type":[0,0,0,0,0,0,0],"sum_hessian":[2.9538855E1,1.9255598E1,1.0283257E1,8.644633E0,1.0610966E1,5.2079926E0,5.4029727E0],"tree_param":{"num_deleted":"0","num_feature":"18","num_nodes":"7","size_leaf_vector":"1"}},{"base_weights":[-8.333089E-4,1.3371851E-2,-1.7491004E-1,-3.6349535E-1,9.011276E-3,1.8342693E-3,-2.8191125E-2],"categories":[],"categories_nodes":[],"categories_segments":[],"categories_sizes":[],"default_left":[0,0,0,0,0,0,0],"id":47,"left_children":[1,-1,3,5,-1,-1,-1],"loss_changes":[1.7615386E0,0E0,1.6222796E0,2.015276E0,0E0,0E0,0E0],"parents":[2147483647,0,0,2,2,3,3],"right_children":[2,-1,4,6,-1,-1,-1],"split_conditions":[1.9804548E0,1.3371851E-2,3.6427653E0,2.493116E0,9.011276E-3,1.8342693E-3,-2.8191125E-2],"split_indices":[1,0,1,2,0,0,0],"split_type":[0,0,0,0,0,0,0],"sum_hessian":[2.7191822E1,8.823798E0,1.8368025E1,1.2578238E1,5.789787E0,6.3091593E0,6.269078E0],"tree_param":{"num_deleted":"0","num_feature":"18","num_nodes":"7","size_leaf_vector":"1"}},{"base_weights":[1.4086618E-2,-1.3051126E-2,2.1207856E-1,1.9979458E-2,-1.777985E-2,-8.3819125E-3,7.2285202E-3],"categories":[],"categories_nodes":[],"categories_segments":[],"categories_sizes":[],"default_left":[0,0,0,0,0,0,0],"id":48,"left_children":[1,-1,3,-1,5,-1,-1],"loss_changes":[2.118077E0,0E0,1.3218019E0,0E0,5.308395E-1,0E0,0E0],"parents":[2147483647,0,0,2,2,4,4],"right_children":[2,-1,4,-1,6,-1,-1],"split_conditions":[1E0,-1.3051126E-2,2.2972867E0,1.9979458E-2,1.0118074E0,-8.3819125E-3,7.2285202E-3],"split_indices":[3,0,1,0,0,0,0],"split_type":[0,0,0,0,0,0,0],"sum_hessian":[2.8390158E1,1.0083636E1,1.8306522E1,7.3530126E0,1.0953509E1,5.5286384E0,5.4248705E0],"tree_param":{"num_deleted":"0","num_feature":"18","num_nodes":"7","size_leaf_vector":"1"}},{"base_weights":[1.9309206E-2,-1.4912301E-1,2.5778475E-1,8.538694E-3,-1.4853913E-2,1.4964637E-2,3.5279852E-3],"categories":[],"categories_nodes":[],"categories_segments":[],"categories_sizes":[],"default_left":[0,0,0,0,0,0,0],"id":49,"left_children":[1,3,5,-1,-1,-1,-1],"loss_changes":[1.1773874E0,1.5119106E0,1.889931E-1,0E0,0E0,0E0,0E0],"parents":[2147483647,0,0,1,1,2,2],"right_children":[2,4,6,-1,-1,-1,-1],"split_conditions":[2.7164396E-2,1.5823947E-2,6.6186434E-1,8.538694E-3,-1.4853913E-2,1.4964637E-2,3.5279852E-3],"split_indices":[9,9,0,0,0,0,0],"split_type":[0,0,0,0,0,0,0],"sum_hessian":[2.6376762E1,1.5787955E1,1.0588807E1,6.021752E0,9.766203E0,5.207495E0,5.381312E0],"tree_param":{"num_deleted":"0","num_feature":"18","num_nodes":"7","size_leaf_vector":"1"}},{"base_weights":[-2.8389309E-2,-2.0231041E-1,1.5389605E-2,-3.1830493E-2,1.3959135E-1,-3.0731568E-3,1.523677E-2],"categories":[],"categories_nodes":[],"categories_segments":[],"categories_sizes":[],"default_left":[0,0,0,0,0,0,0],"id":50,"left_children":[1,3,-1,-1,5,-1,-1],"loss_changes":[2.3038352E0,4.712429E0,0E0,0E0,8.5295117E-1,0E0,0E0],"parents":[2147483647,0,0,1,1,4,4],"right_children":[2,4,-1,-1,6,-1,-1],"split_conditions":[3.2782003E-2,1E0,1.5389605E-2,-3.1830493E-2,1E0,-3.0731568E-3,1.523677E-2],"split_indices":[9,3,0,0,5,0,0],"split_type":[0,0,0,0,0,0,0],"sum_hessian":[2.8938704E1,2.0903921E1,8.034781E0,6.9132104E0,1.3990711E1,7.915045E0,6.0756664E0],"tree_param":{"num_deleted":"0","num_feature":"18","num_nodes":"7","size_leaf_vector":"1"}},{"base_weights":[-8.5643694E-2,1.5593229E-1,-1.9798672E-2,-1.2864506E-1,2.2726638E-2,5.2355854E-3,-1.4573056E-2],"categories":[],"categories_nodes":[],"categories_segments":[],"categories_sizes":[],"default_left":[0,0,0,0,0,0,0],"id":51,"left_children":[1,3,-1,5,-1,-1,-1],"loss_changes":[2.8543375E0,2.286597E0,0E0,8.178568E-1,0E0,0E0,0E0],"parents":[2147483647,0,0,1,1,3,3],"right_children":[2,4,-1,6,-1,-1,-1],"split_conditions":[1E0,1.0186839E0,-1.9798672E-2,2.41244E0,2.2726638E-2,5.2355854E-3,-1.4573056E-2],"split_indices":[14,0,0,2,0,0,0],"split_type":[0,0,0,0,0,0,0],"sum_hessian":[2.6195112E1,1.7056946E1,9.138165E0,1.0701366E1,6.3555794E0,5.410366E0,5.2910004E0],"tree_param":{"num_deleted":"0","num_feature":"18","num_nodes":"7","size_leaf_vector":"1"}},{"base_weights":[-8.7281324E-2,8.531389E-3,-2.348383E-1,-2.3112843E-2,-1.1017339E-2,1.4082898E-2,-1.4381376E-2],"categories":[],"categories_nodes":[],"categories_segments":[],"categories_sizes":[],"default_left":[0,0,0,0,0,0,0],"id":52,"left_children":[1,-1,3,-1,5,-1,-1],"loss_changes":[1.4516132E0,0E0,1.6432934E0,0E0,2.0320559E0,0E0,0E0],"parents":[2147483647,0,0,2,2,4,4],"right_children":[2,-1,4,-1,6,-1,-1],"split_conditions":[5.0627154E-1,8.531389E-3,8.097839E-1,-2.3112843E-2,1.4389244E0,1.4082898E-2,-1.4381376E-2],"split_indices":[0,0,0,0,0,0,0],"split_type":[0,0,0,0,0,0,0],"sum_hessian":[2.9536366E1,9.50566E0,2.0030706E1,6.972945E0,1.305776E1,6.387683E0,6.6700773E0],"tree_param":{"num_deleted":"0","num_feature":"18","num_nodes":"7","size_leaf_vector":"1"}},{"base_weights":[1.9259421E-2,-1.4368722E-2,2.3753782E-1,2.0879123E-2,-1.9439764E-3],"categories":[],"categories_nodes":[],"categories_segments":[],"categories_sizes":[],"default_left":[0,0,0,0,0],"id":53,"left_children":[1,-1,3,-1,-1],"loss_changes":[2.590153E0,0E0,1.6499581E0,0E0,0E0],"parents":[2147483647,0,0,2,2],"right_children":[2,-1,4,-1,-1],"split_conditions":[1E0,-1.4368722E-2,1.9294368E-2,2.0879123E-2,-1.9439764E-3],"split_indices":[3,0,9,0,0],"split_type":[0,0,0,0,0],"sum_hessian":[2.8303387E1,9.998407E0,1.830498E1,8.559705E0,9.7452755E0],"tree_param":{"num_deleted":"0","num_feature":"18","num_nodes":"5","size_leaf_vector":"1"}},{"base_weights":[-7.798674E-2,-2.0283526E-1,1.5893271E-2,-3.4748957E-1,9.89649E-3,-3.817938E-2,4.1675337E-2,1.2337754E-2,-9.485313E-3],"categories":[],"categories_nodes":[],"categories_segments":[],"categories_sizes":[],"default_left":[0,0,0,0,0,0,0,0,0],"id":54,"left_children":[1,3,-1,5,-1,-1,7,-1,-1],"loss_changes":[1.8981551E0,1.7384628E0,0E0,4.6251135E0,0E0,0E0,1.0925239E0,0E0,0E0],"parents":[2147483647,0,0,1,1,3,3,6,6],"right_children":[2,4,-1,6,-1,-1,8,-1,-1],"split_conditions":[3.6830518E0,3.9453283E-2,1.5893271E-2,1E0,9.89649E-3,-3.817938E-2,1.9294368E-2,1.2337754E-2,-9.485313E-3],"split_indices":[1,9,0,3,0,0,9,0,0],"split_type":[0,0,0,0,0,0,0,0,0],"sum_hessian":[2.8449127E1,2.3212074E1,5.237053E0,1.7827003E1,5.3850727E0,6.11314E0,1.1713862E1,5.9047008E0,5.8091617E0],"tree_param":{"num_deleted":"0","num_feature":"18","num_nodes":"9","size_leaf_vector":"1"}},{"base_weights":[-1.3515863E-1,8.053145E-3,-2.8047124E-1,6.4401603E-3,-4.5812264E-1,-2.4360437E-2,-5.2015674E-3],"categories":[],"categories_nodes":[],"categories_segments":[],"categories_sizes":[],"default_left":[0,0,0,0,0,0,0],"id":55,"left_children":[1,-1,3,-1,5,-1,-1],"loss_changes":[1.5350468E0,0E0,1.7845125E0,0E0,6.538975E-1,0E0,0E0],"parents":[2147483647,0,0,2,2,4,4],"right_children":[2,-1,4,-1,6,-1,-1],"split_conditions":[4.8489097E-1,8.053145E-3,1.5421784E-2,6.4401603E-3,1.3493462E0,-2.4360437E-2,-5.2015674E-3],"split_indices":[0,0,9,0,0,0,0],"split_type":[0,0,0,0,0,0,0],"sum_hessian":[2.816196E1,8.319354E0,1.9842607E1,5.7339454E0,1.4108662E1,8.784291E0,5.3243704E0],"tree_param":{"num_deleted":"0","num_feature":"18","num_nodes":"7","size_leaf_vector":"1"}},{"base_weights":[-7.685317E-2,-2.0403266E-1,1.1700317E-2,-2.3949966E-2,3.8219232E-2,-6.235749E-3,1.2848162E-2],"categories":[],"categories_nodes":[],"categories_segments":[],"categories_sizes":[],"default_left":[0,0,0,0,0,0,0],"id":56,"left_children":[1,3,-1,-1,5,-1,-1],"loss_changes":[1.4365938E0,2.1585436E0,0E0,0E0,9.087545E-1,0E0,0E0],"parents":[2147483647,0,0,1,1,4,4],"right_children":[2,4,-1,-1,6,-1,-1],"split_conditions":[3.770893E-2,1E0,1.1700317E-2,-2.3949966E-2,3.7488284E0,-6.235749E-3,1.2848162E-2],"split_indices":[9,3,0,0,2,0,0],"split_type":[0,0,0,0,0,0,0],"sum_hessian":[2.7176264E1,2.0715017E1,6.4612455E0,7.038821E0,1.3676196E1,8.511448E0,5.1647487E0],"tree_param":{"num_deleted":"0","num_feature":"18","num_nodes":"7","size_leaf_vector":"1"}},{"base_weights":[3.2123607E-2,2.7433538E-1,-1.5105903E-1,-3.4113224E-3,2.171534E-2,-2.0369597E-2,8.459756E-3],"categories":[],"categories_nodes":[],"categories_segments":[],"categories_sizes":[],"default_left":[0,0,0,0,0,0,0],"id":57,"left_children":[1,3,5,-1,-1,-1,-1],"loss_changes":[1.4380517E0,1.4105068E0,2.580052E0,0E0,0E0,0E0,0E0],"parents":[2147483647,0,0,1,1,2,2],"right_children":[2,4,6,-1,-1,-1,-1],"split_conditions":[1.865486E-2,1.4312266E-2,2.980482E-2,-3.4113224E-3,2.171534E-2,-2.0369597E-2,8.459756E-3],"split_indices":[9,9,9,0,0,0,0],"split_type":[0,0,0,0,0,0,0],"sum_hessian":[2.9510181E1,1.2386208E1,1.7123974E1,5.7328596E0,6.6533484E0,8.308639E0,8.815335E0],"tree_param":{"num_deleted":"0","num_feature":"18","num_nodes":"7","size_leaf_vector":"1"}},{"base_weights":[-6.713416E-2,9.037018E-2,-1.6231347E-2,-1.07960284E-1,1.2864298E-2,6.731783E-3,-1.4352311E-2],"categories":[],"categories_nodes":[],"categories_segments":[],"categories_sizes":[],"default_left":[0,0,0,0,0,0,0],"id":58,"left_children":[1,3,-1,5,-1,-1,-1],"loss_changes":[1.5485897E0,9.8487556E-1,0E0,9.2712605E-1,0E0,0E0,0E0],"parents":[2147483647,0,0,1,1,3,3],"right_children":[2,4,-1,6,-1,-1,-1],"split_conditions":[2.2264011E1,2.4018319E0,-1.6231347E-2,1.7620544E0,1.2864298E-2,6.731783E-3,-1.4352311E-2],"split_indices":[6,1,0,1,0,0,0],"split_type":[0,0,0,0,0,0,0],"sum_hessian":[2.6501837E1,1.8839424E1,7.6624117E0,1.0571774E1,8.267652E0,5.2660217E0,5.305752E0],"tree_param":{"num_deleted":"0","num_feature":"18","num_nodes":"7","size_leaf_vector":"1"}},{"base_weights":[1.0243957E-3,3.0008766E-1,-2.5603223E-1,-4.8982403E-3,3.0633977E-2,-2.454079E-2,4.0342803E-3],"categories":[],"categories_nodes":[],"categories_segments":[],"categories_sizes":[],"default_left":[0,0,0,0,0,0,0],"id":59,"left_children":[1,3,5,-1,-1,-1,-1],"loss_changes":[2.245925E0,2.7978675E0,2.0976648E0,0E0,0E0,0E0,0E0],"parents":[2147483647,0,0,1,1,2,2],"right_children":[2,4,6,-1,-1,-1,-1],"split_conditions":[1.0706507E1,2.8994042E-2,1E0,-4.8982403E-3,3.0633977E-2,-2.454079E-2,4.0342803E-3],"split_indices":[6,9,5,0,0,0,0],"split_type":[0,0,0,0,0,0,0],"sum_hessian":[2.6215693E1,1.2001677E1,1.4214017E1,6.872502E0,5.1291747E0,6.562201E0,7.6518154E0],"tree_param":{"num_deleted":"0","num_feature":"18","num_nodes":"7","size_leaf_vector":"1"}}]},"name":"gbtree"},"learner_model_param":{"base_score":"[5.7236844E-1]","boost_from_average":"1","num_class":"0","num_feature":"18","num_target":"1"},"objective":{"name":"binary:logistic","reg_loss_param":{"scale_pos_weight":"1"}}},"version":[3,3,0]}