{"learner":{"attributes":{},"feature_names":[],"feature_types":[],"gradient_booster":{"model":{"cats":{"enc":[],"feature_segments":[],"sorted_idx":[]},"gbtree_model_param":{"num_parallel_tree":"1","num_trees":"250"},"iteration_indptr":[0,1,2,3,4,5,6,7,8,9,10,11,12,13,14,15,16,17,18,19,20,21,22,23,24,25,26,27,28,29,30,31,32,33,34,35,36,37,38,39,40,41,42,43,44,45,46,47,48,49,50,51,52,53,54,55,56,57,58,59,60,61,62,63,64,65,66,67,68,69,70,71,72,73,74,75,76,77,78,79,80,81,82,83,84,85,86,87,88,89,90,91,92,93,94,95,96,97,98,99,100,101,102,103,104,105,106,107,108,109,110,111,112,113,114,115,116,117,118,119,120,121,122,123,124,125,126,127,128,129,130,131,132,133,134,135,136,137,138,139,140,141,142,143,144,145,146,147,148,149,150,151,152,153,154,155,156,157,158,159,160,161,162,163,164,165,166,167,168,169,170,171,172,173,174,175,176,177,178,179,180,181,182,183,184,185,186,187,188,189,190,191,192,193,194,195,196,197,198,199,200,201,202,203,204,205,206,207,208,209,210,211,212,213,214,215,216,217,218,219,220,221,222,223,224,225,226,227,228,229,230,231,232,233,234,235,236,237,238,239,240,241,242,243,244,245,246,247,248,249,250],"tree_info":[0,0,0,0,0,0,0,0,0,0,0,0,0,0,0,0,0,0,0,0,0,0,0,0,0,0,0,0,0,0,0,0,0,0,0,0,0,0,0,0,0,0,0,0,0,0,0,0,0,0,0,0,0,0,0,0,0,0,0,0,0,0,0,0,0,0,0,0,0,0,0,0,0,0,0,0,0,0,0,0,0,0,0,0,0,0,0,0,0,0,0,0,0,0,0,0,0,0,0,0,0,0,0,0,0,0,0,0,0,0,0,0,0,0,0,0,0,0,0,0,0,0,0,0,0,0,0,0,0,0,0,0,0,0,0,0,0,0,0,0,0,0,0,0,0,0,0,0,0,0,0,0,0,0,0,0,0,0,0,0,0,0,0,0,0,0,0,0,0,0,0,0,0,0,0,0,0,0,0,0,0,0,0,0,0,0,0,0,0,0,0,0,0,0,0,0,0,0,0,0,0,0,0,0,0,0,0,0,0,0,0,0,0,0,0,0,0,0,0,0,0,0,0,0,0,0,0,0,0,0,0,0,0,0,0,0,0,0,0,0,0,0,0,0,0,0,0,0,0,0],"trees":[{"base_weights":[6.418518E-4,1.6334882E-1,-7.608702E-2,2.9368052E-1,-6.612472E-2,-3.7557814E-1,-1.5683524E-2,2.540614E-1,1.3567654E0,-2.008701E-1,3.2964173E-1,-4.464259E-1,2.5347534E-1,-7.015944E-2,2.7111965E-1,4.8244838E-3,1.5376144E-2,5.1450234E-2,1.31239565E-2,2.8056378E-2,-7.2078924E-3,-1.8188514E-2,1.877099E-2,-2.9743502E-2,-9.134168E-3,2.2351095E-2,-1.7888391E-2,-1.2531914E-3,-2.936827E-2,-6.629631E-3,1.1357578E-2],"categories":[],"categories_nodes":[],"categories_segments":[],"categories_sizes":[],"default_left":[0,0,0,0,0,0,0,0,0,0,0,0,0,0,0,0,0,0,0,0,0,0,0,0,0,0,0,0,0,0,0],"id":0,"left_children":[1,3,5,7,9,11,13,15,17,19,21,23,25,27,29,-1,-1,-1,-1,-1,-1,-1,-1,-1,-1,-1,-1,-1,-1,-1,-1],"loss_changes":[3.0119146E1,2.3141623E1,2.9652138E1,2.043055E1,1.5043943E1,1.2374207E1,2.1350718E1,1.1408451E1,5.01038E0,9.629549E0,2.0250776E1,1.8856697E1,1.234323E1,2.957891E1,1.162015E1,0E0,0E0,0E0,0E0,0E0,0E0,0E0,0E0,0E0,0E0,0E0,0E0,0E0,0E0,0E0,0E0],"parents":[2147483647,0,0,1,1,2,2,3,3,4,4,5,5,6,6,7,7,8,8,9,9,10,10,11,11,12,12,13,13,14,14],"right_children":[2,4,6,8,10,12,14,16,18,20,22,24,26,28,30,-1,-1,-1,-1,-1,-1,-1,-1,-1,-1,-1,-1,-1,-1,-1,-1],"split_conditions":[1.2988705E-2,2.2284976E-1,7.864486E-1,1.4137988E0,1.2895695E0,7.5119026E-2,3.9958294E-2,3.7081637E-3,2.201685E-2,1.6525496E-3,5.9593366E-3,2.6998185E-3,1.4500516E-2,2.2099977E0,2.3894507E-2,4.8244838E-3,1.5376144E-2,5.1450234E-2,1.31239565E-2,2.8056378E-2,-7.2078924E-3,-1.8188514E-2,1.877099E-2,-2.9743502E-2,-9.134168E-3,2.2351095E-2,-1.7888391E-2,-1.2531914E-3,-2.936827E-2,-6.629631E-3,1.1357578E-2],"split_indices":[18,5,9,9,9,5,2,16,17,16,8,3,16,9,3,0,0,0,0,0,0,0,0,0,0,0,0,0,0,0,0],"split_type":[0,0,0,0,0,0,0,0,0,0,0,0,0,0,0,0,0,0,0,0,0,0,0,0,0,0,0,0,0,0,0],"sum_hessian":[2.410562E3,7.721195E2,1.6384425E3,4.9225742E2,2.798621E2,2.741149E2,1.3643276E3,4.7576553E2,1.6491873E1,2.0914693E2,7.071515E1,2.4662846E2,2.7486454E1,1.1471847E3,2.1714299E2,3.5082712E2,1.2493843E2,1.1244458E1,5.247414E0,6.2469215E0,2.0290001E2,1.6741749E1,5.39734E1,4.9725494E1,1.9690297E2,1.749138E1,9.995074E0,1.1134513E3,3.3733376E1,3.873091E1,1.7841208E2],"tree_param":{"num_deleted":"0","num_feature":"20","num_nodes":"31","size_leaf_vector":"1"}},{"base_weights":[-1.2500923E-4,1.7188433E-1,-8.179124E-2,-6.9210365E-2,3.0304307E-1,-4.1970786E-1,-1.3751384E-2,-2.2062658E-1,3.8809493E-1,2.7058342E-1,1.2679129E0,2.1161541E-1,-4.9024087E-1,-7.935735E-2,3.3291742E-1,-3.7734872E-3,-2.3123557E-2,3.1765483E-2,-3.6495565E-3,2.1896059E-2,6.1914385E-3,1.9109063E-2,4.7955103E-2,-1.8750392E-2,2.7122762E-2,1.5374477E-2,-1.6293762E-2,-1.8556586E-3,-3.8573075E-2,-1.0693009E-2,1.2292471E-2],"categories":[],"categories_nodes":[],"categories_segments":[],"categories_sizes":[],"default_left":[0,0,0,0,0,0,0,0,0,0,0,0,0,0,0,0,0,0,0,0,0,0,0,0,0,0,0,0,0,0,0],"id":1,"left_children":[1,3,5,7,9,11,13,15,17,19,21,23,25,27,29,-1,-1,-1,-1,-1,-1,-1,-1,-1,-1,-1,-1,-1,-1,-1,-1],"loss_changes":[3.418406E1,2.4793936E1,3.793229E1,1.9255053E1,1.5553875E1,1.2417114E1,3.128845E1,1.0788432E1,2.379794E1,1.43666725E1,2.3709965E0,1.706933E1,1.3484402E1,2.434213E1,1.1741241E1,0E0,0E0,0E0,0E0,0E0,0E0,0E0,0E0,0E0,0E0,0E0,0E0,0E0,0E0,0E0,0E0],"parents":[2147483647,0,0,1,1,2,2,3,3,4,4,5,5,6,6,7,7,8,8,9,9,10,10,11,11,12,12,13,13,14,14],"right_children":[2,4,6,8,10,12,14,16,18,20,22,24,26,28,30,-1,-1,-1,-1,-1,-1,-1,-1,-1,-1,-1,-1,-1,-1,-1,-1],"split_conditions":[1.3297309E-2,3.8857514E-1,7.864486E-1,1.2977417E0,1.4524963E0,4.624405E-1,4.1446332E-2,1.5434111E-2,-3.5097399E-3,-1.7927836E-3,-6.8069566E-3,-1.6476868E-2,1.8735455E-3,5.9318095E-2,5.033405E-1,-3.7734872E-3,-2.3123557E-2,3.1765483E-2,-3.6495565E-3,2.1896059E-2,6.1914385E-3,1.9109063E-2,4.7955103E-2,-1.8750392E-2,2.7122762E-2,1.5374477E-2,-1.6293762E-2,-1.8556586E-3,-3.8573075E-2,-1.0693009E-2,1.2292471E-2],"split_indices":[18,4,9,9,9,4,2,16,15,6,13,2,16,16,4,0,0,0,0,0,0,0,0,0,0,0,0,0,0,0,0],"split_type":[0,0,0,0,0,0,0,0,0,0,0,0,0,0,0,0,0,0,0,0,0,0,0,0,0,0,0,0,0,0,0],"sum_hessian":[2.4314866E3,7.824172E2,1.6490695E3,2.758411E2,5.0657608E2,2.7552405E2,1.3735454E3,2.0761592E2,6.822518E1,4.913275E2,1.5248554E1,2.7487759E1,2.480363E2,1.1556193E3,2.1792618E2,1.7813522E2,2.9480694E1,2.8994856E1,3.9230328E1,5.8986343E1,4.323412E2,6.2489567E0,8.999598E0,1.2492336E1,1.4995423E1,1.1990915E1,2.3604538E2,1.14013E3,1.5489204E1,2.1488373E1,1.964378E2],"tree_param":{"num_deleted":"0","num_feature":"20","num_nodes":"31","size_leaf_vector":"1"}},{"base_weights":[-4.573218E-3,1.3245033E-1,-6.487407E-2,-8.176179E-2,2.5602618E-1,-3.223267E-1,-1.22639015E-2,2.2529668E-1,-2.7162835E-1,6.95987E-1,1.690405E-1,-2.1125843E-1,-9.3035257E-1,-3.821105E-1,4.055014E-2,-2.815298E-3,2.7876146E-2,-2.5692057E-2,-5.103578E-3,2.8783968E-2,1.1332192E-2,3.8197073E-3,3.9498966E-2,-7.911079E-3,1.5456939E-2,-3.3737402E-2,-8.508519E-3,-8.719324E-4,-1.7027138E-2,-7.063292E-3,3.2277443E-3],"categories":[],"categories_nodes":[],"categories_segments":[],"categories_sizes":[],"default_left":[0,0,0,0,0,0,0,0,0,0,0,0,0,0,0,0,0,0,0,0,0,0,0,0,0,0,0,0,0,0,0],"id":2,"left_children":[1,3,5,7,9,11,13,15,17,19,21,23,25,27,29,-1,-1,-1,-1,-1,-1,-1,-1,-1,-1,-1,-1,-1,-1,-1,-1],"loss_changes":[2.0087566E1,1.9687813E1,2.2861351E1,1.595128E1,1.7922594E1,1.91446E1,2.7415503E1,2.3604368E1,9.8784485E0,6.1355476E0,1.8737623E1,9.411587E0,5.200775E0,1.1466587E1,2.275381E1,0E0,0E0,0E0,0E0,0E0,0E0,0E0,0E0,0E0,0E0,0E0,0E0,0E0,0E0,0E0,0E0],"parents":[2147483647,0,0,1,1,2,2,3,3,4,4,5,5,6,6,7,7,8,8,9,9,10,10,11,11,12,12,13,13,14,14],"right_children":[2,4,6,8,10,12,14,16,18,20,22,24,26,28,30,-1,-1,-1,-1,-1,-1,-1,-1,-1,-1,-1,-1,-1,-1,-1,-1],"split_conditions":[1.21853165E-2,3.8857514E-1,7.864486E-1,-2.2702627E-3,-1.3858507E-3,1.9677723E-2,3.9088503E-1,1.2977417E0,-3.7683245E-2,1.3325278E-1,1.4137988E0,8.414254E-2,7.4867153E-1,-6.628534E-3,4.376067E-3,-2.815298E-3,2.7876146E-2,-2.5692057E-2,-5.103578E-3,2.8783968E-2,1.1332192E-2,3.8197073E-3,3.9498966E-2,-7.911079E-3,1.5456939E-2,-3.3737402E-2,-8.508519E-3,-8.719324E-4,-1.7027138E-2,-7.063292E-3,3.2277443E-3],"split_indices":[18,4,9,15,6,16,4,9,2,5,9,18,9,6,17,0,0,0,0,0,0,0,0,0,0,0,0,0,0,0,0],"split_type":[0,0,0,0,0,0,0,0,0,0,0,0,0,0,0,0,0,0,0,0,0,0,0,0,0,0,0,0,0,0,0],"sum_hessian":[2.429093E3,7.4194684E2,1.6871461E3,2.7155655E2,4.7039032E2,2.8539807E2,1.401748E3,1.03685814E2,1.6787074E2,7.6493965E1,3.9389636E2,2.4245601E2,4.2942055E1,1.7437791E2,1.2273701E3,7.193734E1,3.1748476E1,2.373003E1,1.441407E2,4.0745605E1,3.574836E1,3.811518E2,1.2744567E1,2.2672601E2,1.5729997E1,3.245601E1,1.0486048E1,6.0453796E1,1.1392411E2,2.3938153E2,9.879886E2],"tree_param":{"num_deleted":"0","num_feature":"20","num_nodes":"31","size_leaf_vector":"1"}},{"base_weights":[6.6022296E-3,1.4406478E-1,-5.847898E-2,-8.818726E-2,2.692527E-1,-9.6549556E-2,2.1159877E-1,1.901649E-1,-2.6668754E-1,6.0013396E-1,2.0505692E-1,-8.283044E-2,-9.03964E-1,4.093737E-1,-1.1692981E-1,-1.6927602E-2,9.236233E-3,-1.0250433E-2,1.4515163E-2,1.1038096E-2,3.6659513E-2,-7.669358E-3,7.7691507E-3,-3.0919232E-3,2.0035284E-2,-3.3722658E-2,-5.003997E-3,5.935459E-3,2.1063264E-2,-1.1930844E-2,1.1130382E-2],"categories":[],"categories_nodes":[],"categories_segments":[],"categories_sizes":[],"default_left":[0,0,0,0,0,0,0,0,0,0,0,0,0,0,0,0,0,0,0,0,0,0,0,0,0,0,0,0,0,0,0],"id":3,"left_children":[1,3,5,7,9,11,13,15,17,19,21,23,25,27,29,-1,-1,-1,-1,-1,-1,-1,-1,-1,-1,-1,-1,-1,-1,-1,-1],"loss_changes":[2.188104E1,2.287336E1,1.7088745E1,1.376385E1,1.0728741E1,1.6048985E1,1.3393814E1,9.80169E0,9.653555E0,1.1461903E1,1.0731693E1,2.1825306E1,3.742447E0,7.8140793E0,1.082841E1,0E0,0E0,0E0,0E0,0E0,0E0,0E0,0E0,0E0,0E0,0E0,0E0,0E0,0E0,0E0,0E0],"parents":[2147483647,0,0,1,1,2,2,3,3,4,4,5,5,6,6,7,7,8,8,9,9,10,10,11,11,12,12,13,13,14,14],"right_children":[2,4,6,8,10,12,14,16,18,20,22,24,26,28,30,-1,-1,-1,-1,-1,-1,-1,-1,-1,-1,-1,-1,-1,-1,-1,-1],"split_conditions":[1.3297309E-2,3.8857514E-1,4.829705E-2,-2.1066726E-3,-1.3858507E-3,5.66599E-2,3.96905E-2,-2.0534746E-2,2.468336E-2,-9.455265E-4,1.4711779E-3,6.1889E-2,5.8089995E-1,3.1854488E-2,9.48374E-2,-1.6927602E-2,9.236233E-3,-1.0250433E-2,1.4515163E-2,1.1038096E-2,3.6659513E-2,-7.669358E-3,7.7691507E-3,-3.0919232E-3,2.0035284E-2,-3.3722658E-2,-5.003997E-3,5.935459E-3,2.1063264E-2,-1.1930844E-2,1.1130382E-2],"split_indices":[18,4,13,15,6,8,15,15,15,1,16,15,10,8,13,0,0,0,0,0,0,0,0,0,0,0,0,0,0,0,0],"split_type":[0,0,0,0,0,0,0,0,0,0,0,0,0,0,0,0,0,0,0,0,0,0,0,0,0,0,0,0,0,0,0],"sum_hessian":[2.4438977E3,7.848814E2,1.6590162E3,2.749963E2,5.0988513E2,1.4546141E3,2.0440215E2,1.0742036E2,1.6757593E2,8.14943E1,4.2839084E2,1.4313953E3,2.3218855E1,1.27438065E2,7.696409E1,1.39863205E1,9.343404E1,1.5284792E2,1.4728019E1,6.049666E1,2.0997643E1,4.448914E1,3.839017E2,1.3946661E3,3.672918E1,1.7475586E1,5.743269E0,7.4953735E1,5.2484333E1,4.89709E1,2.7993187E1],"tree_param":{"num_deleted":"0","num_feature":"20","num_nodes":"31","size_leaf_vector":"1"}},{"base_weights":[6.197945E-3,1.4765817E-1,-5.5639293E-2,-2.4671005E-2,2.763345E-1,-3.0666563E-1,-1.5139712E-2,3.1972754E-1,-2.1081987E-1,6.9579554E-1,2.0906933E-1,-4.2332187E-1,2.1242955E-1,-2.3546359E-3,-6.9899404E-1,-9.962237E-3,1.2732658E-2,-2.4563571E-2,-3.874411E-3,2.9715313E-2,5.334799E-3,1.8772201E-3,1.168202E-2,-2.9460252E-3,-1.8398825E-2,-1.12543525E-2,1.5960503E-2,-6.586802E-4,2.0917464E-2,-3.3272468E-2,2.0335162E-2],"categories":[],"categories_nodes":[],"categories_segments":[],"categories_sizes":[],"default_left":[0,0,0,0,0,0,0,0,0,0,0,0,0,0,0,0,0,0,0,0,0,0,0,0,0,0,0,0,0,0,0],"id":4,"left_children":[1,3,5,7,9,11,13,15,17,19,21,23,25,27,29,-1,-1,-1,-1,-1,-1,-1,-1,-1,-1,-1,-1,-1,-1,-1,-1],"loss_changes":[2.122757E1,1.6374392E1,1.7162844E1,2.0355186E1,1.1780052E1,1.4292572E1,1.27204895E1,7.744896E0,1.0124336E1,8.675045E0,9.636106E0,1.1788353E1,8.4060335E0,1.9616934E1,1.5827982E1,0E0,0E0,0E0,0E0,0E0,0E0,0E0,0E0,0E0,0E0,0E0,0E0,0E0,0E0,0E0,0E0],"parents":[2147483647,0,0,1,1,2,2,3,3,4,4,5,5,6,6,7,7,8,8,9,9,10,10,11,11,12,12,13,13,14,14],"right_children":[2,4,6,8,10,12,14,16,18,20,22,24,26,28,30,-1,-1,-1,-1,-1,-1,-1,-1,-1,-1,-1,-1,-1,-1,-1,-1],"split_conditions":[1.2366385E-2,4.0653616E-1,3.7081637E-3,-2.6176225E-3,-1.4273892E-3,1.0741591E-2,5.9318095E-2,-2.0534746E-2,-4.2875033E-2,1.3193217E-2,-1.650945E-4,2.3408716E-3,-4.0453923E-1,8.315357E-2,1.9811837E-2,-9.962237E-3,1.2732658E-2,-2.4563571E-2,-3.874411E-3,2.9715313E-2,5.334799E-3,1.8772201E-3,1.168202E-2,-2.9460252E-3,-1.8398825E-2,-1.12543525E-2,1.5960503E-2,-6.586802E-4,2.0917464E-2,-3.3272468E-2,2.0335162E-2],"split_indices":[18,4,16,15,6,13,16,15,2,8,6,16,10,15,6,0,0,0,0,0,0,0,0,0,0,0,0,0,0,0,0],"split_type":[0,0,0,0,0,0,0,0,0,0,0,0,0,0,0,0,0,0,0,0,0,0,0,0,0,0,0,0,0,0,0],"sum_hessian":[2.4247593E3,7.371198E2,1.6876394E3,3.1545563E2,4.216642E2,2.335385E2,1.4541008E3,1.1042958E2,2.0502605E2,5.698232E1,3.646819E2,1.9083635E2,4.2702145E1,1.4283995E3,2.5701363E1,1.4982193E1,9.544739E1,2.3212078E1,1.8181398E2,3.573656E1,2.1245756E1,2.0196172E2,1.6272017E2,7.094209E1,1.1989426E2,1.4982446E1,2.7719698E1,1.3904117E3,3.798771E1,1.9952885E1,5.748478E0],"tree_param":{"num_deleted":"0","num_feature":"20","num_nodes":"31","size_leaf_vector":"1"}},{"base_weights":[-2.6121677E-3,1.4396194E-1,-6.622391E-2,-3.356758E-3,2.8016487E-1,-1.1088901E-1,2.0059715E-1,3.1641242E-1,-2.0331891E-1,9.953314E-1,1.9538824E-1,-8.8102095E-2,-7.806359E-1,-3.3946684E-1,2.9301685E-1,3.1327568E-2,5.173538E-3,-1.4971381E-2,-2.1370081E-3,3.3786077E-2,4.130913E-3,4.2710667E-3,2.6708202E-2,-5.023384E-3,5.5328204E-4,4.1205967E-3,-2.6899932E-2,2.294301E-2,-1.6537584E-2,5.806957E-3,2.5307365E-2],"categories":[],"categories_nodes":[],"categories_segments":[],"categories_sizes":[],"default_left":[0,0,0,0,0,0,0,0,0,0,0,0,0,0,0,0,0,0,0,0,0,0,0,0,0,0,0,0,0,0,0],"id":5,"left_children":[1,3,5,7,9,11,13,15,17,19,21,23,25,27,29,-1,-1,-1,-1,-1,-1,-1,-1,-1,-1,-1,-1,-1,-1,-1,-1],"loss_changes":[2.2776838E1,1.4835692E1,2.0324013E1,2.2837702E1,2.3097395E1,2.2211197E1,1.2309515E1,1.4218869E1,8.54769E0,4.3871727E0,1.2572765E1,1.1947961E1,5.226017E0,8.889437E0,1.1303345E1,0E0,0E0,0E0,0E0,0E0,0E0,0E0,0E0,0E0,0E0,0E0,0E0,0E0,0E0,0E0,0E0],"parents":[2147483647,0,0,1,1,2,2,3,3,4,4,5,5,6,6,7,7,8,8,9,9,10,10,11,11,12,12,13,13,14,14],"right_children":[2,4,6,8,10,12,14,16,18,20,22,24,26,28,30,-1,-1,-1,-1,-1,-1,-1,-1,-1,-1,-1,-1,-1,-1,-1,-1],"split_conditions":[1.21853165E-2,4.2408744E-1,4.1446332E-2,-1.5550642E-3,-1.0724757E-2,4.9433373E-2,1.6333451E-2,1.7195188E-2,9.478473E-4,4.894963E-4,7.942991E-3,-4.920877E-2,-8.962703E-1,1.7801626E-2,4.2185605E-2,3.1327568E-2,5.173538E-3,-1.4971381E-2,-2.1370081E-3,3.3786077E-2,4.130913E-3,4.2710667E-3,2.6708202E-2,-5.023384E-3,5.5328204E-4,4.1205967E-3,-2.6899932E-2,2.294301E-2,-1.6537584E-2,5.806957E-3,2.5307365E-2],"split_indices":[18,4,2,15,3,8,3,17,15,2,15,5,10,8,8,0,0,0,0,0,0,0,0,0,0,0,0,0,0,0,0],"split_type":[0,0,0,0,0,0,0,0,0,0,0,0,0,0,0,0,0,0,0,0,0,0,0,0,0,0,0,0,0,0,0],"sum_hessian":[2.440839E3,7.3832605E2,1.7025132E3,3.5515814E2,3.831679E2,1.4588844E3,2.4362874E2,1.3641997E2,2.1873816E2,3.9469208E1,3.436987E2,1.4119761E3,4.6908356E1,3.5208885E1,2.0841985E2,2.1494452E1,1.1492552E2,6.667673E1,1.5206143E2,3.3972073E1,5.4971366E0,3.204532E2,2.3245512E1,8.089664E2,6.030097E2,5.2430263E0,4.166533E1,5.2459455E0,2.996294E1,1.7767656E2,3.07433E1],"tree_param":{"num_deleted":"0","num_feature":"20","num_nodes":"31","size_leaf_vector":"1"}},{"base_weights":[-1.1657293E-4,1.021736E-2,-6.386948E-1,-1.312863E-1,5.910794E-2,-9.694018E-1,3.7020706E-2,1.5906729E-2,-3.5932073E-1,-1.00285046E-1,1.2193378E-1,-1.2615871E0,-5.2473277E-1,-1.7896794E-2,2.0133287E-3,2.0647397E-2,-1.2552069E-2,-2.2523454E-3,-2.7145827E-2,-9.346355E-3,4.6614814E-3,-5.0480332E-2,-1.6529337E-2,-3.8020592E-2,7.0688566E-3],"categories":[],"categories_nodes":[],"categories_segments":[],"categories_sizes":[],"default_left":[0,0,0,0,0,0,0,0,0,0,0,0,0,0,0,0,0,0,0,0,0,0,0,0,0],"id":6,"left_children":[1,3,5,7,9,11,-1,13,15,17,19,21,23,-1,-1,-1,-1,-1,-1,-1,-1,-1,-1,-1,-1],"loss_changes":[1.602641E1,1.6541819E1,2.5148825E1,2.0615112E1,1.780635E1,3.68153E0,0E0,1.1772379E1,1.5198059E1,1.01317425E1,1.8535196E1,4.8966236E0,8.750723E0,0E0,0E0,0E0,0E0,0E0,0E0,0E0,0E0,0E0,0E0,0E0,0E0],"parents":[2147483647,0,0,1,1,2,2,3,3,4,4,5,5,7,7,8,8,9,9,10,10,11,11,12,12],"right_children":[2,4,6,8,10,12,-1,14,16,18,20,22,24,-1,-1,-1,-1,-1,-1,-1,-1,-1,-1,-1,-1],"split_conditions":[2.3931599E0,8.4605217E-1,8.752088E-3,3.7694562E-4,4.1710293E-1,2.9696684E-4,3.7020706E-2,-2.5492068E-2,4.4010055E-1,4.5689706E-2,1.4732911E-3,6.9793746E-2,-1.938182E-2,-1.7896794E-2,2.0133287E-3,2.0647397E-2,-1.2552069E-2,-2.2523454E-3,-2.7145827E-2,-9.346355E-3,4.6614814E-3,-5.0480332E-2,-1.6529337E-2,-3.8020592E-2,7.0688566E-3],"split_indices":[9,9,6,6,4,7,0,13,4,16,17,17,13,0,0,0,0,0,0,0,0,0,0,0,0],"split_type":[0,0,0,0,0,0,0,0,0,0,0,0,0,0,0,0,0,0,0,0,0,0,0,0,0],"sum_hessian":[2.4266135E3,2.388938E3,3.7675514E1,6.130131E2,1.7759248E3,3.2430843E1,5.244669E0,3.7310767E2,2.3990549E2,5.01922E2,1.2740028E3,1.8462364E1,1.3968481E1,2.796467E1,3.45143E2,1.2239491E1,2.2766599E2,4.8773486E2,1.4187117E1,9.066912E1,1.1833337E3,1.0733816E1,7.7285476E0,6.7293577E0,7.2391233E0],"tree_param":{"num_deleted":"0","num_feature":"20","num_nodes":"25","size_leaf_vector":"1"}},{"base_weights":[1.7189535E-3,1.3177577E-2,-6.9227463E-1,2.3910886E-2,-5.143431E-1,-1.082281E0,3.5597526E-2,-1.4583491E-2,2.8546882E-1,1.7680475E-2,-7.8681314E-1,-1.3318294E0,-1.37067335E-2,3.7436184E-2,-6.518295E-4,1.1491907E-2,1.3160814E-3,-3.719472E-2,-7.4850577E-3,-4.6665397E-2,-3.0433645E-2],"categories":[],"categories_nodes":[],"categories_segments":[],"categories_sizes":[],"default_left":[0,0,0,0,0,0,0,0,0,0,0,0,0,0,0,0,0,0,0,0,0],"id":7,"left_children":[1,3,5,7,9,11,-1,13,15,-1,17,19,-1,-1,-1,-1,-1,-1,-1,-1,-1],"loss_changes":[1.927683E1,1.3513791E1,3.0136414E1,2.3544014E1,1.4776603E1,4.5617867E0,0E0,1.841703E1,7.05665E0,0E0,9.086142E0,6.601715E-2,0E0,0E0,0E0,0E0,0E0,0E0,0E0,0E0,0E0],"parents":[2147483647,0,0,1,1,2,2,3,3,4,4,5,5,7,7,8,8,10,10,11,11],"right_children":[2,4,6,8,10,12,-1,14,16,-1,18,20,-1,-1,-1,-1,-1,-1,-1,-1,-1],"split_conditions":[2.3931599E0,5.2724265E-2,3.316624E-2,1.2641959E0,6.4031266E-2,1.6830039E-3,3.5597526E-2,-1.5814967E-2,3.0901661E-2,1.7680475E-2,1.6380577E0,6.9793746E-2,-1.37067335E-2,3.7436184E-2,-6.518295E-4,1.1491907E-2,1.3160814E-3,-3.719472E-2,-7.4850577E-3,-4.6665397E-2,-3.0433645E-2],"split_indices":[9,8,2,9,17,2,0,6,8,0,9,17,0,0,0,0,0,0,0,0,0],"split_type":[0,0,0,0,0,0,0,0,0,0,0,0,0,0,0,0,0,0,0,0,0],"sum_hessian":[2.4219373E3,2.3835627E3,3.837432E1,2.3369678E3,4.659493E1,3.2129063E1,6.2452593E0,2.0379762E3,2.989917E2,8.995192E0,3.7599735E1,2.215785E1,9.971214E0,1.0490623E1,2.0274856E3,2.1254716E2,8.644453E1,1.9690811E1,1.7908924E1,1.0709007E1,1.1448842E1],"tree_param":{"num_deleted":"0","num_feature":"20","num_nodes":"21","size_leaf_vector":"1"}},{"base_weights":[-2.6529406E-3,1.9764622E-1,-3.021712E-2,4.643798E-2,4.46817E-1,-4.1397274E-1,-1.5335867E-2,-6.2373253E-3,2.7214907E-2,5.1162755E-1,-6.9107916E-3,-5.545572E-1,4.8011345E-1,-1.0545321E-3,-4.33428E-1,3.5358714E-3,-1.8482713E-2,2.8807912E-2,1.1798267E-2,-3.5737813E-2,-1.1881332E-2,2.7816227E-2,-1.3167314E-3,-8.9393056E-4,7.973563E-3,-1.809945E-2,2.6587823E-2],"categories":[],"categories_nodes":[],"categories_segments":[],"categories_sizes":[],"default_left":[0,0,0,0,0,0,0,0,0,0,0,0,0,0,0,0,0,0,0,0,0,0,0,0,0,0,0],"id":8,"left_children":[1,3,5,7,9,11,13,15,-1,17,-1,19,21,23,25,-1,-1,-1,-1,-1,-1,-1,-1,-1,-1,-1,-1],"loss_changes":[1.3571593E1,1.1182715E1,1.23329E1,8.446551E0,5.041462E0,1.0399908E1,1.2425485E1,1.3425271E1,0E0,5.075226E0,0E0,6.6062164E0,2.7326307E0,1.5449903E1,1.5945117E1,0E0,0E0,0E0,0E0,0E0,0E0,0E0,0E0,0E0,0E0,0E0,0E0],"parents":[2147483647,0,0,1,1,2,2,3,3,4,4,5,5,6,6,7,7,9,9,11,11,12,12,13,13,14,14],"right_children":[2,4,6,8,10,12,14,16,-1,18,-1,20,22,24,26,-1,-1,-1,-1,-1,-1,-1,-1,-1,-1,-1,-1],"split_conditions":[2.288433E-3,3.22217E-3,9.5412036E-4,1.1368171E-2,1.4716309E-2,1.2778733E-2,4.9433373E-2,7.199693E-3,2.7214907E-2,-2.4601195E-3,-6.9107916E-3,-5.624418E-1,5.883391E-2,2.7867885E-2,6.394764E-1,3.5358714E-3,-1.8482713E-2,2.8807912E-2,1.1798267E-2,-3.5737813E-2,-1.1881332E-2,2.7816227E-2,-1.3167314E-3,-8.9393056E-4,7.973563E-3,-1.809945E-2,2.6587823E-2],"split_indices":[16,8,17,17,17,8,8,17,0,1,0,5,13,16,4,0,0,0,0,0,0,0,0,0,0,0,0],"split_type":[0,0,0,0,0,0,0,0,0,0,0,0,0,0,0,0,0,0,0,0,0,0,0,0,0,0,0],"sum_hessian":[2.456058E3,2.963581E2,2.1597E3,1.8517302E2,1.1118509E2,7.962122E1,2.0800789E3,1.7542969E2,9.7433195E0,1.0169649E2,9.488598E0,6.913094E1,1.0490275E1,2.012343E3,6.773579E1,1.4643767E2,2.899203E1,1.974304E1,8.1953445E1,1.24813795E1,5.6649563E1,5.245346E0,5.2449293E0,1.8174603E3,1.9488274E2,6.04914E1,7.24438E0],"tree_param":{"num_deleted":"0","num_feature":"20","num_nodes":"27","size_leaf_vector":"1"}},{"base_weights":[-7.376002E-3,1.2708114E-1,-7.244792E-2,-2.9605558E-2,2.3359916E-1,-3.3922198E-1,-1.7125584E-2,1.01401806E-1,-4.2819005E-1,2.0150205E-1,3.9407123E-2,-2.2467558E-1,-8.940834E-1,-3.3242816E-1,2.249359E-2,-1.6310096E-2,4.82316E-3,-3.0288981E-2,-4.936761E-3,1.2753533E-2,2.5214402E-3,-8.685587E-3,1.9134058E-2,-3.055954E-2,5.371552E-4,-1.6338265E-2,5.0451374E-3,2.4662113E-3,-6.0717817E-3],"categories":[],"categories_nodes":[],"categories_segments":[],"categories_sizes":[],"default_left":[0,0,0,0,0,0,0,0,0,0,0,0,0,0,0,0,0,0,0,0,0,0,0,0,0,0,0,0,0],"id":9,"left_children":[1,3,5,7,9,11,13,15,17,19,-1,21,23,25,27,-1,-1,-1,-1,-1,-1,-1,-1,-1,-1,-1,-1,-1,-1],"loss_changes":[2.1291939E1,1.3253116E1,2.4195591E1,1.6861639E1,1.6116903E1,1.7696724E1,1.698693E1,9.402036E0,1.2076204E1,1.20492325E1,0E0,1.3313251E1,5.4542465E0,1.6214409E1,1.6244366E1,0E0,0E0,0E0,0E0,0E0,0E0,0E0,0E0,0E0,0E0,0E0,0E0,0E0,0E0],"parents":[2147483647,0,0,1,1,2,2,3,3,4,4,5,5,6,6,7,7,8,8,9,9,11,11,12,12,13,13,14,14],"right_children":[2,4,6,8,10,12,14,16,18,20,-1,22,24,26,28,-1,-1,-1,-1,-1,-1,-1,-1,-1,-1,-1,-1,-1,-1],"split_conditions":[1.3297309E-2,4.0451407E-1,7.864486E-1,4.0224837E-3,1.4395611E0,1.8777734E-2,2.5069513E-3,8.029116E-1,2.9008223E-2,-6.0080934E-1,3.9407123E-2,3.4584228E-2,7.1521527E-1,5.120007E-3,9.32953E-2,-1.6310096E-2,4.82316E-3,-3.0288981E-2,-4.936761E-3,1.2753533E-2,2.5214402E-3,-8.685587E-3,1.9134058E-2,-3.055954E-2,5.371552E-4,-1.6338265E-2,5.0451374E-3,2.4662113E-3,-6.0717817E-3],"split_indices":[18,4,9,15,9,16,17,9,17,10,0,13,4,15,17,0,0,0,0,0,0,0,0,0,0,0,0,0,0],"split_type":[0,0,0,0,0,0,0,0,0,0,0,0,0,0,0,0,0,0,0,0,0,0,0,0,0,0,0,0,0],"sum_hessian":[2.4314836E3,7.9266296E2,1.6388208E3,3.210801E2,4.7158282E2,2.8059763E2,1.3582231E3,2.4221432E2,7.886578E1,4.591241E2,1.24587345E1,2.3374738E2,4.685024E1,1.5079062E2,1.2074325E3,1.9726267E1,2.2248807E2,2.3720396E1,5.514539E1,1.572063E2,3.019178E2,2.180202E2,1.5727182E1,4.111712E1,5.733121E0,1.0584146E2,4.4949158E1,9.545957E2,2.5283678E2],"tree_param":{"num_deleted":"0","num_feature":"20","num_nodes":"29","size_leaf_vector":"1"}},{"base_weights":[9.213341E-3,1.6342278E-1,-5.8937125E-2,1.0866473E-1,6.7541367E-1,-1.0596306E-1,2.1729499E-1,2.4371639E-1,-1.7085616E-1,4.6922737E-1,4.6661902E-2,-8.7283246E-2,-8.6438596E-1,-2.9606336E-1,3.2806367E-1,5.9063006E-3,3.0554079E-2,-1.5473847E-2,-4.682219E-4,3.3323824E-2,-2.7500784E-5,-1.7949382E-3,-1.5546237E-2,-1.1364291E-3,-3.489548E-2,2.880039E-2,-1.614976E-2,-2.33663E-2,1.2280364E-2],"categories":[],"categories_nodes":[],"categories_segments":[],"categories_sizes":[],"default_left":[0,0,0,0,0,0,0,0,0,0,0,0,0,0,0,0,0,0,0,0,0,0,0,0,0,0,0,0,0],"id":10,"left_children":[1,3,5,7,9,11,13,15,17,19,-1,21,23,25,27,-1,-1,-1,-1,-1,-1,-1,-1,-1,-1,-1,-1,-1,-1],"loss_changes":[2.556797E1,2.083063E1,2.194139E1,2.5514225E1,1.2306442E1,2.0361109E1,1.4073735E1,1.6324549E1,1.1794839E1,1.7990713E1,0E0,1.6636654E1,8.491461E0,1.3950981E1,1.855137E1,0E0,0E0,0E0,0E0,0E0,0E0,0E0,0E0,0E0,0E0,0E0,0E0,0E0,0E0],"parents":[2147483647,0,0,1,1,2,2,3,3,4,4,5,5,6,6,7,7,8,8,9,9,11,11,12,12,13,13,14,14],"right_children":[2,4,6,8,10,12,14,16,18,20,-1,22,24,26,28,-1,-1,-1,-1,-1,-1,-1,-1,-1,-1,-1,-1,-1,-1],"split_conditions":[1.2366385E-2,1.3916694E0,4.1446332E-2,2.2284976E-1,-6.221447E-3,2.2099977E0,2.3894507E-2,1.501789E-2,-2.9769894E-2,-3.930755E-3,4.6661902E-2,4.3546494E-2,3.1526607E-2,1.7247597E-2,7.170356E-1,5.9063006E-3,3.0554079E-2,-1.5473847E-2,-4.682219E-4,3.3323824E-2,-2.7500784E-5,-1.7949382E-3,-1.5546237E-2,-1.1364291E-3,-3.489548E-2,2.880039E-2,-1.614976E-2,-2.33663E-2,1.2280364E-2],"split_indices":[18,9,2,5,3,9,3,15,2,15,0,8,18,8,9,0,0,0,0,0,0,0,0,0,0,0,0,0,0],"split_type":[0,0,0,0,0,0,0,0,0,0,0,0,0,0,0,0,0,0,0,0,0,0,0,0,0,0,0,0,0],"sum_hessian":[2.43094E3,7.4462354E2,1.6863164E3,6.737747E2,7.08488E1,1.4415265E3,2.4479E2,4.5437143E2,2.194033E2,5.8641823E1,1.2206973E1,1.4079636E3,3.3562794E1,4.3147896E1,2.016421E2,4.2964993E2,2.4721481E1,6.737782E1,1.5202548E2,2.4223434E1,3.441839E1,1.324712E3,8.325166E1,9.210979E0,2.4351814E1,6.4974256E0,3.665047E1,1.3206485E1,1.8843562E2],"tree_param":{"num_deleted":"0","num_feature":"20","num_nodes":"29","size_leaf_vector":"1"}},{"base_weights":[1.1899509E-2,1.6840377E-1,-6.519346E-2,-1.5160388E-1,2.4677977E-1,-1.1146679E-1,1.2840949E-1,3.9033613E-1,-3.269848E-1,1.7554049E-1,4.7559556E-1,-1.3078855E-1,5.791544E-1,4.417462E-1,2.8653322E-2,3.6760406E-3,2.9809836E-2,-4.9906913E-2,-7.4705984E-3,1.1161014E-2,2.3068958E-3,1.0224805E-2,3.0107217E-2,-1.1470724E-2,-2.67531E-3,2.4149971E-2,-9.603278E-3,-3.1829847E-3,2.3770222E-2,-2.1820967E-3,1.2475849E-2],"categories":[],"categories_nodes":[],"categories_segments":[],"categories_sizes":[],"default_left":[0,0,0,0,0,0,0,0,0,0,0,0,0,0,0,0,0,0,0,0,0,0,0,0,0,0,0,0,0,0,0],"id":11,"left_children":[1,3,5,7,9,11,13,15,17,19,21,23,25,27,29,-1,-1,-1,-1,-1,-1,-1,-1,-1,-1,-1,-1,-1,-1,-1,-1],"loss_changes":[2.9520401E1,2.0289062E1,1.4700599E1,1.5284951E1,1.0495308E1,1.773841E1,9.886572E0,6.2516217E0,1.2197538E1,9.594664E0,1.0579956E1,1.3453419E1,7.611374E0,1.4760209E1,9.503134E0,0E0,0E0,0E0,0E0,0E0,0E0,0E0,0E0,0E0,0E0,0E0,0E0,0E0,0E0,0E0,0E0],"parents":[2147483647,0,0,1,1,2,2,3,3,4,4,5,5,6,6,7,7,8,8,9,9,10,10,11,11,12,12,13,13,14,14],"right_children":[2,4,6,8,10,12,14,16,18,20,22,24,26,28,30,-1,-1,-1,-1,-1,-1,-1,-1,-1,-1,-1,-1,-1,-1,-1,-1],"split_conditions":[1.3525898E-2,3.361865E-1,3.3717148E-2,-8.695869E-3,4.8759747E-3,5.9746027E-2,-1.2841813E-3,1.45E1,-7.5127557E-3,-6.0080934E-1,-4.2576957E-3,2.5069513E-3,2.0311134E-1,1E0,9.071036E-2,3.6760406E-3,2.9809836E-2,-4.9906913E-2,-7.4705984E-3,1.1161014E-2,2.3068958E-3,1.0224805E-2,3.0107217E-2,-1.1470724E-2,-2.67531E-3,2.4149971E-2,-9.603278E-3,-3.1829847E-3,2.3770222E-2,-2.1820967E-3,1.2475849E-2],"split_indices":[18,4,13,15,16,15,15,19,15,10,13,17,10,14,13,0,0,0,0,0,0,0,0,0,0,0,0,0,0,0,0],"split_type":[0,0,0,0,0,0,0,0,0,0,0,0,0,0,0,0,0,0,0,0,0,0,0,0,0,0,0,0,0,0,0],"sum_hessian":[2.4447935E3,8.0645245E2,1.6383408E3,1.584736E2,6.479789E2,1.3226392E3,3.1570172E2,3.8446236E1,1.2002737E2,4.954829E2,1.5249597E2,1.2874309E3,3.520831E1,7.540968E1,2.4029204E2,2.7460348E1,1.0985888E1,5.494574E0,1.1453279E2,1.6467929E2,3.308036E2,1.2279704E2,2.9698938E1,1.8156477E2,1.1058661E3,2.8224674E1,6.983634E0,2.9698936E1,4.5710743E1,1.9107224E2,4.921981E1],"tree_param":{"num_deleted":"0","num_feature":"20","num_nodes":"31","size_leaf_vector":"1"}},{"base_weights":[-4.805368E-3,5.571012E-3,-6.7202806E-1,-2.5805704E-2,1.9676761E-1,-1.028246E0,3.2758985E-2,-4.2967748E-2,4.504762E-1,3.8026455E-1,-1.14259176E-1,-9.404439E-3,-1.2769266E0,-1.25961155E-2,-4.976062E-4,3.073809E-2,4.6279817E-3,1.3079659E-2,-2.3816016E-2,-7.925133E-3,2.3240915E-2,-4.9106356E-2,-2.8383989E-2],"categories":[],"categories_nodes":[],"categories_segments":[],"categories_sizes":[],"default_left":[0,0,0,0,0,0,0,0,0,0,0,0,0,0,0,0,0,0,0,0,0,0,0],"id":12,"left_children":[1,3,5,7,9,11,-1,13,15,17,19,-1,21,-1,-1,-1,-1,-1,-1,-1,-1,-1,-1],"loss_changes":[1.6839737E1,1.4376098E1,2.4527555E1,1.6847128E1,1.932358E1,5.199505E0,0E0,1.9759897E1,1.2033525E1,1.4262482E1,1.7011944E1,0E0,1.1954994E0,0E0,0E0,0E0,0E0,0E0,0E0,0E0,0E0,0E0,0E0],"parents":[2147483647,0,0,1,1,2,2,3,3,4,4,5,5,7,7,8,8,9,9,10,10,12,12],"right_children":[2,4,6,8,10,12,-1,14,16,18,20,-1,22,-1,-1,-1,-1,-1,-1,-1,-1,-1,-1],"split_conditions":[2.3931599E0,1.2724931E0,3.1679694E-2,6.1889E-2,3.0901661E-2,1.1768493E-2,3.2758985E-2,-3.837845E-2,6.228711E-2,7.6730096E-1,9.9215716E-2,-9.404439E-3,5.7161484E-2,-1.25961155E-2,-4.976062E-4,3.073809E-2,4.6279817E-3,1.3079659E-2,-2.3816016E-2,-7.925133E-3,2.3240915E-2,-4.9106356E-2,-2.8383989E-2],"split_indices":[9,9,2,15,8,8,0,13,18,4,2,0,17,0,0,0,0,0,0,0,0,0,0],"split_type":[0,0,0,0,0,0,0,0,0,0,0,0,0,0,0,0,0,0,0,0,0,0,0],"sum_hessian":[2.4307676E3,2.3945205E3,3.624697E1,2.0577021E3,3.3681845E2,3.0504116E1,5.742856E0,1.9870132E3,7.0688995E1,2.116993E2,1.25119156E2,8.457091E0,2.2047026E1,1.2900511E2,1.858008E3,2.3221355E1,4.746764E1,2.027075E2,8.991792E0,1.0766548E2,1.7453674E1,8.667346E0,1.337968E1],"tree_param":{"num_deleted":"0","num_feature":"20","num_nodes":"23","size_leaf_vector":"1"}},{"base_weights":[4.134251E-3,1.4822465E-1,-5.9029706E-2,1.0425218E-1,5.8346105E-1,-2.92159E-1,-1.1490774E-2,-2.5088838E-1,1.8157732E-1,1.3760822E0,3.8707557E-1,-2.0433873E-1,-8.2903177E-1,-5.9299927E-2,2.4061547E-1,-2.8894828E-3,-2.041337E-2,8.891162E-3,1.1407075E-3,2.4204655E-2,4.9465217E-2,2.3608175E-3,3.7215207E-2,-4.0807378E-2,-4.4834474E-3,-3.656581E-2,1.4404594E-2,-7.7286287E-4,-1.9295491E-2,1.741658E-2,1.5969218E-3],"categories":[],"categories_nodes":[],"categories_segments":[],"categories_sizes":[],"default_left":[0,0,0,0,0,0,0,0,0,0,0,0,0,0,0,0,0,0,0,0,0,0,0,0,0,0,0,0,0,0,0],"id":13,"left_children":[1,3,5,7,9,11,13,15,17,19,21,23,25,27,29,-1,-1,-1,-1,-1,-1,-1,-1,-1,-1,-1,-1,-1,-1,-1,-1],"loss_changes":[2.2363531E1,1.4271048E1,1.8929909E1,1.8756475E1,1.0129648E1,1.3471405E1,1.713002E1,8.05136E0,9.218891E0,7.2081757E-1,1.4716288E1,1.5656983E1,2.1175882E1,2.33739E1,1.4401071E1,0E0,0E0,0E0,0E0,0E0,0E0,0E0,0E0,0E0,0E0,0E0,0E0,0E0,0E0,0E0,0E0],"parents":[2147483647,0,0,1,1,2,2,3,3,4,4,5,5,6,6,7,7,8,8,9,9,10,10,11,11,12,12,13,13,14,14],"right_children":[2,4,6,8,10,12,14,16,18,20,22,24,26,28,30,-1,-1,-1,-1,-1,-1,-1,-1,-1,-1,-1,-1,-1,-1,-1,-1],"split_conditions":[1.2366385E-2,1.3916694E0,7.864486E-1,3.361865E-1,-8.695869E-3,1.964521E-2,3.9958294E-2,3.1689322E-1,3.1390658E-3,-1.7453648E-2,4.0282226E-1,-2.330142E-2,1E0,4.647197E-2,-2.8944826E-3,-2.8894828E-3,-2.041337E-2,8.891162E-3,1.1407075E-3,2.4204655E-2,4.9465217E-2,2.3608175E-3,3.7215207E-2,-4.0807378E-2,-4.4834474E-3,-3.656581E-2,1.4404594E-2,-7.7286287E-4,-1.9295491E-2,1.741658E-2,1.5969218E-3],"split_indices":[18,9,9,4,15,15,2,4,15,15,4,2,12,8,15,0,0,0,0,0,0,0,0,0,0,0,0,0,0,0,0],"split_type":[0,0,0,0,0,0,0,0,0,0,0,0,0,0,0,0,0,0,0,0,0,0,0,0,0,0,0,0,0,0,0],"sum_hessian":[2.4552131E3,7.478536E2,1.7073595E3,6.8035596E2,6.7497665E1,2.8831705E2,1.4190425E3,1.2124675E2,5.591092E2,1.2210094E1,5.528757E1,2.4897154E2,3.934551E1,1.1934775E3,2.2556499E2,9.006272E1,3.1184027E1,3.100827E2,2.4902649E2,5.2373953E0,6.972699E0,4.1414818E1,1.3872754E1,1.02088175E1,2.3876273E2,3.0371077E1,8.974432E0,1.1296361E3,6.3841373E1,7.94093E1,1.4615569E2],"tree_param":{"num_deleted":"0","num_feature":"20","num_nodes":"31","size_leaf_vector":"1"}},{"base_weights":[-1.9428141E-2,1.0018974E-1,-8.981624E-2,7.558083E-2,6.633158E-1,-3.5405084E-1,-3.6451574E-2,3.925447E-2,5.504265E-1,7.021155E-2,1.1720183E0,-8.26536E-2,-5.3122485E-1,-8.9147285E-2,2.1660228E-1,-8.328192E-3,3.0700357E-3,4.1028604E-2,9.013559E-3,-1.6906647E-2,2.917706E-2,4.966376E-2,1.5318036E-2,-8.419972E-3,2.346198E-2,-3.6091838E-2,-1.090818E-2,-1.7404857E-3,-2.2037903E-2,8.885028E-3,-1.7534269E-2],"categories":[],"categories_nodes":[],"categories_segments":[],"categories_sizes":[],"default_left":[0,0,0,0,0,0,0,0,0,0,0,0,0,0,0,0,0,0,0,0,0,0,0,0,0,0,0,0,0,0,0],"id":14,"left_children":[1,3,5,7,9,11,13,15,17,19,21,23,25,27,29,-1,-1,-1,-1,-1,-1,-1,-1,-1,-1,-1,-1,-1,-1,-1,-1],"loss_changes":[2.0505705E1,1.2453785E1,2.160484E1,1.4910233E1,1.1277576E1,1.2337021E1,1.7042648E1,1.612249E1,1.213991E1,1.1097751E1,5.6150513E0,1.7835667E1,1.708498E1,2.120212E1,1.4215447E1,0E0,0E0,0E0,0E0,0E0,0E0,0E0,0E0,0E0,0E0,0E0,0E0,0E0,0E0,0E0,0E0],"parents":[2147483647,0,0,1,1,2,2,3,3,4,4,5,5,6,6,7,7,8,8,9,9,10,10,11,11,12,12,13,13,14,14],"right_children":[2,4,6,8,10,12,14,16,18,20,22,24,26,28,30,-1,-1,-1,-1,-1,-1,-1,-1,-1,-1,-1,-1,-1,-1,-1,-1],"split_conditions":[1.5405057E-2,2.468336E-2,7.864486E-1,1.4395611E0,-5.5106063E-3,7.1832333E-3,3.9958294E-2,3.389036E-1,2.3681745E-2,4.7896415E-2,3.4353457E-2,3.6168125E-2,1.2650748E-2,4.8217393E-2,2.3045273E0,-8.328192E-3,3.0700357E-3,4.1028604E-2,9.013559E-3,-1.6906647E-2,2.917706E-2,4.966376E-2,1.5318036E-2,-8.419972E-3,2.346198E-2,-3.6091838E-2,-1.090818E-2,-1.7404857E-3,-2.2037903E-2,8.885028E-3,-1.7534269E-2],"split_indices":[18,15,9,9,6,16,2,4,17,15,15,18,8,8,10,0,0,0,0,0,0,0,0,0,0,0,0,0,0,0,0],"split_type":[0,0,0,0,0,0,0,0,0,0,0,0,0,0,0,0,0,0,0,0,0,0,0,0,0,0,0,0,0,0,0],"sum_hessian":[2.4333818E3,9.012944E2,1.5320874E3,8.6464325E2,3.665115E1,2.5648248E2,1.275605E3,8.0420325E2,6.044001E1,1.7447203E1,1.9203947E1,1.01883156E2,1.5459932E2,1.0562914E3,2.1931349E2,1.3295398E2,6.7124927E2,1.3110228E1,4.7329784E1,1.0469478E1,6.977726E0,1.0226405E1,8.977542E0,8.3449486E1,1.843367E1,2.9636265E1,1.2496306E2,1.0087287E3,4.7562767E1,2.0007205E2,1.9241434E1],"tree_param":{"num_deleted":"0","num_feature":"20","num_nodes":"31","size_leaf_vector":"1"}},{"base_weights":[8.330926E-3,1.1199642E-1,-5.3164735E-2,-6.0505126E-2,1.9711222E-1,-7.180508E-2,3.642917E-1,1.9267584E-1,-2.2357246E-1,1.13804415E-1,4.1901532E-1,-5.8644317E-2,-1.1269691E0,-1.684049E-1,9.4471383E-1,3.279219E-2,3.2500266E-3,-2.1743122E-2,-3.112712E-3,2.5070505E-3,3.647716E-2,7.5802812E-3,2.061892E-2,1.5425734E-2,-2.0563973E-3,-4.2838443E-2,-9.365455E-3,-3.0156579E-2,4.807121E-3,2.0761304E-2,4.723235E-2],"categories":[],"categories_nodes":[],"categories_segments":[],"categories_sizes":[],"default_left":[0,0,0,0,0,0,0,0,0,0,0,0,0,0,0,0,0,0,0,0,0,0,0,0,0,0,0,0,0,0,0],"id":15,"left_children":[1,3,5,7,9,11,13,15,17,19,21,23,25,27,29,-1,-1,-1,-1,-1,-1,-1,-1,-1,-1,-1,-1,-1,-1,-1,-1],"loss_changes":[1.5498421E1,1.3302266E1,1.1900955E1,1.2421796E1,1.1161348E1,2.0231232E1,2.0377697E1,8.842441E0,1.0904221E1,1.4634384E1,7.195387E0,8.23E0,3.9564247E0,9.771875E0,3.9136238E0,0E0,0E0,0E0,0E0,0E0,0E0,0E0,0E0,0E0,0E0,0E0,0E0,0E0,0E0,0E0,0E0],"parents":[2147483647,0,0,1,1,2,2,3,3,4,4,5,5,6,6,7,7,8,8,9,9,10,10,11,11,12,12,13,13,14,14],"right_children":[2,4,6,8,10,12,14,16,18,20,22,24,26,28,30,-1,-1,-1,-1,-1,-1,-1,-1,-1,-1,-1,-1,-1,-1,-1,-1],"split_conditions":[1.5227493E-2,3.8857514E-1,8.623242E-2,-2.2702627E-3,3.8568114E-3,5.9318095E-2,1.25E1,2.2139247E-3,-3.4609336E-2,1.2958734E-2,-2.778319E-3,-6.31579E-2,8.282884E-2,3.1854488E-2,4.7325928E-2,3.279219E-2,3.2500266E-3,-2.1743122E-2,-3.112712E-3,2.5070505E-3,3.647716E-2,7.5802812E-3,2.061892E-2,1.5425734E-2,-2.0563973E-3,-4.2838443E-2,-9.365455E-3,-3.0156579E-2,4.807121E-3,2.0761304E-2,4.723235E-2],"split_indices":[18,4,13,15,16,16,19,16,2,15,13,1,16,8,8,0,0,0,0,0,0,0,0,0,0,0,0,0,0,0,0],"split_type":[0,0,0,0,0,0,0,0,0,0,0,0,0,0,0,0,0,0,0,0,0,0,0,0,0,0,0,0,0,0,0],"sum_hessian":[2.4291995E3,9.0417584E2,1.5250236E3,2.9883182E2,6.0534406E2,1.4606311E3,6.439239E1,1.1699771E2,1.818341E2,4.4121432E2,1.641297E2,1.4436802E3,1.6951035E1,3.3946766E1,3.0445616E1,8.996341E0,1.0800137E2,3.410805E1,1.4772604E2,4.3047998E2,1.0734363E1,1.0251225E2,6.1617443E1,2.3666574E1,1.4200135E3,1.1828934E1,5.1221E0,8.991982E0,2.4954786E1,2.3225315E1,7.2203007E0],"tree_param":{"num_deleted":"0","num_feature":"20","num_nodes":"31","size_leaf_vector":"1"}},{"base_weights":[-7.907521E-3,1.14398025E-1,-6.6748925E-2,-3.3065505E-2,2.3388034E-1,-2.798903E-1,8.709967E-3,2.9471788E-1,-2.0599996E-1,2.0624542E-1,4.150145E-2,-1.3545808E-1,-4.7280326E-1,-3.6860913E-2,2.7421004E-1,1.5190892E-3,2.671928E-2,-2.9540634E-2,-5.0028274E-3,1.0765944E-2,1.3537244E-3,-1.1885085E-2,4.282125E-3,-2.2231374E-2,-7.531511E-3,-2.9330197E-4,-2.4961263E-2,5.0743055E-3,3.8867537E-2],"categories":[],"categories_nodes":[],"categories_segments":[],"categories_sizes":[],"default_left":[0,0,0,0,0,0,0,0,0,0,0,0,0,0,0,0,0,0,0,0,0,0,0,0,0,0,0,0,0],"id":16,"left_children":[1,3,5,7,9,11,13,15,17,19,-1,21,23,25,27,-1,-1,-1,-1,-1,-1,-1,-1,-1,-1,-1,-1,-1,-1],"loss_changes":[1.7489035E1,1.3916545E1,2.6390503E1,2.013898E1,1.3571207E1,1.18895645E1,1.46824665E1,1.7808706E1,6.938671E0,1.0487171E1,0E0,1.7952084E1,1.0716045E1,2.2302122E1,1.8858067E1,0E0,0E0,0E0,0E0,0E0,0E0,0E0,0E0,0E0,0E0,0E0,0E0,0E0,0E0],"parents":[2147483647,0,0,1,1,2,2,3,3,4,4,5,5,6,6,7,7,8,8,9,9,11,11,12,12,13,13,14,14],"right_children":[2,4,6,8,10,12,14,16,18,20,-1,22,24,26,28,-1,-1,-1,-1,-1,-1,-1,-1,-1,-1,-1,-1,-1,-1],"split_conditions":[1.3297309E-2,4.1710293E-1,8.4605217E-1,-2.4091913E-3,1.4699315E0,4.41946E-2,4.570307E-2,1.2895695E0,-7.3082134E-2,-6.5802036E-5,4.150145E-2,2.378625E-3,6.677462E-2,2.2099977E0,1.6894943E0,1.5190892E-3,2.671928E-2,-2.9540634E-2,-5.0028274E-3,1.0765944E-2,1.3537244E-3,-1.1885085E-2,4.282125E-3,-2.2231374E-2,-7.531511E-3,-2.9330197E-4,-2.4961263E-2,5.0743055E-3,3.8867537E-2],"split_indices":[18,4,9,15,9,18,2,9,2,2,0,2,18,9,9,0,0,0,0,0,0,0,0,0,0,0,0,0,0],"split_type":[0,0,0,0,0,0,0,0,0,0,0,0,0,0,0,0,0,0,0,0,0,0,0,0,0,0,0,0,0],"sum_hessian":[2.4281091E3,7.8840845E2,1.6397007E3,3.5320755E2,4.3520093E2,4.2801608E2,1.2116846E3,1.2174515E2,2.314624E2,4.261357E2,9.065216E0,2.4573709E2,1.82279E2,1.0349117E3,1.7677283E2,8.713924E1,3.460591E1,9.948212E0,2.2151419E2,2.182114E2,2.079243E2,1.2663594E2,1.1910114E2,8.1432594E1,1.0084641E2,1.00180225E3,3.3109478E1,1.6134158E2,1.5431246E1],"tree_param":{"num_deleted":"0","num_feature":"20","num_nodes":"29","size_leaf_vector":"1"}},{"base_weights":[4.134486E-3,1.145985E-1,-4.8919193E-2,7.308223E-2,5.308894E-1,-2.922838E-1,1.5690346E-3,1.5981638E-1,-2.0461975E-1,1.2536013E0,3.300627E-1,-2.0149368E-1,-7.897164E-1,-2.6152986E-1,5.399872E-2,-1.7087786E-2,5.5075744E-3,-1.6329972E-2,-1.691235E-3,2.300984E-2,4.7948793E-2,-2.646868E-4,3.426546E-2,-7.1407356E-3,3.4390457E-2,-2.842136E-2,-2.4467013E-3,-1.5139356E-2,-1.5675257E-3,3.573651E-3,-4.906758E-3],"categories":[],"categories_nodes":[],"categories_segments":[],"categories_sizes":[],"default_left":[0,0,0,0,0,0,0,0,0,0,0,0,0,0,0,0,0,0,0,0,0,0,0,0,0,0,0,0,0,0,0],"id":17,"left_children":[1,3,5,7,9,11,13,15,17,19,21,23,25,27,29,-1,-1,-1,-1,-1,-1,-1,-1,-1,-1,-1,-1,-1,-1,-1,-1],"loss_changes":[1.4214133E1,1.3561358E1,2.0133165E1,1.7295668E1,9.920467E0,1.25552845E1,1.874666E1,9.583082E0,8.581682E0,1.3111458E0,1.5718336E1,1.2061305E1,4.736019E0,1.1463268E1,1.607434E1,0E0,0E0,0E0,0E0,0E0,0E0,0E0,0E0,0E0,0E0,0E0,0E0,0E0,0E0,0E0,0E0],"parents":[2147483647,0,0,1,1,2,2,3,3,4,4,5,5,6,6,7,7,8,8,9,9,10,10,11,11,12,12,13,13,14,14],"right_children":[2,4,6,8,10,12,14,16,18,20,22,24,26,28,30,-1,-1,-1,-1,-1,-1,-1,-1,-1,-1,-1,-1,-1,-1,-1,-1],"split_conditions":[1.3297309E-2,1.3916694E0,7.864486E-1,2.7514935E-1,-8.695869E-3,1.9677723E-2,4.970704E-3,-3.7855938E-1,1.15E1,-7.484652E-4,-6.088016E-4,4.6246532E-2,7.5481385E-1,6.0897614E-3,9.32953E-2,-1.7087786E-2,5.5075744E-3,-1.6329972E-2,-1.691235E-3,2.300984E-2,4.7948793E-2,-2.646868E-4,3.426546E-2,-7.1407356E-3,3.4390457E-2,-2.842136E-2,-2.4467013E-3,-1.5139356E-2,-1.5675257E-3,3.573651E-3,-4.906758E-3],"split_indices":[18,9,9,5,15,16,16,5,19,7,6,13,9,13,17,0,0,0,0,0,0,0,0,0,0,0,0,0,0,0,0],"split_type":[0,0,0,0,0,0,0,0,0,0,0,0,0,0,0,0,0,0,0,0,0,0,0,0,0,0,0,0,0,0,0],"sum_hessian":[2.4234475E3,7.8591656E2,1.6375309E3,7.1571466E2,7.020193E1,2.80529E2,1.357002E3,5.4570123E2,1.7001338E2,1.4125721E1,5.6076206E1,2.384185E2,4.211047E1,2.24823E2,1.132179E3,1.6497E1,5.292043E2,5.0839607E1,1.19173775E2,7.1944165E0,6.9313045E0,4.0263832E1,1.5812375E1,2.3292879E2,5.4897137E0,3.4166054E1,7.9444156E0,1.033509E2,1.2147209E2,8.716994E2,2.6047952E2],"tree_param":{"num_deleted":"0","num_feature":"20","num_nodes":"31","size_leaf_vector":"1"}},{"base_weights":[5.72075E-3,1.392173E-1,-5.2604184E-2,-4.1510113E-2,2.4218425E-1,-2.6465893E-1,-9.536435E-3,2.1610308E-1,-2.0060244E-1,2.0953618E-1,1.083546E0,3.9004412E-1,-3.3485332E-1,-3.2540095E-1,2.8497893E-2,-1.178213E-3,2.3415413E-2,-1.6575849E-2,-5.017874E-4,5.1080133E-3,2.454555E-2,1.6126106E-2,4.3621544E-2,-1.51873855E-2,1.8855374E-2,-3.2383278E-3,-1.744607E-2,-1.4881886E-2,2.8237388E-3,-7.638532E-3,2.1833093E-3],"categories":[],"categories_nodes":[],"categories_segments":[],"categories_sizes":[],"default_left":[0,0,0,0,0,0,0,0,0,0,0,0,0,0,0,0,0,0,0,0,0,0,0,0,0,0,0,0,0,0,0],"id":18,"left_children":[1,3,5,7,9,11,13,15,17,19,21,23,25,27,29,-1,-1,-1,-1,-1,-1,-1,-1,-1,-1,-1,-1,-1,-1,-1,-1],"loss_changes":[1.8963015E1,1.379024E1,1.5477594E1,1.1093675E1,1.2735245E1,1.3278852E1,1.6947565E1,1.4937325E1,1.0810635E1,1.07477E1,2.735859E0,6.338339E0,1.4431019E1,1.0901333E1,1.5805343E1,0E0,0E0,0E0,0E0,0E0,0E0,0E0,0E0,0E0,0E0,0E0,0E0,0E0,0E0,0E0,0E0],"parents":[2147483647,0,0,1,1,2,2,3,3,4,4,5,5,6,6,7,7,8,8,9,9,10,10,11,11,12,12,13,13,14,14],"right_children":[2,4,6,8,10,12,14,16,18,20,22,24,26,28,30,-1,-1,-1,-1,-1,-1,-1,-1,-1,-1,-1,-1,-1,-1,-1,-1],"split_conditions":[1.2366385E-2,3.8857514E-1,7.864486E-1,-2.2702627E-3,1.4028438E0,4.624405E-1,2.3724851E-3,1.2977417E0,9.478473E-4,1.501789E-2,-6.7735505E-3,-1.2556081E-2,8.732565E-3,5.120007E-3,3.9088503E-1,-1.178213E-3,2.3415413E-2,-1.6575849E-2,-5.017874E-4,5.1080133E-3,2.454555E-2,1.6126106E-2,4.3621544E-2,-1.51873855E-2,1.8855374E-2,-3.2383278E-3,-1.744607E-2,-1.4881886E-2,2.8237388E-3,-7.638532E-3,2.1833093E-3],"split_indices":[18,4,9,15,9,4,17,9,15,15,3,15,17,15,4,0,0,0,0,0,0,0,0,0,0,0,0,0,0,0,0],"split_type":[0,0,0,0,0,0,0,0,0,0,0,0,0,0,0,0,0,0,0,0,0,0,0,0,0,0,0,0,0,0,0],"sum_hessian":[2.4335312E3,7.39514E2,1.6940173E3,2.6862344E2,4.708905E2,2.85102E2,1.4089154E3,1.0241986E2,1.662036E2,4.5450308E2,1.638742E1,2.7166206E1,2.5793576E2,1.506074E2,1.258308E3,7.115502E1,3.1264837E1,5.63496E1,1.0985399E2,4.2815872E2,2.6344381E1,7.6154504E0,8.771971E0,5.4729724E0,2.1693233E1,1.3510135E2,1.2283443E2,1.0692724E2,4.3680164E1,1.6953966E2,1.0887683E3],"tree_param":{"num_deleted":"0","num_feature":"20","num_nodes":"31","size_leaf_vector":"1"}},{"base_weights":[-1.3291487E-3,1.3422164E-1,-6.1452292E-2,9.329699E-2,5.370506E-1,-2.9435298E-1,-1.3192349E-2,-2.5332344E-1,1.6861394E-1,1.1662332E0,3.187096E-1,-1.11914955E-1,-5.4835075E-1,-6.657244E-2,2.8301618E-1,-1.6526411E-3,-2.4781326E-2,3.6918803E-3,1.9666227E-2,4.148738E-2,1.6673403E-2,2.2353644E-2,-1.5584865E-2,-1.3697157E-2,6.8624397E-3,-2.3266122E-2,-4.621827E-3,-1.3457834E-3,-2.6893554E-2,1.798536E-2,3.5684127E-3],"categories":[],"categories_nodes":[],"categories_segments":[],"categories_sizes":[],"default_left":[0,0,0,0,0,0,0,0,0,0,0,0,0,0,0,0,0,0,0,0,0,0,0,0,0,0,0,0,0,0,0],"id":19,"left_children":[1,3,5,7,9,11,13,15,17,19,21,23,25,27,29,-1,-1,-1,-1,-1,-1,-1,-1,-1,-1,-1,-1,-1,-1,-1,-1],"loss_changes":[1.9751995E1,1.2226646E1,1.88669E1,1.7722633E1,9.034229E0,1.3290415E1,2.202541E1,1.3724546E1,1.2272318E1,1.5148144E0,1.9046356E1,1.994059E1,1.0646702E1,2.122396E1,1.0974085E1,0E0,0E0,0E0,0E0,0E0,0E0,0E0,0E0,0E0,0E0,0E0,0E0,0E0,0E0,0E0,0E0],"parents":[2147483647,0,0,1,1,2,2,3,3,4,4,5,5,6,6,7,7,8,8,9,9,10,10,11,11,12,12,13,13,14,14],"right_children":[2,4,6,8,10,12,14,16,18,20,22,24,26,28,30,-1,-1,-1,-1,-1,-1,-1,-1,-1,-1,-1,-1,-1,-1,-1,-1],"split_conditions":[1.2366385E-2,1.3916694E0,7.864486E-1,3.361865E-1,-6.7764353E-3,4.41946E-2,3.9958294E-2,3.1689322E-1,2.9696684E-4,2.371518E-2,3.510525E-2,2.154644E-3,6.608823E-1,2.3931599E0,-4.1517904E-3,-1.6526411E-3,-2.4781326E-2,3.6918803E-3,1.9666227E-2,4.148738E-2,1.6673403E-2,2.2353644E-2,-1.5584865E-2,-1.3697157E-2,6.8624397E-3,-2.3266122E-2,-4.621827E-3,-1.3457834E-3,-2.6893554E-2,1.798536E-2,3.5684127E-3],"split_indices":[18,9,9,4,15,18,2,4,7,8,17,2,4,9,15,0,0,0,0,0,0,0,0,0,0,0,0,0,0,0,0],"split_type":[0,0,0,0,0,0,0,0,0,0,0,0,0,0,0,0,0,0,0,0,0,0,0,0,0,0,0,0,0,0,0],"sum_hessian":[2.421623E3,7.436938E2,1.6779292E3,6.762255E2,6.7468254E1,2.8713367E2,1.3907955E3,1.20286194E2,5.5593933E2,1.6262903E1,5.1205353E1,1.6794504E2,1.19188614E2,1.1790863E3,2.1170929E2,9.017142E1,3.0114777E1,5.0952667E2,4.64127E1,1.1068695E1,5.194208E0,3.4013203E1,1.7192152E1,8.3314E1,8.4631035E1,7.500463E1,4.4183987E1,1.1500504E3,2.9035904E1,7.137331E1,1.4033598E2],"tree_param":{"num_deleted":"0","num_feature":"20","num_nodes":"31","size_leaf_vector":"1"}},{"base_weights":[-1.6412885E-3,1.1355551E-1,-5.792837E-2,2.2355749E-1,-2.4871906E-2,-3.122362E-1,-6.4232685E-3,7.797898E-1,1.69401E-1,3.0810508E-1,-2.3716067E-1,2.823394E-1,-4.0519223E-1,-5.314828E-2,2.363874E-1,3.7736267E-2,7.5383894E-3,4.2435364E-3,3.0907892E-2,-2.3420697E-2,1.2029907E-2,-1.6329357E-2,-3.043048E-3,-1.3302579E-2,1.8695E-2,-9.162963E-3,-3.237411E-2,-6.537168E-4,-1.7665068E-2,2.0558648E-2,3.9896457E-3],"categories":[],"categories_nodes":[],"categories_segments":[],"categories_sizes":[],"default_left":[0,0,0,0,0,0,0,0,0,0,0,0,0,0,0,0,0,0,0,0,0,0,0,0,0,0,0,0,0,0,0],"id":20,"left_children":[1,3,5,7,9,11,13,15,17,19,21,23,25,27,29,-1,-1,-1,-1,-1,-1,-1,-1,-1,-1,-1,-1,-1,-1,-1,-1],"loss_changes":[1.5773358E1,1.2164219E1,2.1402096E1,1.3273514E1,2.5128723E1,1.5324532E1,1.5441439E1,9.590408E0,9.642577E0,1.4314517E1,8.992054E0,9.625747E0,1.56988945E1,1.9158373E1,1.0104052E1,0E0,0E0,0E0,0E0,0E0,0E0,0E0,0E0,0E0,0E0,0E0,0E0,0E0,0E0,0E0,0E0],"parents":[2147483647,0,0,1,1,2,2,3,3,4,4,5,5,6,6,7,7,8,8,9,9,10,10,11,11,12,12,13,13,14,14],"right_children":[2,4,6,8,10,12,14,16,18,20,22,24,26,28,30,-1,-1,-1,-1,-1,-1,-1,-1,-1,-1,-1,-1,-1,-1,-1,-1],"split_conditions":[1.3297309E-2,1.6579415E-1,7.864486E-1,-1.7927836E-3,-1.5550642E-3,-5.647021E-3,3.9958294E-2,1.3040826E-2,1.3538615E0,8.0926704E-1,9.478473E-4,-8.503967E-3,1.964521E-2,4.647197E-2,-1.8944139E-2,3.7736267E-2,7.5383894E-3,4.2435364E-3,3.0907892E-2,-2.3420697E-2,1.2029907E-2,-1.6329357E-2,-3.043048E-3,-1.3302579E-2,1.8695E-2,-9.162963E-3,-3.237411E-2,-6.537168E-4,-1.7665068E-2,2.0558648E-2,3.9896457E-3],"split_indices":[18,5,9,6,15,13,2,8,9,9,15,15,15,8,15,0,0,0,0,0,0,0,0,0,0,0,0,0,0,0,0],"split_type":[0,0,0,0,0,0,0,0,0,0,0,0,0,0,0,0,0,0,0,0,0,0,0,0,0,0,0,0,0,0,0],"sum_hessian":[2.4306099E3,7.974782E2,1.6331316E3,4.4402042E2,3.534578E2,2.741999E2,1.3589318E3,3.820672E1,4.058137E2,1.3743628E2,2.160215E2,3.6797073E1,2.3740282E2,1.1402836E3,2.1864815E2,1.9335735E1,1.8870981E1,3.9418008E2,1.1633617E1,1.0221749E1,1.2721453E2,6.5280174E1,1.5074132E2,1.1662309E1,2.5134764E1,2.0805835E2,2.9344463E1,1.0782087E3,6.207481E1,3.988077E1,1.7876736E2],"tree_param":{"num_deleted":"0","num_feature":"20","num_nodes":"31","size_leaf_vector":"1"}},{"base_weights":[-5.232027E-3,5.1785083E-3,-6.353619E-1,-1.943371E-2,2.5272912E-1,-9.5120174E-1,1.4973693E-2,-3.558463E-2,3.8745117E-1,4.2591426E-1,-1.6779889E-1,-1.2041496E0,7.896748E-3,-3.221524E-4,-8.20116E-3,2.9767783E-2,4.1116574E-3,6.14753E-3,1.9909179E-2,-1.4337523E-2,1.4282921E-2,-4.67167E-2,-2.463363E-2],"categories":[],"categories_nodes":[],"categories_segments":[],"categories_sizes":[],"default_left":[0,0,0,0,0,0,0,0,0,0,0,0,0,0,0,0,0,0,0,0,0,0,0],"id":21,"left_children":[1,3,5,7,9,11,-1,13,15,17,19,21,-1,-1,-1,-1,-1,-1,-1,-1,-1,-1,-1],"loss_changes":[1.5781342E1,1.4427078E1,1.4484571E1,1.4168691E1,1.5666562E1,9.817802E0,0E0,1.2242482E1,1.2330582E1,7.84708E0,1.2843474E1,2.2072716E0,0E0,0E0,0E0,0E0,0E0,0E0,0E0,0E0,0E0,0E0,0E0],"parents":[2147483647,0,0,1,1,2,2,3,3,4,4,5,5,7,7,8,8,9,9,10,10,11,11],"right_children":[2,4,6,8,10,12,-1,14,16,18,20,22,-1,-1,-1,-1,-1,-1,-1,-1,-1,-1,-1],"split_conditions":[2.3931599E0,1.3916694E0,2.2057896E-2,6.1889E-2,3.10952E-2,-5.5959926E-4,1.4973693E-2,9.899893E-2,5.8149032E-2,4.136968E-1,1.35E1,5.5437047E-2,7.896748E-3,-3.221524E-4,-8.20116E-3,2.9767783E-2,4.1116574E-3,6.14753E-3,1.9909179E-2,-1.4337523E-2,1.4282921E-2,-4.67167E-2,-2.463363E-2],"split_indices":[9,9,2,15,16,15,0,17,18,4,19,17,0,0,0,0,0,0,0,0,0,0,0],"split_type":[0,0,0,0,0,0,0,0,0,0,0,0,0,0,0,0,0,0,0,0,0,0,0],"sum_hessian":[2.4041943E3,2.3660952E3,3.8099075E1,2.152963E3,2.1313249E2,2.9928547E1,8.170529E0,2.0716433E3,8.131941E1,1.5095303E2,6.217947E1,2.477643E1,5.1521173E0,1.8766038E3,1.9503967E2,2.2942106E1,5.8377304E1,7.919392E1,7.175911E1,4.214097E1,2.0038502E1,1.1297186E1,1.3479243E1],"tree_param":{"num_deleted":"0","num_feature":"20","num_nodes":"23","size_leaf_vector":"1"}},{"base_weights":[-6.312058E-3,-2.4290584E-1,2.0814536E-2,-4.8667637E-1,1.6498075E-1,3.1142557E-2,-5.7221276E-1,-6.2499845E-1,-1.0196186E-1,-3.8040587E-1,3.9550948E-1,5.6088283E-3,2.5715315E-1,-9.4387496E-1,1.2629606E-2,-8.794981E-3,-2.483738E-2,-1.897636E-2,1.04569E-2,1.8326107E-2,-2.2909272E-2,1.8824134E-2,-8.789313E-3,-4.127222E-4,1.1728218E-2,1.5205204E-3,1.7817346E-2,-1.1568503E-2,-3.9407246E-2],"categories":[],"categories_nodes":[],"categories_segments":[],"categories_sizes":[],"default_left":[0,0,0,0,0,0,0,0,0,0,0,0,0,0,0,0,0,0,0,0,0,0,0,0,0,0,0,0,0],"id":22,"left_children":[1,3,5,7,9,11,13,15,17,19,21,23,25,27,-1,-1,-1,-1,-1,-1,-1,-1,-1,-1,-1,-1,-1,-1,-1],"loss_changes":[1.5560201E1,2.4876492E1,1.3341091E1,8.256191E0,1.1973221E1,1.2342567E1,1.4161513E1,7.487461E0,1.03898535E1,1.1273709E1,1.0817938E1,1.4354933E1,1.5065202E1,5.157242E0,0E0,0E0,0E0,0E0,0E0,0E0,0E0,0E0,0E0,0E0,0E0,0E0,0E0,0E0,0E0],"parents":[2147483647,0,0,1,1,2,2,3,3,4,4,5,5,6,6,7,7,8,8,9,9,10,10,11,11,12,12,13,13],"right_children":[2,4,6,8,10,12,14,16,18,20,22,24,26,28,-1,-1,-1,-1,-1,-1,-1,-1,-1,-1,-1,-1,-1,-1,-1],"split_conditions":[2.2735689E-3,3.923667E-3,2.3931599E0,5.8740084E-3,6.590747E-1,1.3777322E0,4.213468E-3,6.447974E-1,-3.179878E-3,1.1482318E-3,1.7246251E-3,5.9746027E-2,-6.8069566E-3,3.1016696E-2,1.2629606E-2,-8.794981E-3,-2.483738E-2,-1.897636E-2,1.04569E-2,1.8326107E-2,-2.2909272E-2,1.8824134E-2,-8.789313E-3,-4.127222E-4,1.1728218E-2,1.5205204E-3,1.7817346E-2,-1.1568503E-2,-3.9407246E-2],"split_indices":[17,15,9,8,4,9,6,4,15,1,6,15,13,18,0,0,0,0,0,0,0,0,0,0,0,0,0,0,0],"split_type":[0,0,0,0,0,0,0,0,0,0,0,0,0,0,0,0,0,0,0,0,0,0,0,0,0,0,0,0,0],"sum_hessian":[2.4226812E3,2.4838168E2,2.1742996E3,1.5534668E2,9.3035E1,2.138012E3,3.6287613E1,1.1380434E2,4.1542336E1,2.7448051E1,6.558695E1,1.9219076E3,2.1610423E2,2.6442362E1,9.845253E0,4.411173E1,6.969261E1,1.8890718E1,2.2651615E1,7.4873543E0,1.9960697E1,4.912471E1,1.6462242E1,1.8308557E3,9.105194E1,1.3468088E2,8.142336E1,1.1348633E1,1.5093728E1],"tree_param":{"num_deleted":"0","num_feature":"20","num_nodes":"29","size_leaf_vector":"1"}},{"base_weights":[-2.7942327E-3,1.2301576E-1,-5.79062E-2,-1.5824042E-1,1.9524403E-1,-3.3224243E-1,-1.1651348E-2,-3.5272855E-1,3.4665436E-1,3.2187897E-1,5.486632E-2,-4.4153097E-1,2.0023978E-1,-2.3913383E-1,2.9035913E-2,-5.225429E-3,-2.4114942E-2,2.7911779E-2,-6.802085E-3,4.02285E-2,8.950284E-3,-2.195444E-3,1.0410577E-2,-4.172894E-3,-1.8385408E-2,-1.4807016E-2,1.5403604E-2,4.6841367E-3,-1.2175391E-2,-8.186648E-3,1.955034E-3],"categories":[],"categories_nodes":[],"categories_segments":[],"categories_sizes":[],"default_left":[0,0,0,0,0,0,0,0,0,0,0,0,0,0,0,0,0,0,0,0,0,0,0,0,0,0,0,0,0,0,0],"id":23,"left_children":[1,3,5,7,9,11,13,15,17,19,21,23,25,27,29,-1,-1,-1,-1,-1,-1,-1,-1,-1,-1,-1,-1,-1,-1,-1,-1],"loss_changes":[1.6910938E1,1.5123868E1,2.1517113E1,1.5083722E1,1.0498993E1,1.432621E1,1.3449129E1,8.759119E0,1.4561398E1,7.0549126E0,1.0566641E1,1.044854E1,9.456863E0,1.459082E1,1.3467232E1,0E0,0E0,0E0,0E0,0E0,0E0,0E0,0E0,0E0,0E0,0E0,0E0,0E0,0E0,0E0,0E0],"parents":[2147483647,0,0,1,1,2,2,3,3,4,4,5,5,6,6,7,7,8,8,9,9,10,10,11,11,12,12,13,13,14,14],"right_children":[2,4,6,8,10,12,14,16,18,20,22,24,26,28,30,-1,-1,-1,-1,-1,-1,-1,-1,-1,-1,-1,-1,-1,-1,-1,-1],"split_conditions":[1.2366385E-2,3.361865E-1,3.7081637E-3,1.3345778E0,2.6932342E-3,1.0741591E-2,7.864486E-1,3.1689322E-1,-3.5097399E-3,6.393364E-1,3.3058212E-3,2.318605E-3,-4.6563867E-1,7.584006E-3,3.6956587E-1,-5.225429E-3,-2.4114942E-2,2.7911779E-2,-6.802085E-3,4.02285E-2,8.950284E-3,-2.195444E-3,1.0410577E-2,-4.172894E-3,-1.8385408E-2,-1.4807016E-2,1.5403604E-2,4.6841367E-3,-1.2175391E-2,-8.186648E-3,1.955034E-3],"split_indices":[18,4,16,9,15,13,9,4,15,9,16,16,10,16,4,0,0,0,0,0,0,0,0,0,0,0,0,0,0,0,0],"split_type":[0,0,0,0,0,0,0,0,0,0,0,0,0,0,0,0,0,0,0,0,0,0,0,0,0,0,0,0,0,0,0],"sum_hessian":[2.4369438E3,7.419601E2,1.6949839E3,1.5136304E2,5.9059705E2,2.4366005E2,1.4513239E3,1.0948877E2,4.1874264E1,3.0981735E2,2.8077966E2,2.0230836E2,4.135169E1,2.1945781E2,1.231866E3,7.943452E1,3.005425E1,2.0441376E1,2.1432888E1,5.7303543E0,3.04087E2,1.9573877E2,8.504089E1,7.381326E1,1.284951E2,1.2682522E1,2.8669167E1,6.512094E1,1.5433687E2,1.3096315E2,1.1009028E3],"tree_param":{"num_deleted":"0","num_feature":"20","num_nodes":"31","size_leaf_vector":"1"}},{"base_weights":[1.0449261E-2,1.9581512E-2,-5.352049E-1,-1.6505831E-1,4.4657417E-2,-7.457805E-1,2.0116897E-2,-4.1114286E-1,2.6348963E-1,-6.2383655E-2,8.488799E-2,-4.8332605E-1,-4.4745382E-2,-6.4019356E-3,-1.8153E-2,2.5445417E-2,-1.2498256E-3,1.0794558E-3,-8.785881E-3,2.017106E-3,2.016604E-2,-2.8304616E-2,7.846466E-3],"categories":[],"categories_nodes":[],"categories_segments":[],"categories_sizes":[],"default_left":[0,0,0,0,0,0,0,0,0,0,0,0,0,0,0,0,0,0,0,0,0,0,0],"id":24,"left_children":[1,3,5,7,9,11,-1,13,15,17,19,21,-1,-1,-1,-1,-1,-1,-1,-1,-1,-1,-1],"loss_changes":[1.20671E1,1.1029868E1,1.0621458E1,3.0150557E1,9.034762E0,6.0137806E0,0E0,6.826374E0,1.8683907E1,1.3009351E1,1.5758171E1,9.477827E0,0E0,0E0,0E0,0E0,0E0,0E0,0E0,0E0,0E0,0E0,0E0],"parents":[2147483647,0,0,1,1,2,2,3,3,4,4,5,5,7,7,8,8,9,9,10,10,11,11],"right_children":[2,4,6,8,10,12,-1,14,16,18,20,22,-1,-1,-1,-1,-1,-1,-1,-1,-1,-1,-1],"split_conditions":[2.3931599E0,2.7034231E-3,3.316624E-2,4.0224837E-3,4.1710293E-1,4.935305E-1,2.0116897E-2,6.7405975E-1,7.917572E-1,4.0224837E-3,1.6045051E0,3.7627932E-1,-4.4745382E-2,-6.4019356E-3,-1.8153E-2,2.5445417E-2,-1.2498256E-3,1.0794558E-3,-8.785881E-3,2.017106E-3,2.016604E-2,-2.8304616E-2,7.846466E-3],"split_indices":[9,17,2,15,4,4,0,4,9,15,9,4,0,0,0,0,0,0,0,0,0,0,0],"split_type":[0,0,0,0,0,0,0,0,0,0,0,0,0,0,0,0,0,0,0,0,0,0,0],"sum_hessian":[2.4185264E3,2.3796636E3,3.8862732E1,2.838711E2,2.0957925E3,3.3409565E1,5.4531665E0,1.8034973E2,1.0352138E2,5.723626E2,1.5234299E3,2.5931355E1,7.4782095E0,9.034283E1,9.00069E1,3.489E1,6.863138E1,4.0174628E2,1.706163E2,1.4800626E3,4.3367332E1,1.5864258E1,1.0067097E1],"tree_param":{"num_deleted":"0","num_feature":"20","num_nodes":"23","size_leaf_vector":"1"}},{"base_weights":[1.3704748E-2,1.2256058E-1,-3.879366E-2,9.190095E-4,2.1975663E-1,-7.333147E-2,2.1118087E-1,-1.2656942E-1,2.0382005E-1,1.9412956E-1,1.1557531E0,-2.568428E-1,-3.3789866E-2,-3.7346628E-2,4.3042558E-1,8.2421326E-4,-1.334805E-2,3.5646998E-3,2.9608699E-2,1.2097433E-2,2.6388452E-3,4.168283E-2,2.1343509E-2,3.2775253E-2,-9.190675E-3,-5.9061794E-4,-1.8641075E-2,2.3564868E-2,-7.360575E-3,4.234633E-3,2.9006526E-2],"categories":[],"categories_nodes":[],"categories_segments":[],"categories_sizes":[],"default_left":[0,0,0,0,0,0,0,0,0,0,0,0,0,0,0,0,0,0,0,0,0,0,0,0,0,0,0,0,0,0,0],"id":25,"left_children":[1,3,5,7,9,11,13,15,17,19,21,23,25,27,29,-1,-1,-1,-1,-1,-1,-1,-1,-1,-1,-1,-1,-1,-1,-1,-1],"loss_changes":[1.3837363E1,9.313775E0,1.4120387E1,9.102557E0,1.0279125E1,1.0412476E1,1.0836412E1,1.0610716E1,8.921034E0,9.453915E0,2.0209217E-1,1.7334005E1,9.788134E0,1.628052E1,1.6248547E1,0E0,0E0,0E0,0E0,0E0,0E0,0E0,0E0,0E0,0E0,0E0,0E0,0E0,0E0,0E0,0E0],"parents":[2147483647,0,0,1,1,2,2,3,3,4,4,5,5,6,6,7,7,8,8,9,9,10,10,11,11,12,12,13,13,14,14],"right_children":[2,4,6,8,10,12,14,16,18,20,22,24,26,28,30,-1,-1,-1,-1,-1,-1,-1,-1,-1,-1,-1,-1,-1,-1,-1,-1],"split_conditions":[1.3297309E-2,4.1710293E-1,4.829705E-2,1.1265422E0,1.3916694E0,7.864486E-1,1.25E1,1.0134072E0,2.648219E-3,-6.1242974E-1,6.028527E-5,4.0078244E-1,2.6212127E0,1.1410279E-1,8.148378E-2,8.2421326E-4,-1.334805E-2,3.5646998E-3,2.9608699E-2,1.2097433E-2,2.6388452E-3,4.168283E-2,2.1343509E-2,3.2775253E-2,-9.190675E-3,-5.9061794E-4,-1.8641075E-2,2.3564868E-2,-7.360575E-3,4.234633E-3,2.9006526E-2],"split_indices":[18,4,13,9,9,9,19,9,0,10,0,4,9,18,13,0,0,0,0,0,0,0,0,0,0,0,0,0,0,0,0],"split_type":[0,0,0,0,0,0,0,0,0,0,0,0,0,0,0,0,0,0,0,0,0,0,0,0,0,0,0,0,0,0,0],"sum_hessian":[2.4195063E3,7.8677924E2,1.632727E3,3.498939E2,4.368853E2,1.4351462E3,1.975808E2,2.1511028E2,1.3478363E2,4.2641763E2,1.0467681E1,2.5344069E2,1.1817056E3,9.299493E1,1.0458586E2,1.4558281E2,6.952745E1,1.22626274E2,1.2157356E1,1.4264767E2,2.8377E2,5.4658093E0,5.0018716E0,8.224978E0,2.4521571E2,1.1550173E3,2.668828E1,1.820443E1,7.47905E1,6.876778E1,3.5818085E1],"tree_param":{"num_deleted":"0","num_feature":"20","num_nodes":"31","size_leaf_vector":"1"}},{"base_weights":[1.1217661E-2,1.13174275E-1,-3.8605276E-2,9.0771355E-2,6.753948E-1,-2.3224859E-1,5.715555E-4,1.745667E-1,-1.5341425E-1,-5.976825E-3,1.0509763E0,-1.7284769E-1,-8.844478E-1,-2.916767E-1,2.918607E-2,6.274663E-3,-1.364337E-2,1.54103E-2,-1.3279887E-2,4.467835E-2,1.19819855E-2,8.993626E-3,-7.2190897E-3,-3.884982E-2,-3.0767675E-3,-1.8897051E-2,-2.0815376E-3,2.0695743E-3,-6.6933027E-3],"categories":[],"categories_nodes":[],"categories_segments":[],"categories_sizes":[],"default_left":[0,0,0,0,0,0,0,0,0,0,0,0,0,0,0,0,0,0,0,0,0,0,0,0,0,0,0,0,0],"id":26,"left_children":[1,3,5,7,9,11,13,15,17,-1,19,21,23,25,27,-1,-1,-1,-1,-1,-1,-1,-1,-1,-1,-1,-1,-1,-1],"loss_changes":[1.2277556E1,9.931311E0,1.23183E1,1.5661694E1,1.014506E1,1.0432352E1,1.131051E1,1.2489016E1,3.799901E1,0E0,5.493675E0,8.1352825E0,7.1105614E0,9.024918E0,1.2385143E1,0E0,0E0,0E0,0E0,0E0,0E0,0E0,0E0,0E0,0E0,0E0,0E0,0E0,0E0],"parents":[2147483647,0,0,1,1,2,2,3,3,4,4,5,5,6,6,7,7,8,8,10,10,11,11,12,12,13,13,14,14],"right_children":[2,4,6,8,10,12,14,16,18,-1,20,22,24,26,28,-1,-1,-1,-1,-1,-1,-1,-1,-1,-1,-1,-1,-1,-1],"split_conditions":[1.3525898E-2,2.468336E-2,7.864486E-1,4.9348082E-3,-1.2439052E-3,3.0634128E-2,1.9588154E-3,6.3168216E-1,5.5758595E-3,-5.976825E-3,1.04594134E-1,6.195041E-1,2.3751799E-2,1.3648008E-2,1.2229297E-1,6.274663E-3,-1.364337E-2,1.54103E-2,-1.3279887E-2,4.467835E-2,1.19819855E-2,8.993626E-3,-7.2190897E-3,-3.884982E-2,-3.0767675E-3,-1.8897051E-2,-2.0815376E-3,2.0695743E-3,-6.6933027E-3],"split_indices":[18,15,9,15,7,8,17,4,17,0,17,9,1,3,17,0,0,0,0,0,0,0,0,0,0,0,0,0,0],"split_type":[0,0,0,0,0,0,0,0,0,0,0,0,0,0,0,0,0,0,0,0,0,0,0,0,0,0,0,0,0],"sum_hessian":[2.4150874E3,7.923557E2,1.6227317E3,7.631094E2,2.9246328E1,2.7222906E2,1.3505026E3,5.68356E2,1.9475337E2,8.92713E0,2.0319197E1,2.5066415E2,2.1564926E1,1.1961785E2,1.2308846E3,5.3937946E2,2.8976542E1,5.8669243E1,1.3608414E2,1.1379077E1,8.940121E0,3.1013033E1,2.1965112E2,1.3709989E1,7.8549376E0,4.671132E1,7.290653E1,1.0637971E3,1.6708754E2],"tree_param":{"num_deleted":"0","num_feature":"20","num_nodes":"29","size_leaf_vector":"1"}},{"base_weights":[1.1288138E-2,2.6478607E-2,-3.5742998E-1,7.764016E-3,2.8154838E-1,5.449711E-1,-5.826352E-1,2.297685E-2,-5.0122225E-1,1.8917705E-1,9.5170015E-1,1.0498152E0,-8.576374E-3,-1.1942866E0,-2.6168728E-1,-5.0691357E-3,1.4375222E-3,-3.3694748E-2,-1.0442092E-2,-4.088298E-3,1.328134E-2,2.002528E-2,4.1029517E-2,4.1437708E-2,1.585687E-2,-4.413846E-2,-1.544387E-2,-1.2485266E-2,1.4225756E-2],"categories":[],"categories_nodes":[],"categories_segments":[],"categories_sizes":[],"default_left":[0,0,0,0,0,0,0,0,0,0,0,0,0,0,0,0,0,0,0,0,0,0,0,0,0,0,0,0,0],"id":27,"left_children":[1,3,5,7,9,11,13,15,17,19,21,23,-1,25,27,-1,-1,-1,-1,-1,-1,-1,-1,-1,-1,-1,-1,-1,-1],"loss_changes":[1.3529107E1,1.106864E1,1.9741337E1,1.6749912E1,9.631677E0,8.5236225E0,1.479775E1,1.0061084E1,5.588835E0,1.1657566E1,1.327465E0,1.4138174E0,0E0,4.175522E0,6.0820456E0,0E0,0E0,0E0,0E0,0E0,0E0,0E0,0E0,0E0,0E0,0E0,0E0,0E0,0E0],"parents":[2147483647,0,0,1,1,2,2,3,3,4,4,5,5,6,6,7,7,8,8,9,9,10,10,11,11,13,13,14,14],"right_children":[2,4,6,8,10,12,14,16,18,20,22,24,-1,26,28,-1,-1,-1,-1,-1,-1,-1,-1,-1,-1,-1,-1,-1,-1],"split_conditions":[4.647197E-2,2.8183253E-2,-2.1943961E-1,3.7632328E-2,8.0571204E-2,-1.3108312E-1,-5.5495626E-1,2.2735689E-3,3.8478427E-2,1.25E1,1.1483448E-4,1.3453275E0,-8.576374E-3,1.5446225E0,5.7979945E-2,-5.0691357E-3,1.4375222E-3,-3.3694748E-2,-1.0442092E-2,-4.088298E-3,1.328134E-2,2.002528E-2,4.1029517E-2,4.1437708E-2,1.585687E-2,-4.413846E-2,-1.544387E-2,-1.2485266E-2,1.4225756E-2],"split_indices":[8,16,5,8,15,10,10,17,8,19,7,9,0,9,2,0,0,0,0,0,0,0,0,0,0,0,0,0,0],"split_type":[0,0,0,0,0,0,0,0,0,0,0,0,0,0,0,0,0,0,0,0,0,0,0,0,0,0,0,0,0],"sum_hessian":[2.4127908E3,2.318213E3,9.4577675E1,2.160711E3,1.5750195E2,1.860545E1,7.597222E1,2.098932E3,6.1779064E1,1.3954927E2,1.7952688E1,1.140933E1,7.196119E0,2.5208887E1,5.0763336E1,2.4069734E2,1.8582346E3,1.0955666E1,5.08234E1,6.131005E1,7.823921E1,1.221309E1,5.739598E0,5.9659605E0,5.4433694E0,1.7080658E1,8.12823E0,4.2314423E1,8.448912E0],"tree_param":{"num_deleted":"0","num_feature":"20","num_nodes":"29","size_leaf_vector":"1"}},{"base_weights":[-2.5998768E-3,-1.4894933E-1,3.0146355E-2,-1.8124689E-1,8.028435E-1,1.5622203E-1,-5.1042285E-2,-5.774991E-2,-3.607519E-1,1.2434537E-2,3.692873E-2,2.2319423E-1,-2.0587556E-1,-1.282484E-1,1.09890975E-1,2.0754582E-3,-1.3327946E-2,-8.454194E-3,-3.3956703E-2,1.24780405E-2,2.740136E-3,5.9357737E-3,-1.2250962E-2,-8.634242E-3,-9.79093E-4,1.424919E-2,-7.839144E-4],"categories":[],"categories_nodes":[],"categories_segments":[],"categories_sizes":[],"default_left":[0,0,0,0,0,0,0,0,0,0,0,0,0,0,0,0,0,0,0,0,0,0,0,0,0,0,0],"id":28,"left_children":[1,3,5,7,9,11,13,15,17,-1,-1,19,21,23,25,-1,-1,-1,-1,-1,-1,-1,-1,-1,-1,-1,-1],"loss_changes":[1.1612011E1,1.3764366E1,2.0275557E1,9.496049E0,1.937851E0,1.8860954E1,1.4988561E1,1.2566712E1,1.032144E1,0E0,0E0,1.6614292E1,1.0023662E1,1.2422864E1,1.9442307E1,0E0,0E0,0E0,0E0,0E0,0E0,0E0,0E0,0E0,0E0,0E0,0E0],"parents":[2147483647,0,0,1,1,2,2,3,3,4,4,5,5,6,6,7,7,8,8,11,11,12,12,13,13,14,14],"right_children":[2,4,6,8,10,12,14,16,18,-1,-1,20,22,24,26,-1,-1,-1,-1,-1,-1,-1,-1,-1,-1,-1,-1],"split_conditions":[3.8857514E-1,6.1889E-2,5.230792E-1,-5.855749E-3,-7.05271E-2,3.30119E-2,7.942991E-3,5.8624414E-3,1.0158852E-3,1.2434537E-2,3.692873E-2,-5.4638994E-1,5.103276E-2,8.3720076E-1,1.5950698E-2,2.0754582E-3,-1.3327946E-2,-8.454194E-3,-3.3956703E-2,1.24780405E-2,2.740136E-3,5.9357737E-3,-1.2250962E-2,-8.634242E-3,-9.79093E-4,1.424919E-2,-7.839144E-4],"split_indices":[4,15,4,1,3,8,15,15,6,0,0,10,18,9,15,0,0,0,0,0,0,0,0,0,0,0,0],"split_type":[0,0,0,0,0,0,0,0,0,0,0,0,0,0,0,0,0,0,0,0,0,0,0,0,0,0,0],"sum_hessian":[2.4210718E3,4.4202505E2,1.9790468E3,4.2830093E2,1.3724134E1,7.7486127E2,1.2041855E3,2.5451784E2,1.7378308E2,8.228188E0,5.495946E0,6.5423926E2,1.2062202E2,8.139191E2,3.9026642E2,1.9221521E2,6.2302628E1,1.5888286E2,1.4900221E1,2.6488718E2,3.8935208E2,4.029755E1,8.032447E1,3.0421954E2,5.096996E2,1.0525901E2,2.8500742E2],"tree_param":{"num_deleted":"0","num_feature":"20","num_nodes":"27","size_leaf_vector":"1"}},{"base_weights":[-1.4488637E-2,1.5542164E-2,-1.4844513E-1,-1.466658E-1,5.1926307E-2,-1.8336073E-1,7.7872914E-1,-7.97459E-2,-7.473348E-1,-2.0209764E-1,8.203045E-2,-1.0669876E-1,-5.061793E-1,3.722054E-2,-1.6920991E-3,-6.6298177E-3,9.364584E-3,5.6256372E-3,-2.7336529E-2,-1.203891E-2,2.506197E-3,-5.6248385E-4,4.673498E-3,-1.8333823E-3,-2.445711E-2,-2.336459E-2,8.506512E-4],"categories":[],"categories_nodes":[],"categories_segments":[],"categories_sizes":[],"default_left":[0,0,0,0,0,0,0,0,0,0,0,0,0,0,0,0,0,0,0,0,0,0,0,0,0,0,0],"id":29,"left_children":[1,3,5,7,9,11,13,15,17,19,21,23,25,-1,-1,-1,-1,-1,-1,-1,-1,-1,-1,-1,-1,-1,-1],"loss_changes":[9.70169E0,1.1636845E1,1.4439769E1,1.4462244E1,1.2329951E1,1.0498914E1,6.326845E0,1.8124363E1,5.700819E0,9.757093E0,1.0708339E1,1.1121028E1,1.1908876E1,0E0,0E0,0E0,0E0,0E0,0E0,0E0,0E0,0E0,0E0,0E0,0E0,0E0,0E0],"parents":[2147483647,0,0,1,1,2,2,3,3,4,4,5,5,6,6,7,7,8,8,9,9,10,10,11,11,12,12],"right_children":[2,4,6,8,10,12,14,16,18,20,22,24,26,-1,-1,-1,-1,-1,-1,-1,-1,-1,-1,-1,-1,-1,-1],"split_conditions":[2.2284976E-1,7.864486E-1,5.9746027E-2,1.9229328E-2,2.3724851E-3,6.3287155E-3,2.4473218E-2,4.3907063E-3,-2.989498E-3,3.0723377E-3,-1.2099777E-4,4.888163E-3,2.3539033E-2,3.722054E-2,-1.6920991E-3,-6.6298177E-3,9.364584E-3,5.6256372E-3,-2.7336529E-2,-1.203891E-2,2.506197E-3,-5.6248385E-4,4.673498E-3,-1.8333823E-3,-2.445711E-2,-2.336459E-2,8.506512E-4],"split_indices":[5,9,15,15,17,15,16,15,13,15,7,2,15,0,0,0,0,0,0,0,0,0,0,0,0,0,0],"split_type":[0,0,0,0,0,0,0,0,0,0,0,0,0,0,0,0,0,0,0,0,0,0,0,0,0,0,0],"sum_hessian":[2.4100903E3,1.9694553E3,4.4063495E2,3.602694E2,1.6091859E3,4.254168E2,1.5218143E1,3.251748E2,3.509462E1,1.6989229E2,1.4392936E3,3.4485272E2,8.0564064E1,9.485565E0,5.7325783E0,2.3934592E2,8.582888E1,5.21304E0,2.988158E1,9.985204E1,7.0040245E1,6.085218E2,8.3077185E2,3.2502734E2,1.9825396E1,5.3049194E1,2.7514868E1],"tree_param":{"num_deleted":"0","num_feature":"20","num_nodes":"27","size_leaf_vector":"1"}},{"base_weights":[5.604212E-3,1.3560464E-2,-6.28697E-1,-1.6093805E-2,1.8973102E-1,-1.0112357E0,3.666155E-3,-3.1065308E-2,4.399355E-1,8.8471115E-2,4.6894312E-1,-1.3247757E-2,-4.6243638E-2,-2.2508665E-4,-8.443787E-3,1.9661546E-2,-6.343281E-3,1.44829E-3,2.9398488E-2,2.7994253E-2,-3.0819243E-3],"categories":[],"categories_nodes":[],"categories_segments":[],"categories_sizes":[],"default_left":[0,0,0,0,0,0,0,0,0,0,0,0,0,0,0,0,0,0,0,0,0],"id":30,"left_children":[1,3,5,7,9,11,-1,13,15,17,19,-1,-1,-1,-1,-1,-1,-1,-1,-1,-1],"loss_changes":[1.22031E1,1.2475385E1,8.728103E0,1.3971457E1,9.685694E0,5.3457966E0,0E0,1.1681543E1,9.267535E0,9.043914E0,2.4332817E1,0E0,0E0,0E0,0E0,0E0,0E0,0E0,0E0,0E0,0E0],"parents":[2147483647,0,0,1,1,2,2,3,3,4,4,5,5,7,7,8,8,9,9,10,10],"right_children":[2,4,6,8,10,12,-1,14,16,18,20,-1,-1,-1,-1,-1,-1,-1,-1,-1,-1],"split_conditions":[5.66599E-2,1.2641959E0,1.5708815E-1,6.1889E-2,1E0,5.817761E-4,3.666155E-3,9.899893E-2,9.479398E-2,1.1361062E-2,3.0634128E-2,-1.3247757E-2,-4.6243638E-2,-2.2508665E-4,-8.443787E-3,1.9661546E-2,-6.343281E-3,1.44829E-3,2.9398488E-2,2.7994253E-2,-3.0819243E-3],"split_indices":[8,9,18,15,11,7,0,17,15,6,8,0,0,0,0,0,0,0,0,0,0],"split_type":[0,0,0,0,0,0,0,0,0,0,0,0,0,0,0,0,0,0,0,0,0],"sum_hessian":[2.4153655E3,2.3864104E3,2.8954922E1,2.0433655E3,3.4304504E2,1.895289E1,1.0002031E1,1.9793162E3,6.404933E1,2.5271243E2,9.0332596E1,1.0020335E1,8.932555E0,1.8100209E3,1.692953E2,4.8125294E1,1.5924038E1,2.4281845E2,9.893991E0,4.9503506E1,4.082909E1],"tree_param":{"num_deleted":"0","num_feature":"20","num_nodes":"21","size_leaf_vector":"1"}},{"base_weights":[-1.1886511E-2,-4.0313564E-3,-6.44769E-1,-3.087614E-2,1.4893936E-1,-1.1059624E0,1.8406106E-2,-4.2284198E-2,3.8437793E-1,2.1662886E-1,-4.6027264E-1,-4.1652996E-2,-1.3178527E-2,4.0656207E-3,-2.194586E-3,-1.63694E-2,1.6488053E-2,9.954591E-3,-7.96433E-4,-2.5620334E-2,1.3502656E-2],"categories":[],"categories_nodes":[],"categories_segments":[],"categories_sizes":[],"default_left":[0,0,0,0,0,0,0,0,0,0,0,0,0,0,0,0,0,0,0,0,0],"id":31,"left_children":[1,3,5,7,9,11,-1,13,15,17,19,-1,-1,-1,-1,-1,-1,-1,-1,-1,-1],"loss_changes":[1.2042456E1,9.836206E0,1.7912418E1,9.668755E0,1.4846157E1,3.5497665E0,0E0,1.0899285E1,8.6867285E0,9.043163E0,1.3316943E1,0E0,0E0,0E0,0E0,0E0,0E0,0E0,0E0,0E0,0E0],"parents":[2147483647,0,0,1,1,2,2,3,3,4,4,5,5,7,7,8,8,9,9,10,10],"right_children":[2,4,6,8,10,12,-1,14,16,18,20,-1,-1,-1,-1,-1,-1,-1,-1,-1,-1],"split_conditions":[5.9318095E-2,1.2641959E0,1.9811837E-2,6.526763E-2,2.3931599E0,4.1279388E-3,1.8406106E-2,2.288433E-3,-2.5820541E-3,3.0901661E-2,3.7462167E-3,-4.1652996E-2,-1.3178527E-2,4.0656207E-3,-2.194586E-3,-1.63694E-2,1.6488053E-2,9.954591E-3,-7.96433E-4,-2.5620334E-2,1.3502656E-2],"split_indices":[16,9,6,15,9,7,0,16,7,8,6,0,0,0,0,0,0,0,0,0,0],"split_type":[0,0,0,0,0,0,0,0,0,0,0,0,0,0,0,0,0,0,0,0,0],"sum_hessian":[2.4218748E3,2.3931777E3,2.8697063E1,2.0365776E3,3.566002E2,2.1088713E1,7.6083493E0,1.9829979E3,5.3579697E1,3.2152048E2,3.5079704E1,1.4052197E1,7.0365157E0,2.9283945E2,1.6901584E3,7.7354336E0,4.5844265E1,2.1792609E2,1.03594406E2,2.4531523E1,1.0548182E1],"tree_param":{"num_deleted":"0","num_feature":"20","num_nodes":"21","size_leaf_vector":"1"}},{"base_weights":[1.2480147E-2,1.9970754E-2,-6.0492647E-1,1.1410984E-2,5.0126904E-1,-1.093502E0,1.5163521E-2,8.111253E-2,-5.6271493E-2,-9.078474E-2,1.0574E0,-1.7126586E-2,-3.898503E-2,-1.88318E-2,2.2582125E-2,-2.277384E-3,5.219485E-3,-1.3541736E-3,-3.0351877E-2,-2.0726021E-2,9.745444E-3,4.330984E-2,1.9178478E-2],"categories":[],"categories_nodes":[],"categories_segments":[],"categories_sizes":[],"default_left":[0,0,0,0,0,0,0,0,0,0,0,0,0,0,0,0,0,0,0,0,0,0,0],"id":32,"left_children":[1,3,5,7,9,11,13,15,17,19,21,-1,-1,-1,-1,-1,-1,-1,-1,-1,-1,-1,-1],"loss_changes":[1.1222899E1,9.865338E0,8.829532E0,1.1115195E1,1.387366E1,1.0112114E0,7.0188756E0,1.693943E1,1.2670019E1,5.5091496E0,2.5745697E0,0E0,0E0,0E0,0E0,0E0,0E0,0E0,0E0,0E0,0E0,0E0,0E0],"parents":[2147483647,0,0,1,1,2,2,3,3,4,4,5,5,6,6,7,7,8,8,9,9,10,10],"right_children":[2,4,6,8,10,12,14,16,18,20,22,-1,-1,-1,-1,-1,-1,-1,-1,-1,-1,-1,-1],"split_conditions":[5.9318095E-2,8.315357E-2,3.4039866E-2,1.9187637E-3,2.378625E-3,-1.1865085E-1,1.4873067E0,3.8857514E-1,7.46173E-2,2.7492987E-2,9.479398E-2,-1.7126586E-2,-3.898503E-2,-1.88318E-2,2.2582125E-2,-2.277384E-3,5.219485E-3,-1.3541736E-3,-3.0351877E-2,-2.0726021E-2,9.745444E-3,4.330984E-2,1.9178478E-2],"split_indices":[16,15,2,13,2,13,9,4,15,16,15,0,0,0,0,0,0,0,0,0,0,0,0],"split_type":[0,0,0,0,0,0,0,0,0,0,0,0,0,0,0,0,0,0,0,0,0,0,0],"sum_hessian":[2.423092E3,2.3950027E3,2.8089407E1,2.3541582E3,4.0844402E1,1.5283733E1,1.2805674E1,1.1596824E3,1.1944758E3,2.0188549E1,2.0655855E1,5.3873715E0,9.896362E0,6.92157E0,5.884104E0,4.3104803E2,7.2863434E2,1.181754E3,1.2721782E1,7.99022E0,1.2198329E1,9.461995E0,1.1193859E1],"tree_param":{"num_deleted":"0","num_feature":"20","num_nodes":"23","size_leaf_vector":"1"}},{"base_weights":[2.950626E-3,2.9676968E-2,-1.8307461E-1,1.2213447E-1,-3.5600476E-2,2.2605898E-2,-3.7931705E-1,2.4511261E-1,-3.372153E-2,-8.2240686E-2,2.3856403E-1,-9.211308E-1,1.0187373E-1,-5.2177477E-1,-1.6624929E-1,8.888184E-3,-7.375517E-3,-2.2837354E-3,2.0829208E-2,-9.345413E-3,-5.5704406E-4,-2.3436889E-2,9.132293E-3,-1.0508872E-2,-3.978312E-2,-2.4467893E-3,1.625842E-2,-1.1705033E-2,-3.3899095E-2,1.7023811E-2,-8.984715E-3],"categories":[],"categories_nodes":[],"categories_segments":[],"categories_sizes":[],"default_left":[0,0,0,0,0,0,0,0,0,0,0,0,0,0,0,0,0,0,0,0,0,0,0,0,0,0,0,0,0,0,0],"id":33,"left_children":[1,3,5,7,9,11,13,15,17,19,21,23,25,27,29,-1,-1,-1,-1,-1,-1,-1,-1,-1,-1,-1,-1,-1,-1,-1,-1],"loss_changes":[1.204244E1,1.2786029E1,1.2290293E1,1.6811043E1,1.5902872E1,1.1278453E1,4.641325E0,1.2383907E1,1.201593E1,1.55019245E1,1.2381306E1,2.2366104E0,1.1250859E1,6.993904E0,6.415227E0,0E0,0E0,0E0,0E0,0E0,0E0,0E0,0E0,0E0,0E0,0E0,0E0,0E0,0E0,0E0,0E0],"parents":[2147483647,0,0,1,1,2,2,3,3,4,4,5,5,6,6,7,7,8,8,9,9,10,10,11,11,12,12,13,13,14,14],"right_children":[2,4,6,8,10,12,14,16,18,20,22,24,26,28,30,-1,-1,-1,-1,-1,-1,-1,-1,-1,-1,-1,-1,-1,-1,-1,-1],"split_conditions":[1.02703325E-1,5.115804E-1,3.4013607E-2,1.6579415E-1,2.418272E-2,-8.086969E-1,9.513819E-3,1.9677723E-2,2.3539033E-2,1E0,7.4534845E-1,6.3287155E-3,2.3539033E-2,1.8981832E0,1.6680323E-2,8.888184E-3,-7.375517E-3,-2.2837354E-3,2.0829208E-2,-9.345413E-3,-5.5704406E-4,-2.3436889E-2,9.132293E-3,-1.0508872E-2,-3.978312E-2,-2.4467893E-3,1.625842E-2,-1.1705033E-2,-3.3899095E-2,1.7023811E-2,-8.984715E-3],"split_indices":[17,4,18,5,16,10,15,16,15,11,9,15,15,9,15,0,0,0,0,0,0,0,0,0,0,0,0,0,0,0,0],"split_type":[0,0,0,0,0,0,0,0,0,0,0,0,0,0,0,0,0,0,0,0,0,0,0,0,0,0,0,0,0,0,0],"sum_hessian":[2.4200686E3,2.1167888E3,3.032797E2,8.7565704E2,1.2411318E3,1.4851102E2,1.5476868E2,4.891336E2,3.8652344E2,1.0612881E3,1.7984377E2,1.0684492E1,1.3782652E2,9.188515E1,6.2883537E1,4.4333316E2,4.5800434E1,3.6609613E2,2.0427317E1,2.298279E2,8.314602E2,1.0248855E1,1.6959491E2,5.208198E0,5.476294E0,9.7853485E1,3.9973038E1,7.688875E1,1.4996396E1,9.163679E0,5.371986E1],"tree_param":{"num_deleted":"0","num_feature":"20","num_nodes":"31","size_leaf_vector":"1"}},{"base_weights":[2.6042713E-3,7.7734035E-3,-6.2851995E-1,5.4106426E-1,1.1028523E-3,-1.0948349E0,9.817855E-3,8.448821E-1,-5.6513115E-3,-4.869104E-1,8.75338E-3,-1.17249545E-2,-4.3810382E-2,3.5282895E-3,3.6808737E-2,-2.9092185E-2,-2.601736E-4,2.247988E-2,8.626557E-5],"categories":[],"categories_nodes":[],"categories_segments":[],"categories_sizes":[],"default_left":[0,0,0,0,0,0,0,0,0,0,0,0,0,0,0,0,0,0,0],"id":34,"left_children":[1,3,5,7,9,11,-1,13,-1,15,17,-1,-1,-1,-1,-1,-1,-1,-1],"loss_changes":[7.9744906E0,8.622529E0,9.208842E0,6.7952366E0,8.946473E0,2.9227562E0,0E0,5.780387E0,0E0,8.531848E0,1.0267035E1,0E0,0E0,0E0,0E0,0E0,0E0,0E0,0E0],"parents":[2147483647,0,0,1,1,2,2,3,3,4,4,5,5,7,7,9,9,10,10],"right_children":[2,4,6,8,10,12,-1,14,-1,16,18,-1,-1,-1,-1,-1,-1,-1,-1],"split_conditions":[5.9883434E-2,-1.5814967E-2,1.770229E-1,4.8217393E-2,-1.1576572E-2,-1.2125601E-3,9.817855E-3,2.7492987E-2,-5.6513115E-3,2.498172E-2,-6.9163434E-2,-1.17249545E-2,-4.3810382E-2,3.5282895E-3,3.6808737E-2,-2.9092185E-2,-2.601736E-4,2.247988E-2,8.626557E-5],"split_indices":[8,6,18,8,6,7,0,16,0,16,1,0,0,0,0,0,0,0,0],"split_type":[0,0,0,0,0,0,0,0,0,0,0,0,0,0,0,0,0,0,0],"sum_hessian":[2.4418923E3,2.4230344E3,1.8857834E1,2.8943888E1,2.3940906E3,1.2576444E1,6.2813897E0,2.032155E1,8.622337E0,3.5985672E1,2.3581047E3,5.0052376E0,7.5712056E0,7.449473E0,1.2872077E1,1.7395468E1,1.8590204E1,1.7572632E1,2.3405322E3],"tree_param":{"num_deleted":"0","num_feature":"20","num_nodes":"19","size_leaf_vector":"1"}},{"base_weights":[3.9046648E-4,7.6852343E-3,-5.951843E-1,-1.773118E-1,3.0121513E-2,-1.0239155E0,1.9463895E-2,1.3155769E-1,-2.7713084E-1,2.28023E-3,1.7787102E-1,-7.975038E-3,-1.3435346E0,-1.0193775E-2,2.1807712E-2,-1.10056745E-2,9.667866E-3,-1.1331174E-2,4.906774E-4,7.3626707E-3,-9.482665E-3,-2.2166688E-2,-4.6992023E-2],"categories":[],"categories_nodes":[],"categories_segments":[],"categories_sizes":[],"default_left":[0,0,0,0,0,0,0,0,0,0,0,0,0,0,0,0,0,0,0,0,0,0,0],"id":35,"left_children":[1,3,5,7,9,11,-1,13,15,17,19,-1,21,-1,-1,-1,-1,-1,-1,-1,-1,-1,-1],"loss_changes":[1.0468289E1,9.885112E0,1.6213758E1,7.978586E0,8.735494E0,4.9904194E0,0E0,1.8093494E1,1.0605762E1,9.569305E0,1.1312983E1,0E0,9.0140915E-1,0E0,0E0,0E0,0E0,0E0,0E0,0E0,0E0,0E0,0E0],"parents":[2147483647,0,0,1,1,2,2,3,3,4,4,5,5,7,7,8,8,9,9,10,10,12,12],"right_children":[2,4,6,8,10,12,-1,14,16,18,20,-1,22,-1,-1,-1,-1,-1,-1,-1,-1,-1,-1],"split_conditions":[5.9318095E-2,2.3724851E-3,1.9811837E-2,1.9471494E-3,1.2641959E0,-1.07427835E-1,1.9463895E-2,4.1252607E-3,3.5556115E-2,-2.4043169E-2,2.2099977E0,-7.975038E-3,-2.0681212E-2,-1.0193775E-2,2.1807712E-2,-1.10056745E-2,9.667866E-3,-1.1331174E-2,4.906774E-4,7.3626707E-3,-9.482665E-3,-2.2166688E-2,-4.6992023E-2],"split_indices":[16,17,6,16,9,13,0,2,13,0,9,0,2,0,0,0,0,0,0,0,0,0,0],"split_type":[0,0,0,0,0,0,0,0,0,0,0,0,0,0,0,0,0,0,0,0,0,0,0],"sum_hessian":[2.4074526E3,2.3792976E3,2.8155209E1,2.5660153E2,2.122696E3,2.1070337E1,7.0848713E0,6.2595306E1,1.9400624E2,1.7869805E3,3.357155E2,6.792182E0,1.4278154E1,3.517589E1,2.7419416E1,1.6908356E2,2.492268E1,6.2907265E1,1.7240732E3,2.9577063E2,3.994488E1,5.007636E0,9.270518E0],"tree_param":{"num_deleted":"0","num_feature":"20","num_nodes":"23","size_leaf_vector":"1"}},{"base_weights":[1.04804095E-2,1.1611736E-1,-3.5536394E-2,3.0552384E-1,3.6567554E-2,-2.0477688E-1,2.4893353E-2,-3.253602E-1,3.909419E-1,-3.3317223E-2,4.818223E-1,-7.1021214E-2,-4.100734E-1,-1.5165385E-2,2.3123528E-1,1.0060262E-3,-3.2718148E-2,3.453537E-3,1.7483793E-2,1.0539487E-2,-2.8692468E-3,1.7644348E-2,-1.729505E-2,-9.903876E-3,4.3524643E-3,-2.405892E-2,-7.1957354E-3,2.5641682E-4,-2.2345806E-2,5.168818E-3,2.4982806E-2],"categories":[],"categories_nodes":[],"categories_segments":[],"categories_sizes":[],"default_left":[0,0,0,0,0,0,0,0,0,0,0,0,0,0,0,0,0,0,0,0,0,0,0,0,0,0,0,0,0,0,0],"id":36,"left_children":[1,3,5,7,9,11,13,15,17,19,21,23,25,27,29,-1,-1,-1,-1,-1,-1,-1,-1,-1,-1,-1,-1,-1,-1,-1,-1],"loss_changes":[1.173463E1,1.1025053E1,1.7203964E1,1.1794504E1,1.6101984E1,1.212409E1,1.02539215E1,7.2772117E0,1.0047647E1,1.0767355E1,8.237799E0,1.5121262E1,1.1440481E1,1.7991566E1,7.0067253E0,0E0,0E0,0E0,0E0,0E0,0E0,0E0,0E0,0E0,0E0,0E0,0E0,0E0,0E0,0E0,0E0],"parents":[2147483647,0,0,1,1,2,2,3,3,4,4,5,5,6,6,7,7,8,8,9,9,10,10,11,11,12,12,13,13,14,14],"right_children":[2,4,6,8,10,12,14,16,18,20,22,24,26,28,30,-1,-1,-1,-1,-1,-1,-1,-1,-1,-1,-1,-1,-1,-1,-1,-1],"split_conditions":[1.21853165E-2,8.7794095E-1,8.4605217E-1,-1.9837582E-2,1.3916694E0,4.41946E-2,3.9958294E-2,1.4500516E-2,3.22217E-3,5.5758595E-3,2.3931599E0,1.4521251E-3,5.966587E-2,2.2099977E0,1.6894943E0,1.0060262E-3,-3.2718148E-2,3.453537E-3,1.7483793E-2,1.0539487E-2,-2.8692468E-3,1.7644348E-2,-1.729505E-2,-9.903876E-3,4.3524643E-3,-2.405892E-2,-7.1957354E-3,2.5641682E-4,-2.2345806E-2,5.168818E-3,2.4982806E-2],"split_indices":[18,9,9,13,9,18,2,16,8,17,9,2,18,9,9,0,0,0,0,0,0,0,0,0,0,0,0,0,0,0,0],"split_type":[0,0,0,0,0,0,0,0,0,0,0,0,0,0,0,0,0,0,0,0,0,0,0,0,0,0,0,0,0,0,0],"sum_hessian":[2.4121501E3,7.3146454E2,1.6806857E3,2.1550673E2,5.1595776E2,4.4158557E2,1.2391001E3,2.5363913E1,1.901428E2,4.4676166E2,6.919612E1,2.681956E2,1.7338998E2,1.0384285E3,2.0067157E2,1.7917097E1,7.4468145E0,7.8657364E1,1.1148544E2,6.1650414E1,3.8511127E2,6.3282795E1,5.913326E0,1.2172256E2,1.4647304E2,5.138162E1,1.2200837E2,1.0067024E3,3.1726133E1,1.8393486E2,1.6736713E1],"tree_param":{"num_deleted":"0","num_feature":"20","num_nodes":"31","size_leaf_vector":"1"}},{"base_weights":[9.5117954E-4,-2.6343511E-2,1.6018574E-1,-2.9872417E-1,-5.2051954E-3,2.3242635E-1,-4.8357522E-1,2.1386579E-2,-3.6287248E-1,1.4098431E-1,-3.7592094E-2,2.85374E-1,-4.4263056E-1,-7.937257E-1,2.0258304E-2,2.056576E-2,-1.2624932E-2,3.4109426E-3,4.0791053E-2,-2.2603942E-3,3.574016E-3,1.7922973E-2,6.550481E-3,-3.730282E-2,5.612154E-3,-1.628366E-2,-4.1967034E-2],"categories":[],"categories_nodes":[],"categories_segments":[],"categories_sizes":[],"default_left":[0,0,0,0,0,0,0,0,0,0,0,0,0,0,0,0,0,0,0,0,0,0,0,0,0,0,0],"id":37,"left_children":[1,3,5,7,9,11,13,-1,15,17,19,21,23,25,-1,-1,-1,-1,-1,-1,-1,-1,-1,-1,-1,-1,-1],"loss_changes":[1.0455047E1,1.1822156E1,1.6482319E1,9.854632E0,9.032741E0,1.1462425E1,1.3417296E1,0E0,8.778269E0,1.1351688E1,9.249554E0,6.0333805E0,1.2062084E1,3.6039982E0,0E0,0E0,0E0,0E0,0E0,0E0,0E0,0E0,0E0,0E0,0E0,0E0,0E0],"parents":[2147483647,0,0,1,1,2,2,3,3,4,4,5,5,6,6,8,8,9,9,10,10,11,11,12,12,13,13],"right_children":[2,4,6,8,10,12,14,-1,16,18,20,22,24,26,-1,-1,-1,-1,-1,-1,-1,-1,-1,-1,-1,-1,-1],"split_conditions":[1.2794243E0,-3.874096E-2,2.3931599E0,-1.5814967E-2,-1.7927836E-3,5.66599E-2,2.372755E-2,2.1386579E-2,-7.756606E-2,6.632068E-1,2.172302E-2,-5.819351E-2,1.7335162E0,4.935305E-1,2.0258304E-2,2.056576E-2,-1.2624932E-2,3.4109426E-3,4.0791053E-2,-2.2603942E-3,3.574016E-3,1.7922973E-2,6.550481E-3,-3.730282E-2,5.612154E-3,-1.628366E-2,-4.1967034E-2],"split_indices":[9,2,9,6,6,8,2,0,1,4,8,13,9,4,0,0,0,0,0,0,0,0,0,0,0,0,0],"split_type":[0,0,0,0,0,0,0,0,0,0,0,0,0,0,0,0,0,0,0,0,0,0,0,0,0,0,0],"sum_hessian":[2.4035574E3,2.0525588E3,3.5099835E2,1.4687314E2,1.9056858E3,3.1615906E2,3.4839306E1,8.1551075E0,1.3871802E2,3.4501007E2,1.5606758E3,2.9370013E2,2.2458912E1,2.7732239E1,7.1070695E0,6.6997714E0,1.3201825E2,3.3852405E2,6.4860187E0,1.258121E3,3.0255478E2,5.052911E1,2.4317102E2,9.457333E0,1.300158E1,2.094448E1,6.787757E0],"tree_param":{"num_deleted":"0","num_feature":"20","num_nodes":"27","size_leaf_vector":"1"}},{"base_weights":[-4.4223764E-3,8.2850106E-2,-4.6535037E-2,4.5888904E-2,4.7844994E-1,-2.7186912E-1,-1.47796115E-2,-3.6591685E-1,8.2058854E-2,3.415149E-1,3.298512E-2,-3.7834528E-1,1.7669055E-1,8.630966E-2,-7.539179E-2,-1.5902288E-2,1.3060029E-2,6.979807E-4,1.3208946E-2,2.3515765E-2,-1.0601323E-3,-9.740676E-3,-4.3677762E-2,2.3247901E-2,-6.9443495E-3,-4.4229768E-5,1.2635155E-2,-1.1697488E-2,-5.946839E-4],"categories":[],"categories_nodes":[],"categories_segments":[],"categories_sizes":[],"default_left":[0,0,0,0,0,0,0,0,0,0,0,0,0,0,0,0,0,0,0,0,0,0,0,0,0,0,0,0,0],"id":38,"left_children":[1,3,5,7,9,11,13,15,17,19,-1,21,23,25,27,-1,-1,-1,-1,-1,-1,-1,-1,-1,-1,-1,-1,-1,-1],"loss_changes":[8.876392E0,1.1472463E1,1.16524315E1,1.0755131E1,5.328E0,9.6742E0,8.761393E0,7.90182E0,1.3948053E1,9.429498E0,0E0,8.945049E0,9.76857E0,1.5758247E1,1.5613781E1,0E0,0E0,0E0,0E0,0E0,0E0,0E0,0E0,0E0,0E0,0E0,0E0,0E0,0E0],"parents":[2147483647,0,0,1,1,2,2,3,3,4,4,5,5,6,6,7,7,8,8,9,9,11,11,12,12,13,13,14,14],"right_children":[2,4,6,8,10,12,14,16,18,20,-1,22,24,26,28,-1,-1,-1,-1,-1,-1,-1,-1,-1,-1,-1,-1,-1,-1],"split_conditions":[1.3525898E-2,1.3916694E0,3.7081637E-3,-3.9755274E-2,-6.432219E-3,1.0741591E-2,3.895363E-2,-1.2136055E-3,1.1067354E-2,-2.6310813E-3,3.298512E-2,9.288023E-3,3.4656164E-3,1.154801E-2,7.917572E-1,-1.5902288E-2,1.3060029E-2,6.979807E-4,1.3208946E-2,2.3515765E-2,-1.0601323E-3,-9.740676E-3,-4.3677762E-2,2.3247901E-2,-6.9443495E-3,-4.4229768E-5,1.2635155E-2,-1.1697488E-2,-5.946839E-4],"split_indices":[18,9,16,13,3,13,18,6,8,6,0,1,8,3,9,0,0,0,0,0,0,0,0,0,0,0,0,0,0],"split_type":[0,0,0,0,0,0,0,0,0,0,0,0,0,0,0,0,0,0,0,0,0,0,0,0,0,0,0,0,0],"sum_hessian":[2.413114E3,7.851127E2,1.6280015E3,7.190475E2,6.606518E1,2.0015504E2,1.4278463E3,5.732045E1,6.6172705E2,5.5400024E1,1.0665152E1,1.6188449E2,3.8270554E1,5.3505505E2,8.9279126E2,4.785451E1,9.465939E0,5.693522E2,9.2374886E1,2.4988676E1,3.0411348E1,1.5544568E2,6.4388123E0,1.5156956E1,2.3113598E1,4.2471246E2,1.103426E2,1.3314789E2,7.596434E2],"tree_param":{"num_deleted":"0","num_feature":"20","num_nodes":"29","size_leaf_vector":"1"}},{"base_weights":[-2.5855668E-3,-1.5811631E-2,3.2123038E-1,1.459181E-2,-2.2799537E-1,9.819851E-1,7.6480485E-2,-5.0551933E-1,2.6002742E-2,-5.5207324E-1,-1.03153795E-1,1.2258003E0,5.3190393E-4,-2.5032604E-2,2.2249408E-1,-2.7041089E-2,-4.6309824E-3,-5.1791E-4,5.046314E-3,1.2657722E-3,-2.5785502E-2,3.8355994E-3,-7.6775164E-3,4.422399E-2,1.7116506E-2,1.5888162E-3,1.9498017E-2],"categories":[],"categories_nodes":[],"categories_segments":[],"categories_sizes":[],"default_left":[0,0,0,0,0,0,0,0,0,0,0,0,0,0,0,0,0,0,0,0,0,0,0,0,0,0,0],"id":39,"left_children":[1,3,5,7,9,11,13,15,17,19,21,23,-1,-1,25,-1,-1,-1,-1,-1,-1,-1,-1,-1,-1,-1,-1],"loss_changes":[1.0357348E1,1.499099E1,1.5272158E1,1.2079093E1,1.1725957E1,5.988901E0,9.540365E0,5.9346275E0,1.2249085E1,1.4791512E1,7.495529E0,2.4770832E0,0E0,0E0,4.415453E0,0E0,0E0,0E0,0E0,0E0,0E0,0E0,0E0,0E0,0E0,0E0,0E0],"parents":[2147483647,0,0,1,1,2,2,3,3,4,4,5,5,6,6,7,7,8,8,9,9,10,10,11,11,14,14],"right_children":[2,4,6,8,10,12,14,16,18,20,22,24,-1,-1,26,-1,-1,-1,-1,-1,-1,-1,-1,-1,-1,-1,-1],"split_conditions":[6.1889E-2,9.899893E-2,5.8149032E-2,-3.837845E-2,-6.233849E-1,1.985304E-1,-3.2991876E-3,-2.6665443E-1,3.8499944E-2,-3.653246E-2,-7.911971E-3,8.315357E-2,5.3190393E-4,-2.5032604E-2,1.01576135E-1,-2.7041089E-2,-4.6309824E-3,-5.1791E-4,5.046314E-3,1.2657722E-3,-2.5785502E-2,3.8355994E-3,-7.6775164E-3,4.422399E-2,1.7116506E-2,1.5888162E-3,1.9498017E-2],"split_indices":[15,17,18,13,10,17,7,10,17,2,6,15,0,0,13,0,0,0,0,0,0,0,0,0,0,0,0],"split_type":[0,0,0,0,0,0,0,0,0,0,0,0,0,0,0,0,0,0,0,0,0,0,0,0,0,0,0],"sum_hessian":[2.4161672E3,2.3222668E3,9.3900406E1,2.0320317E3,2.902351E2,2.456628E1,6.933412E1,4.2694874E1,1.9893368E3,7.9760796E1,2.104743E2,1.9391764E1,5.174516E0,8.927232E0,6.0406895E1,1.9333544E1,2.3361332E1,1.5259487E3,4.6338812E2,2.7489119E1,5.227168E1,8.384615E1,1.2662814E2,1.315604E1,6.2357235E0,4.405676E1,1.6350134E1],"tree_param":{"num_deleted":"0","num_feature":"20","num_nodes":"27","size_leaf_vector":"1"}},{"base_weights":[1.6607388E-3,-1.4140217E-1,2.9901154E-2,-7.2646517E-1,-8.698132E-2,4.879802E-3,2.3327437E-1,-1.0423372E0,2.353858E-2,6.527154E-1,-1.4583415E-1,1.7116833E-2,-6.3761055E-1,6.0224915E-1,1.003414E-1,-3.630795E-2,-7.0797596E-3,3.8699858E-2,8.978698E-3,-2.1886388E-3,-2.793388E-2,2.0551365E-3,-3.096688E-3,-3.4728356E-2,-5.5023204E-3,-8.288264E-3,2.759824E-2,-6.9995057E-3,9.14377E-3],"categories":[],"categories_nodes":[],"categories_segments":[],"categories_sizes":[],"default_left":[0,0,0,0,0,0,0,0,0,0,0,0,0,0,0,0,0,0,0,0,0,0,0,0,0,0,0,0,0],"id":40,"left_children":[1,3,5,7,9,11,13,15,-1,17,19,21,23,25,27,-1,-1,-1,-1,-1,-1,-1,-1,-1,-1,-1,-1,-1,-1],"loss_changes":[9.849076E0,1.2732769E1,1.0358696E1,1.7077442E1,1.6151237E1,1.4271706E1,1.087815E1,3.5877151E0,0E0,5.777302E0,1.9531609E1,1.1020259E1,7.8008223E0,1.6683817E1,1.1336925E1,0E0,0E0,0E0,0E0,0E0,0E0,0E0,0E0,0E0,0E0,0E0,0E0,0E0,0E0],"parents":[2147483647,0,0,1,1,2,2,3,3,4,4,5,5,6,6,7,7,9,9,10,10,11,11,12,12,13,13,14,14],"right_children":[2,4,6,8,10,12,14,16,-1,18,20,22,24,26,28,-1,-1,-1,-1,-1,-1,-1,-1,-1,-1,-1,-1,-1,-1],"split_conditions":[7.864486E-1,-1.8015321E-2,3.9958294E-2,5.069435E-2,-8.779471E-3,2.3931599E0,-9.432111E-3,7.6639074E-1,2.353858E-2,6.919723E-1,1.964521E-2,7.6863205E-4,-1.37484325E-2,5.0875616E-1,1.0615437E-2,-3.630795E-2,-7.0797596E-3,3.8699858E-2,8.978698E-3,-2.1886388E-3,-2.793388E-2,2.0551365E-3,-3.096688E-3,-3.4728356E-2,-5.5023204E-3,-8.288264E-3,2.759824E-2,-6.9995057E-3,9.14377E-3],"split_indices":[9,2,2,15,13,9,15,9,0,9,15,6,2,4,15,0,0,0,0,0,0,0,0,0,0,0,0,0,0],"split_type":[0,0,0,0,0,0,0,0,0,0,0,0,0,0,0,0,0,0,0,0,0,0,0,0,0,0,0,0,0],"sum_hessian":[2.4357495E3,4.0088785E2,2.0348617E3,3.3065125E1,3.6782272E2,1.812848E3,2.2201376E2,2.7604895E1,5.4602294E0,2.6364735E1,3.4145798E2,1.7799205E3,3.2927452E1,5.7866478E1,1.641473E2,2.243227E1,5.172624E0,8.4600315E0,1.7904703E1,3.1346014E2,2.7997847E1,1.2475991E3,5.3232135E2,1.4629661E1,1.8297792E1,1.5402845E1,4.246363E1,6.2313007E1,1.0183429E2],"tree_param":{"num_deleted":"0","num_feature":"20","num_nodes":"29","size_leaf_vector":"1"}},{"base_weights":[7.3274635E-3,1.6974494E-1,-1.5071143E-2,5.8476217E-2,7.3023206E-1,-1.8835358E-1,1.3249152E-2,7.4071455E-1,-5.9138425E-2,1.21994E0,-3.1620058E-1,3.6380876E-2,-3.7589186E-1,-4.3881068E-1,2.9425038E-2,3.1892546E-2,2.459748E-3,-3.5748165E-3,3.3833332E-2,4.3501846E-2,1.4754018E-2,-3.4080613E-2,6.269792E-3,-2.0257788E-2,9.049689E-3,-1.342281E-2,2.1486312E-2,-2.6308812E-2,-7.3273317E-3,1.1705987E-3,-1.6367875E-2],"categories":[],"categories_nodes":[],"categories_segments":[],"categories_sizes":[],"default_left":[0,0,0,0,0,0,0,0,0,0,0,0,0,0,0,0,0,0,0,0,0,0,0,0,0,0,0,0,0,0,0],"id":41,"left_children":[1,3,5,7,9,11,13,15,17,19,21,23,25,27,29,-1,-1,-1,-1,-1,-1,-1,-1,-1,-1,-1,-1,-1,-1,-1,-1],"loss_changes":[8.787031E0,1.8213188E1,1.0420754E1,1.9729216E1,2.5188147E1,1.2585537E1,1.3363096E1,7.589018E0,1.5107847E1,4.845913E0,7.2227426E0,2.5991323E1,1.3030388E1,5.16788E0,9.751238E0,0E0,0E0,0E0,0E0,0E0,0E0,0E0,0E0,0E0,0E0,0E0,0E0,0E0,0E0,0E0,0E0],"parents":[2147483647,0,0,1,1,2,2,3,3,4,4,5,5,6,6,7,7,8,8,9,9,10,10,11,11,12,12,13,13,14,14],"right_children":[2,4,6,8,10,12,14,16,18,20,22,24,26,28,30,-1,-1,-1,-1,-1,-1,-1,-1,-1,-1,-1,-1,-1,-1,-1,-1],"split_conditions":[2.288433E-3,6.0687466E-3,7.839202E-1,-1.3671569E-3,5.689979E-3,7.1832333E-3,1.0123323E-3,4.8842078E-1,1.184595E-2,9.392508E-5,8.836533E-1,2.826807E-3,5.069435E-2,1.2212001E-2,3.1130505E0,3.1892546E-2,2.459748E-3,-3.5748165E-3,3.3833332E-2,4.3501846E-2,1.4754018E-2,-3.4080613E-2,6.269792E-3,-2.0257788E-2,9.049689E-3,-1.342281E-2,2.1486312E-2,-2.6308812E-2,-7.3273317E-3,1.1705987E-3,-1.6367875E-2],"split_indices":[16,15,9,15,17,16,17,4,3,7,9,16,15,3,10,0,0,0,0,0,0,0,0,0,0,0,0,0,0,0,0],"split_type":[0,0,0,0,0,0,0,0,0,0,0,0,0,0,0,0,0,0,0,0,0,0,0,0,0,0,0,0,0,0,0],"sum_hessian":[2.413693E3,2.9172797E2,2.121965E3,2.4432794E2,4.740001E1,2.9729086E2,1.8246743E3,3.5148266E1,2.0917967E2,3.217636E1,1.522365E1,1.3560095E2,1.6168991E2,6.2133423E1,1.7625409E3,2.3186996E1,1.1961267E1,1.99967E2,9.212688E0,2.3696E1,8.48036E0,5.4903073E0,9.733342E0,3.640192E1,9.919903E1,1.5230396E2,9.385943E0,1.8028109E1,4.4105312E1,1.7345303E3,2.8010601E1],"tree_param":{"num_deleted":"0","num_feature":"20","num_nodes":"31","size_leaf_vector":"1"}},{"base_weights":[-5.154202E-3,7.224639E-3,-4.3328118E-1,1.1114368E0,8.3300496E-5,-5.8977675E-1,1.8556809E-2,1.2445883E-2,5.0670307E-2,6.3434404E-1,-7.9781795E-3,6.6630535E-2,-7.3076904E-1,1.2184785E-4,2.8703593E-2,5.8454036E-4,-7.997146E-3,-9.455007E-3,1.3257459E-2,-1.3401823E-2,-3.4315813E-2],"categories":[],"categories_nodes":[],"categories_segments":[],"categories_sizes":[],"default_left":[0,0,0,0,0,0,0,0,0,0,0,0,0,0,0,0,0,0,0,0,0],"id":42,"left_children":[1,3,5,7,9,11,-1,-1,-1,13,15,17,19,-1,-1,-1,-1,-1,-1,-1,-1],"loss_changes":[1.2810747E1,1.8528852E1,1.1546347E1,5.3739014E0,1.1947346E1,5.568495E0,0E0,0E0,0E0,5.9560013E0,1.6391033E1,1.7815995E0,5.259575E0,0E0,0E0,0E0,0E0,0E0,0E0,0E0,0E0],"parents":[2147483647,0,0,1,1,2,2,3,3,4,4,5,5,9,9,10,10,11,11,12,12],"right_children":[2,4,6,8,10,12,-1,-1,-1,14,16,18,20,-1,-1,-1,-1,-1,-1,-1,-1],"split_conditions":[4.9433373E-2,-1.777155E-2,6.394764E-1,2.0049296E-2,-6.31579E-2,-4.2410232E-2,1.8556809E-2,1.2445883E-2,5.0670307E-2,2.3924695E-2,1.02703325E-1,4.303263E-1,-2.3274029E-2,1.2184785E-4,2.8703593E-2,5.8454036E-4,-7.997146E-3,-9.455007E-3,1.3257459E-2,-1.3401823E-2,-3.4315813E-2],"split_indices":[8,6,4,18,1,15,0,0,0,16,17,4,13,0,0,0,0,0,0,0,0],"split_type":[0,0,0,0,0,0,0,0,0,0,0,0,0,0,0,0,0,0,0,0,0],"sum_hessian":[2.4156611E3,2.348733E3,6.6928024E1,1.4098846E1,2.3346343E3,5.8642357E1,8.285665E0,7.1699357E0,6.9289103E0,2.8325851E1,2.3063083E3,1.0462109E1,4.818025E1,9.929371E0,1.839648E1,2.0857268E3,2.2058153E2,5.2654624E0,5.196646E0,2.9782934E1,1.8397314E1],"tree_param":{"num_deleted":"0","num_feature":"20","num_nodes":"21","size_leaf_vector":"1"}},{"base_weights":[-1.1905278E-2,8.24225E-2,-5.3396966E-2,-7.799303E-2,1.7584993E-1,-2.898709E-1,-1.4071875E-2,1.3807556E-1,-2.1347526E-1,4.3994397E-1,7.822208E-2,5.2544348E-2,-4.3763798E-1,8.0602646E-2,-7.263793E-2,2.908981E-2,1.4477936E-3,-1.8206006E-2,-1.4149651E-3,1.4633024E-2,-8.046137E-3,-1.2435231E-3,1.1814282E-2,-3.9096627E-2,6.6415006E-3,-1.852553E-2,-7.045871E-3,5.4256327E-4,9.954114E-3,-4.3403213E-3,3.0373794E-3],"categories":[],"categories_nodes":[],"categories_segments":[],"categories_sizes":[],"default_left":[0,0,0,0,0,0,0,0,0,0,0,0,0,0,0,0,0,0,0,0,0,0,0,0,0,0,0,0,0,0,0],"id":43,"left_children":[1,3,5,7,9,11,13,15,17,19,21,23,25,27,29,-1,-1,-1,-1,-1,-1,-1,-1,-1,-1,-1,-1,-1,-1,-1,-1],"loss_changes":[9.451253E0,1.1070728E1,1.5590519E1,7.9985304E0,1.1994231E1,1.2118843E1,7.9841146E0,7.8344107E0,1.0943668E1,4.3878136E0,1.2926474E1,1.6989044E1,5.9500237E0,8.637638E0,1.1156956E1,0E0,0E0,0E0,0E0,0E0,0E0,0E0,0E0,0E0,0E0,0E0,0E0,0E0,0E0,0E0,0E0],"parents":[2147483647,0,0,1,1,2,2,3,3,4,4,5,5,6,6,7,7,8,8,9,9,10,10,11,11,12,12,13,13,14,14],"right_children":[2,4,6,8,10,12,14,16,18,20,22,24,26,28,30,-1,-1,-1,-1,-1,-1,-1,-1,-1,-1,-1,-1,-1,-1,-1,-1],"split_conditions":[1.2366385E-2,3.8857514E-1,3.7081637E-3,-2.1066726E-3,1E0,2.236405E-3,3.8386032E-2,2.236405E-3,6.836408E-4,4.0705723E-4,3.2324332E-3,1.3599184E-3,-3.2425106E-1,1.154801E-2,3.9958294E-2,2.908981E-2,1.4477936E-3,-1.8206006E-2,-1.4149651E-3,1.4633024E-2,-8.046137E-3,-1.2435231E-3,1.1814282E-2,-3.9096627E-2,6.6415006E-3,-1.852553E-2,-7.045871E-3,5.4256327E-4,9.954114E-3,-4.3403213E-3,3.0373794E-3],"split_indices":[18,4,16,15,14,16,18,16,15,7,16,16,10,3,2,0,0,0,0,0,0,0,0,0,0,0,0,0,0,0,0],"split_type":[0,0,0,0,0,0,0,0,0,0,0,0,0,0,0,0,0,0,0,0,0,0,0,0,0,0,0,0,0,0,0],"sum_hessian":[2.4127173E3,7.367631E2,1.6759541E3,2.71228E2,4.6553513E2,2.3805923E2,1.4378949E3,1.0451969E2,1.6670831E2,1.2470044E2,3.408347E2,7.195801E1,1.6610123E2,5.493962E2,8.8849866E2,9.233413E0,9.528628E1,4.8748608E1,1.1795971E2,1.1710329E2,7.5971527E0,2.4775354E2,9.308116E1,7.2247844E0,6.473322E1,8.6936035E1,7.9165184E1,4.4077194E2,1.0862427E2,6.283454E2,2.6015323E2],"tree_param":{"num_deleted":"0","num_feature":"20","num_nodes":"31","size_leaf_vector":"1"}},{"base_weights":[-7.41085E-3,8.730332E-5,-6.6512424E-1,5.353427E-1,-6.891213E-3,-1.0404791E0,1.6371686E-2,9.2156684E-1,-1.0278292E-2,-4.8304373E-1,2.7604706E-3,-8.7516755E-3,-3.8701706E-2,-2.067118E-4,4.4677913E-2,-2.7063726E-2,-4.607361E-4,-1.7638021E-4,1.6970813E-2],"categories":[],"categories_nodes":[],"categories_segments":[],"categories_sizes":[],"default_left":[0,0,0,0,0,0,0,0,0,0,0,0,0,0,0,0,0,0,0],"id":44,"left_children":[1,3,5,7,9,11,-1,13,-1,15,17,-1,-1,-1,-1,-1,-1,-1,-1],"loss_changes":[1.1842537E1,8.875976E0,1.2869923E1,1.0685739E1,1.0781309E1,3.5491867E0,0E0,1.134775E1,0E0,9.121284E0,1.119004E1,0E0,0E0,0E0,0E0,0E0,0E0,0E0,0E0],"parents":[2147483647,0,0,1,1,2,2,3,3,4,4,5,5,7,7,9,9,10,10],"right_children":[2,4,6,8,10,12,-1,14,-1,16,18,-1,-1,-1,-1,-1,-1,-1,-1],"split_conditions":[5.9318095E-2,-1.5814967E-2,1.9811837E-2,5.1052228E-2,-1.0978051E-2,-2.2285071E-1,1.6371686E-2,2.7867885E-2,-1.0278292E-2,2.498172E-2,8.315357E-2,-8.7516755E-3,-3.8701706E-2,-2.067118E-4,4.4677913E-2,-2.7063726E-2,-4.607361E-4,-1.7638021E-4,1.6970813E-2],"split_indices":[16,6,6,8,6,3,0,16,0,16,15,0,0,0,0,0,0,0,0],"split_type":[0,0,0,0,0,0,0,0,0,0,0,0,0,0,0,0,0,0,0],"sum_hessian":[2.400329E3,2.3742615E3,2.606751E1,2.9582178E1,2.3446794E3,2.0006367E1,6.0611424E0,2.0509895E1,9.072282E0,4.5608315E1,2.299071E3,5.5436826E0,1.4462685E1,8.157056E0,1.235284E1,2.3564184E1,2.2044132E1,2.2652932E3,3.37778E1],"tree_param":{"num_deleted":"0","num_feature":"20","num_nodes":"19","size_leaf_vector":"1"}},{"base_weights":[-1.8283505E-3,1.0247209E-1,-5.1626593E-2,6.950086E-2,4.9596426E-1,-2.8100005E-1,-2.8776262E-2,-1.9703877E-1,1.2683874E-1,2.2986314E-1,1.2459198E0,-1.2145075E-1,-9.1005313E-1,5.704431E-1,-3.9748047E-2,8.835287E-4,-1.5289954E-2,9.048852E-3,8.370975E-4,3.4108166E-2,-5.050908E-3,2.2707589E-2,4.3386076E-2,-8.242147E-3,2.106943E-2,-6.374838E-3,-3.2231957E-2,2.9991953E-2,-6.966505E-3,-6.505832E-3,-3.3803046E-4],"categories":[],"categories_nodes":[],"categories_segments":[],"categories_sizes":[],"default_left":[0,0,0,0,0,0,0,0,0,0,0,0,0,0,0,0,0,0,0,0,0,0,0,0,0,0,0,0,0,0,0],"id":45,"left_children":[1,3,5,7,9,11,13,15,17,19,21,23,25,27,29,-1,-1,-1,-1,-1,-1,-1,-1,-1,-1,-1,-1,-1,-1,-1,-1],"loss_changes":[1.2484759E1,1.0043418E1,8.518915E0,1.0996349E1,1.1665975E1,1.4670786E1,9.757042E0,9.04169E0,1.0218689E1,1.6602823E1,4.1940117E-1,1.5173077E1,3.1699467E0,9.4281435E0,7.336606E0,0E0,0E0,0E0,0E0,0E0,0E0,0E0,0E0,0E0,0E0,0E0,0E0,0E0,0E0,0E0,0E0],"parents":[2147483647,0,0,1,1,2,2,3,3,4,4,5,5,6,6,7,7,8,8,9,9,10,10,11,11,12,12,13,13,14,14],"right_children":[2,4,6,8,10,12,14,16,18,20,22,24,26,28,30,-1,-1,-1,-1,-1,-1,-1,-1,-1,-1,-1,-1,-1,-1,-1,-1],"split_conditions":[1.3297309E-2,1.4395611E0,4.0174704E-3,3.361865E-1,3.8857514E-1,2.4272101E-2,6.195041E-1,-1.7421526E-3,8.7966526E-1,-8.695869E-3,-3.9017108E-1,7.338581E-1,4.782436E-4,1.5397082E-2,7.864486E-1,8.835287E-4,-1.5289954E-2,9.048852E-3,8.370975E-4,3.4108166E-2,-5.050908E-3,2.2707589E-2,4.3386076E-2,-8.242147E-3,2.106943E-2,-6.374838E-3,-3.2231957E-2,2.9991953E-2,-6.966505E-3,-6.505832E-3,-3.3803046E-4],"split_indices":[18,9,8,4,4,18,9,0,9,15,10,4,17,2,9,0,0,0,0,0,0,0,0,0,0,0,0,0,0,0,0],"split_type":[0,0,0,0,0,0,0,0,0,0,0,0,0,0,0,0,0,0,0,0,0,0,0,0,0,0,0,0,0,0,0],"sum_hessian":[2.40168E3,7.7578064E2,1.6258994E3,7.1688824E2,5.889238E1,1.462756E2,1.4796238E3,1.2648348E2,5.904048E2,4.4433037E1,1.4459339E1,1.1763296E2,2.8642656E1,2.568808E1,1.4539357E3,7.3871376E1,5.261211E1,2.12656E2,3.7774875E2,1.2989871E1,3.1443167E1,5.5900965E0,8.869244E0,9.9739716E1,1.7893238E1,5.8987207E0,2.2743935E1,1.6576763E1,9.111316E0,2.0049397E2,1.2534418E3],"tree_param":{"num_deleted":"0","num_feature":"20","num_nodes":"31","size_leaf_vector":"1"}},{"base_weights":[-6.640039E-4,5.881965E-3,-5.9270597E-1,6.0993063E-1,-2.6988387E-3,-2.530736E-1,-4.1615084E-2,3.238357E-1,4.594701E-2,3.430746E-2,-6.862721E-3,-2.6615005E-2,1.3834372E-2,-3.579407E-5,3.4213085E-2,-6.844445E-3,3.7181386E-4],"categories":[],"categories_nodes":[],"categories_segments":[],"categories_sizes":[],"default_left":[0,0,0,0,0,0,0,0,0,0,0,0,0,0,0,0,0],"id":46,"left_children":[1,3,5,7,9,11,-1,13,-1,-1,15,-1,-1,-1,-1,-1,-1],"loss_changes":[9.411628E0,1.2451975E1,6.814782E0,8.376354E0,1.1316922E1,9.388505E0,0E0,7.153306E0,0E0,0E0,1.00669565E1,0E0,0E0,0E0,0E0,0E0,0E0],"parents":[2147483647,0,0,1,1,2,2,3,3,4,4,5,5,7,7,10,10],"right_children":[2,4,6,8,10,12,-1,14,-1,-1,16,-1,-1,-1,-1,-1,-1],"split_conditions":[5.9318095E-2,-6.9163434E-2,8.0571204E-2,-2.7055084E-3,-2.079293E-2,3.4039866E-2,-4.1615084E-2,5.389717E-1,4.594701E-2,3.430746E-2,-3.837845E-2,-2.6615005E-2,1.3834372E-2,-3.579407E-5,3.4213085E-2,-6.844445E-3,3.7181386E-4],"split_indices":[16,1,15,6,6,2,0,5,0,0,13,0,0,0,0,0,0],"split_type":[0,0,0,0,0,0,0,0,0,0,0,0,0,0,0,0,0],"sum_hessian":[2.4266013E3,2.401044E3,2.555731E1,3.264867E1,2.3683953E3,1.8827234E1,6.7300763E0,2.59459E1,6.70277E0,7.581677E0,2.3608135E3,9.84477E0,8.982464E0,1.9273193E1,6.672708E0,1.8812581E2,2.1726877E3],"tree_param":{"num_deleted":"0","num_feature":"20","num_nodes":"17","size_leaf_vector":"1"}},{"base_weights":[2.281834E-3,-1.7134735E-1,2.113704E-2,-9.001597E-2,-8.842901E-1,1.2365555E-1,-2.1105723E-2,1.953363E-1,-2.0086731E-1,-8.902214E-3,-1.1804417E0,3.3697283E-1,8.014227E-2,-1.6940925E-1,3.3320505E-2,2.749821E-2,-3.532047E-4,-9.408647E-3,8.010001E-3,-4.132655E-2,-1.9250987E-2,2.2768028E-2,-3.3385516E-3,1.5663289E-3,2.0715196E-2,4.2879093E-3,-7.394165E-3,-1.8992007E-4,7.199328E-3],"categories":[],"categories_nodes":[],"categories_segments":[],"categories_sizes":[],"default_left":[0,0,0,0,0,0,0,0,0,0,0,0,0,0,0,0,0,0,0,0,0,0,0,0,0,0,0,0,0],"id":47,"left_children":[1,3,5,7,9,11,13,15,17,-1,19,21,23,25,27,-1,-1,-1,-1,-1,-1,-1,-1,-1,-1,-1,-1,-1,-1],"loss_changes":[7.921778E0,1.3664613E1,9.454725E0,6.804429E0,3.8533096E0,5.886181E0,1.2488789E1,9.02533E0,8.2357435E0,0E0,7.860203E-1,2.0440443E1,9.006874E0,1.003291E1,9.278898E0,0E0,0E0,0E0,0E0,0E0,0E0,0E0,0E0,0E0,0E0,0E0,0E0,0E0,0E0],"parents":[2147483647,0,0,1,1,2,2,3,3,4,4,5,5,6,6,7,7,8,8,10,10,11,11,12,12,13,13,14,14],"right_children":[2,4,6,8,10,12,14,16,18,-1,20,22,24,26,28,-1,-1,-1,-1,-1,-1,-1,-1,-1,-1,-1,-1,-1,-1],"split_conditions":[3.361865E-1,-2.9779652E-3,1.3525898E-2,-8.9968964E-2,-1.3778448E-3,-1.7927836E-3,8.4605217E-1,2.482784E-2,-8.5167174E-4,-8.902214E-3,6.0490356E-3,1.440408E-2,1.4395611E0,1.9278323E-4,4.3969896E-2,2.749821E-2,-3.532047E-4,-9.408647E-3,8.010001E-3,-4.132655E-2,-1.9250987E-2,2.2768028E-2,-3.3385516E-3,1.5663289E-3,2.0715196E-2,4.2879093E-3,-7.394165E-3,-1.8992007E-4,7.199328E-3],"split_indices":[4,2,18,3,1,6,9,8,6,0,2,8,9,13,2,0,0,0,0,0,0,0,0,0,0,0,0,0,0],"split_type":[0,0,0,0,0,0,0,0,0,0,0,0,0,0,0,0,0,0,0,0,0,0,0,0,0,0,0,0,0],"sum_hessian":[2.4176333E3,2.3603203E2,2.1816013E3,2.1287396E2,2.3158066E1,6.360503E2,1.5455509E3,5.9345444E1,1.5352853E2,8.431798E0,1.4726268E1,1.0661962E2,5.294307E2,4.143621E2,1.1311888E3,1.2474976E1,4.687047E1,1.2397958E2,2.9548939E1,9.64168E0,5.0845876E0,5.456373E1,5.205589E1,5.0730127E2,2.2129427E1,8.183329E1,3.325288E2,9.4990125E2,1.8128761E2],"tree_param":{"num_deleted":"0","num_feature":"20","num_nodes":"29","size_leaf_vector":"1"}},{"base_weights":[-5.8272923E-4,1.1692258E-2,-2.966587E-1,7.966408E-1,4.9336324E-3,-5.334619E-1,6.088222E-1,3.219258E-1,4.196788E-2,-5.5784374E-1,1.419359E-2,-8.738652E-1,-1.6876929E-2,3.2598257E-2,-5.466311E-3,-6.2575033E-3,2.300266E-2,1.2975145E-2,-2.2786053E-2,2.7602104E-2,2.4844165E-4,-1.0677241E-2,-3.317872E-2,1.2912278E-2,-2.0209877E-2],"categories":[],"categories_nodes":[],"categories_segments":[],"categories_sizes":[],"default_left":[0,0,0,0,0,0,0,0,0,0,0,0,0,0,0,0,0,0,0,0,0,0,0,0,0],"id":48,"left_children":[1,3,5,7,9,11,13,15,-1,17,19,21,23,-1,-1,-1,-1,-1,-1,-1,-1,-1,-1,-1,-1],"loss_changes":[8.757005E0,1.2270388E1,2.0891912E1,5.195015E0,1.196735E1,1.3449469E1,7.8898344E0,3.0721827E0,0E0,7.7538176E0,1.2089528E1,5.152401E0,9.524077E0,0E0,0E0,0E0,0E0,0E0,0E0,0E0,0E0,0E0,0E0,0E0,0E0],"parents":[2147483647,0,0,1,1,2,2,3,3,4,4,5,5,6,6,7,7,9,9,10,10,11,11,12,12],"right_children":[2,4,6,8,10,12,14,16,-1,18,20,22,24,-1,-1,-1,-1,-1,-1,-1,-1,-1,-1,-1,-1],"split_conditions":[4.647197E-2,-1.5814967E-2,6.119047E-1,-1.7032886E-2,-1.0978051E-2,1.5714153E0,5.9318095E-2,3.6490552E-2,4.196788E-2,2.4940261E-1,-6.9163434E-2,-8.708692E-2,5.9883434E-2,3.2598257E-2,-5.466311E-3,-6.2575033E-3,2.300266E-2,1.2975145E-2,-2.2786053E-2,2.7602104E-2,2.4844165E-4,-1.0677241E-2,-3.317872E-2,1.2912278E-2,-2.0209877E-2],"split_indices":[8,6,4,1,6,9,16,8,0,4,1,3,8,0,0,0,0,0,0,0,0,0,0,0,0],"split_type":[0,0,0,0,0,0,0,0,0,0,0,0,0,0,0,0,0,0,0,0,0,0,0,0,0],"sum_hessian":[2.4075706E3,2.3126511E3,9.491948E1,1.8744884E1,2.2939062E3,7.556771E1,1.9351768E1,1.1340765E1,7.404119E0,3.617402E1,2.2577322E3,4.513465E1,3.0433062E1,1.1831713E1,7.520055E0,5.414481E0,5.926284E0,5.9269614E0,3.0247059E1,1.3636941E1,2.2440952E3,1.475023E1,3.038442E1,1.830893E1,1.2124131E1],"tree_param":{"num_deleted":"0",