{"learner":{"attributes":{"scikit_learn":"{\"_estimator_type\": \"classifier\"}"},"feature_names":[],"feature_types":[],"gradient_booster":{"model":{"cats":{"enc":[],"feature_segments":[],"sorted_idx":[]},"gbtree_model_param":{"num_parallel_tree":"1","num_trees":"60"},"iteration_indptr":[0,1,2,3,4,5,6,7,8,9,10,11,12,13,14,15,16,17,18,19,20,21,22,23,24,25,26,27,28,29,30,31,32,33,34,35,36,37,38,39,40,41,42,43,44,45,46,47,48,49,50,51,52,53,54,55,56,57,58,59,60],"tree_info":[0,0,0,0,0,0,0,0,0,0,0,0,0,0,0,0,0,0,0,0,0,0,0,0,0,0,0,0,0,0,0,0,0,0,0,0,0,0,0,0,0,0,0,0,0,0,0,0,0,0,0,0,0,0,0,0,0,0,0,0],"trees":[{"base_weights":[6.831119E-2,-1.1079361E-1,3.8967487E-1,-1.2796904E-1,7.085831E-1,-8.426814E-2,5.352949E-2,1.0818523E-1,-2.1952206E-2],"categories":[],"categories_nodes":[],"categories_segments":[],"categories_sizes":[],"default_left":[0,0,0,0,0,0,0,0,0],"id":0,"left_children":[1,-1,3,5,7,-1,-1,-1,-1],"loss_changes":[6.4054437E0,0E0,2.261819E0,3.2293515E0,3.1098342E0,0E0,0E0,0E0,0E0],"parents":[2147483647,0,0,2,2,3,3,4,4],"right_children":[2,-1,4,6,8,-1,-1,-1,-1],"split_conditions":[5.008977E-3,-1.1079361E-1,9.180432E-2,2.1938335E-2,4.568693E-1,-8.426814E-2,5.352949E-2,1.0818523E-1,-2.1952206E-2],"split_indices":[9,0,21,9,21,0,0,0,0],"split_type":[0,0,0,0,0,0,0,0,0],"sum_hessian":[1.4803331E1,2.6513429E0,1.2151988E1,4.860795E0,7.291193E0,2.2094524E0,2.6513429E0,5.0817404E0,2.2094524E0],"tree_param":{"num_deleted":"0","num_feature":"22","num_nodes":"9","size_leaf_vector":"1"}},{"base_weights":[7.6890334E-2,-6.407198E-1,7.316706E-1,-1.3048773E-1,1.14746895E-2,9.458923E-1,3.2376355E-4,1.1401985E-1,3.5910603E-2],"categories":[],"categories_nodes":[],"categories_segments":[],"categories_sizes":[],"default_left":[0,0,0,0,0,0,0,0,0],"id":1,"left_children":[1,3,5,-1,-1,7,-1,-1,-1],"loss_changes":[7.956928E0,4.2322216E0,1.3701186E0,0E0,0E0,3.6547184E-1,0E0,0E0,0E0],"parents":[2147483647,0,0,1,1,2,2,5,5],"right_children":[2,4,6,-1,-1,8,-1,-1,-1],"split_conditions":[2.1239882E-2,9.180432E-2,4.568693E-1,-1.3048773E-1,1.14746895E-2,-2.8165473E-2,3.2376355E-4,1.1401985E-1,3.5910603E-2],"split_indices":[9,21,21,0,0,20,0,0,0],"split_type":[0,0,0,0,0,0,0,0,0],"sum_hessian":[1.4936369E1,7.1365266E0,7.799843E0,3.4107602E0,3.7257662E0,5.7966123E0,2.0032306E0,3.6461241E0,2.150488E0],"tree_param":{"num_deleted":"0","num_feature":"22","num_nodes":"9","size_leaf_vector":"1"}},{"base_weights":[1.2167204E-1,-1.010309E-1,3.5544848E-1,-1.02422476E-1,7.24338E-1,4.358673E-2,-8.897E-2,1.00677624E-1,1.902775E-2],"categories":[],"categories_nodes":[],"categories_segments":[],"categories_sizes":[],"default_left":[0,0,0,0,0,0,0,0,0],"id":2,"left_children":[1,-1,3,5,7,-1,-1,-1,-1],"loss_changes":[5.082214E0,0E0,2.6977086E0,3.6960857E0,1.1246643E0,0E0,0E0,0E0,0E0],"parents":[2147483647,0,0,2,2,3,3,4,4],"right_children":[2,-1,4,6,8,-1,-1,-1,-1],"split_conditions":[4.746186E-3,-1.010309E-1,5.6524944E-2,1.0450558E-2,9.611742E0,4.358673E-2,-8.897E-2,1.00677624E-1,1.902775E-2],"split_indices":[9,0,19,19,6,0,0,0,0],"split_type":[0,0,0,0,0,0,0,0,0],"sum_hessian":[1.684791E1,2.3152807E0,1.453263E1,6.8065686E0,7.7260613E0,4.3076415E0,2.498927E0,4.474555E0,3.2515063E0],"tree_param":{"num_deleted":"0","num_feature":"22","num_nodes":"9","size_leaf_vector":"1"}},{"base_weights":[-4.8000094E-2,-6.1746573E-1,6.048785E-1,-8.6173123E-1,1.719143E-2,9.801415E-2,-1.801732E-3,-1.2908918E-1,-3.4920078E-2],"categories":[],"categories_nodes":[],"categories_segments":[],"categories_sizes":[],"default_left":[0,0,0,0,0,0,0,0,0],"id":3,"left_children":[1,3,5,7,-1,-1,-1,-1,-1],"loss_changes":[7.220659E0,2.1402578E0,2.1413004E0,1.3212848E0,0E0,0E0,0E0,0E0,0E0],"parents":[2147483647,0,0,1,1,2,2,3,3],"right_children":[2,4,6,8,-1,-1,-1,-1,-1],"split_conditions":[2.2505127E-2,1.5644751E-1,1E0,5.4551184E-1,1.719143E-2,9.801415E-2,-1.801732E-3,-1.2908918E-1,-3.4920078E-2],"split_indices":[9,20,3,0,0,0,0,0,0],"split_type":[0,0,0,0,0,0,0,0,0],"sum_hessian":[1.7416664E1,9.331561E0,8.085103E0,7.056381E0,2.2751803E0,4.6875615E0,3.3975418E0,3.013992E0,4.042389E0],"tree_param":{"num_deleted":"0","num_feature":"22","num_nodes":"9","size_leaf_vector":"1"}},{"base_weights":[1.0903121E-1,-8.480491E-2,3.618901E-1,6.832733E-1,-4.212798E-2,8.579393E-2,6.2836795E-3],"categories":[],"categories_nodes":[],"categories_segments":[],"categories_sizes":[],"default_left":[0,0,0,0,0,0,0],"id":4,"left_children":[1,-1,3,5,-1,-1,-1],"loss_changes":[4.0193486E0,0E0,3.5184672E0,9.7365904E-1,0E0,0E0,0E0],"parents":[2147483647,0,0,2,2,3,3],"right_children":[2,-1,4,6,-1,-1,-1],"split_conditions":[-1.8863596E-1,-8.480491E-2,5.0609684E0,4.30787E-1,-4.212798E-2,8.579393E-2,6.2836795E-3],"split_indices":[21,0,2,21,0,0,0],"split_type":[0,0,0,0,0,0,0],"sum_hessian":[1.43403E1,2.5049872E0,1.1835312E1,8.482124E0,3.3531878E0,6.3200874E0,2.162037E0],"tree_param":{"num_deleted":"0","num_feature":"22","num_nodes":"7","size_leaf_vector":"1"}},{"base_weights":[-1.5717414E-1,-1.0409633E-1,1.9507986E-1,-2.4786524E-1,7.250782E-1,2.6045829E-2,-9.916597E-2,1.1739778E-2,1.0594064E-1],"categories":[],"categories_nodes":[],"categories_segments":[],"categories_sizes":[],"default_left":[0,0,0,0,0,0,0,0,0],"id":5,"left_children":[1,-1,3,5,7,-1,-1,-1,-1],"loss_changes":[5.5282617E0,0E0,3.2486744E0,3.2324913E0,1.136524E0,0E0,0E0,0E0,0E0],"parents":[2147483647,0,0,2,2,3,3,4,4],"right_children":[2,-1,4,6,8,-1,-1,-1,-1],"split_conditions":[6.481616E-3,-1.0409633E-1,1.461995E1,2.93721E-2,-8.401995E-2,2.6045829E-2,-9.916597E-2,1.1739778E-2,1.0594064E-1],"split_indices":[9,0,18,20,20,0,0,0,0],"split_type":[0,0,0,0,0,0,0,0,0],"sum_hessian":[1.6105293E1,4.0325813E0,1.2072712E1,6.8664327E0,5.2062793E0,4.464875E0,2.4015574E0,2.3272946E0,2.878985E0],"tree_param":{"num_deleted":"0","num_feature":"22","num_nodes":"9","size_leaf_vector":"1"}},{"base_weights":[1.9470504E-3,2.0952697E-1,-9.416074E-2,-2.6148167E-1,6.687896E-1,3.2644894E-2,-6.7908496E-2,1.1367838E-2,9.0343624E-2],"categories":[],"categories_nodes":[],"categories_segments":[],"categories_sizes":[],"default_left":[0,0,0,0,0,0,0,0,0],"id":6,"left_children":[1,3,-1,5,7,-1,-1,-1,-1],"loss_changes":[3.2825606E0,3.1448233E0,0E0,2.0623767E0,8.3937764E-1,0E0,0E0,0E0,0E0],"parents":[2147483647,0,0,1,1,3,3,4,4],"right_children":[2,4,-1,6,8,-1,-1,-1,-1],"split_conditions":[4.8297858E-1,7.5458884E-2,-9.416074E-2,-1.4102298E1,2.035491E-2,3.2644894E-2,-6.7908496E-2,1.1367838E-2,9.0343624E-2],"split_indices":[21,21,0,18,18,0,0,0,0],"split_type":[0,0,0,0,0,0,0,0,0],"sum_hessian":[1.4752178E1,1.2729627E1,2.0225513E0,6.4970546E0,6.232572E0,2.7889123E0,3.708142E0,2.2928252E0,3.9397469E0],"tree_param":{"num_deleted":"0","num_feature":"22","num_nodes":"9","size_leaf_vector":"1"}},{"base_weights":[-1.1391933E-1,-6.471905E-1,6.352647E-1,-1.6558811E-1,-1.3311724E-1,8.966622E-2,2.1318228E-3,-8.092963E-2,7.6133125E-2],"categories":[],"categories_nodes":[],"categories_segments":[],"categories_sizes":[],"default_left":[0,0,0,0,0,0,0,0,0],"id":7,"left_children":[1,3,5,7,-1,-1,-1,-1,-1],"loss_changes":[6.8611283E0,3.0494657E0,1.1392317E0,4.773191E0,0E0,0E0,0E0,0E0,0E0],"parents":[2147483647,0,0,1,1,2,2,3,3],"right_children":[2,4,6,8,-1,-1,-1,-1,-1],"split_conditions":[2.2505127E-2,1.5461549E-2,3.181835E0,6.481616E-3,-1.3311724E-1,8.966622E-2,2.1318228E-3,-8.092963E-2,7.6133125E-2],"split_indices":[9,9,2,9,0,0,0,0,0],"split_type":[0,0,0,0,0,0,0,0,0],"sum_hessian":[1.5144421E1,8.92659E0,6.2178307E0,5.967133E0,2.9594572E0,4.0380692E0,2.1797614E0,3.5964441E0,2.370689E0],"tree_param":{"num_deleted":"0","num_feature":"22","num_nodes":"9","size_leaf_vector":"1"}},{"base_weights":[-1.3190347E-1,-4.641507E-1,5.4467034E-1,-9.3615365E-1,3.2842883E-1,3.9043692E-3,8.015125E-2,-2.1358391E-2,-1.2241151E-1,5.8623534E-2,-3.112128E-3],"categories":[],"categories_nodes":[],"categories_segments":[],"categories_sizes":[],"default_left":[0,0,0,0,0,0,0,0,0,0,0],"id":8,"left_children":[1,3,5,7,9,-1,-1,-1,-1,-1,-1],"loss_changes":[4.07361E0,4.773922E0,7.554344E-1,1.3495784E0,4.999379E-1,0E0,0E0,0E0,0E0,0E0,0E0],"parents":[2147483647,0,0,1,1,2,2,3,3,4,4],"right_children":[2,4,6,8,10,-1,-1,-1,-1,-1,-1],"split_conditions":[1.5953951E1,2.2505127E-2,7.5627196E-1,1.3628664E0,6.423267E-1,3.9043692E-3,8.015125E-2,-2.1358391E-2,-1.2241151E-1,5.8623534E-2,-3.112128E-3],"split_indices":[18,9,0,1,0,0,0,0,0,0,0],"split_type":[0,0,0,0,0,0,0,0,0,0,0],"sum_hessian":[1.5997216E1,1.0939225E1,5.057991E0,6.742646E0,4.196579E0,2.0918772E0,2.9661138E0,2.4177063E0,4.3249397E0,2.076912E0,2.1196673E0],"tree_param":{"num_deleted":"0","num_feature":"22","num_nodes":"11","size_leaf_vector":"1"}},{"base_weights":[1.3623555E-1,4.814435E-1,-3.8962778E-1,-2.6523663E-2,7.986502E-1,4.4976693E-2,-8.6350404E-2,2.0786144E-3,1.1170437E-1],"categories":[],"categories_nodes":[],"categories_segments":[],"categories_sizes":[],"default_left":[0,0,0,0,0,0,0,0,0],"id":9,"left_children":[1,3,5,-1,7,-1,-1,-1,-1],"loss_changes":[2.9704823E0,2.5097706E0,3.0248075E0,0E0,1.7249584E0,0E0,0E0,0E0,0E0],"parents":[2147483647,0,0,1,1,2,2,4,4],"right_children":[2,4,6,-1,8,-1,-1,-1,-1],"split_conditions":[2.93721E-2,5.4551184E-1,1.9482212E0,-2.6523663E-2,-1.46284E-1,4.4976693E-2,-8.6350404E-2,2.0786144E-3,1.1170437E-1],"split_indices":[20,0,1,0,20,0,0,0,0],"split_type":[0,0,0,0,0,0,0,0,0],"sum_hessian":[1.4330052E1,8.702007E0,5.628045E0,2.6434252E0,6.0585823E0,2.0491629E0,3.578882E0,2.069033E0,3.9895494E0],"tree_param":{"num_deleted":"0","num_feature":"22","num_nodes":"9","size_leaf_vector":"1"}},{"base_weights":[1.5936283E-2,-4.084954E-1,6.635465E-1,-9.352649E-2,5.6480803E-2,1.0094791E-1,-2.187274E-3,5.8148082E-2,-5.5004347E-2],"categories":[],"categories_nodes":[],"categories_segments":[],"categories_sizes":[],"default_left":[0,0,0,0,0,0,0,0,0],"id":10,"left_children":[1,3,5,-1,7,-1,-1,-1,-1],"loss_changes":[4.3990397E0,2.4265604E0,1.5222373E0,0E0,2.2592432E0,0E0,0E0,0E0,0E0],"parents":[2147483647,0,0,1,1,2,2,4,4],"right_children":[2,4,6,-1,8,-1,-1,-1,-1],"split_conditions":[2.1938335E-2,4.526115E-1,2.9664476E0,-9.352649E-2,1.5573186E-2,1.0094791E-1,-2.187274E-3,5.8148082E-2,-5.5004347E-2],"split_indices":[9,0,1,0,9,0,0,0,0],"split_type":[0,0,0,0,0,0,0,0,0],"sum_hessian":[1.4018152E1,8.6912775E0,5.326875E0,3.6006699E0,5.0906076E0,3.225944E0,2.100931E0,2.7508209E0,2.3397868E0],"tree_param":{"num_deleted":"0","num_feature":"22","num_nodes":"9","size_leaf_vector":"1"}},{"base_weights":[-1.1653523E-1,-1.108904E-1,2.084871E-1,5.425429E-1,-4.5711108E-2,-3.260369E-3,1.04614794E-1],"categories":[],"categories_nodes":[],"categories_segments":[],"categories_sizes":[],"default_left":[0,0,0,0,0,0,0],"id":11,"left_children":[1,-1,3,5,-1,-1,-1],"loss_changes":[5.130954E0,0E0,2.9795184E0,2.5357661E0,0E0,0E0,0E0],"parents":[2147483647,0,0,2,2,3,3],"right_children":[2,-1,4,6,-1,-1,-1],"split_conditions":[6.481616E-3,-1.108904E-1,2.93721E-2,-9.284016E-2,-4.5711108E-2,-3.260369E-3,1.04614794E-1],"split_indices":[9,0,20,20,0,0,0],"split_type":[0,0,0,0,0,0,0],"sum_hessian":[1.419108E1,2.90615E0,1.128493E1,7.636927E0,3.6480033E0,4.0018454E0,3.635082E0],"tree_param":{"num_deleted":"0","num_feature":"22","num_nodes":"7","size_leaf_vector":"1"}},{"base_weights":[1.7437499E-2,-3.4364578E-1,5.517765E-1,-7.395204E-1,5.365311E-2,9.71431E-2,-7.605775E-3,-2.2483435E-2,-1.14949785E-1],"categories":[],"categories_nodes":[],"categories_segments":[],"categories_sizes":[],"default_left":[0,0,0,0,0,0,0,0,0],"id":12,"left_children":[1,3,5,7,-1,-1,-1,-1,-1],"loss_changes":[3.310669E0,3.9750066E0,1.8936737E0,1.3249435E0,0E0,0E0,0E0,0E0,0E0],"parents":[2147483647,0,0,1,1,2,2,3,3],"right_children":[2,4,6,8,-1,-1,-1,-1,-1],"split_conditions":[2.2505127E-2,1.5953951E1,1E0,1.5321034E-2,5.365311E-2,9.71431E-2,-7.605775E-3,-2.2483435E-2,-1.14949785E-1],"split_indices":[9,18,3,9,0,0,0,0,0],"split_type":[0,0,0,0,0,0,0,0,0],"sum_hessian":[1.5176215E1,9.269299E0,5.906916E0,6.503875E0,2.7654238E0,3.2124143E0,2.6945016E0,3.570222E0,2.9336529E0],"tree_param":{"num_deleted":"0","num_feature":"22","num_nodes":"9","size_leaf_vector":"1"}},{"base_weights":[-5.852191E-2,-4.5257083E-1,5.094954E-1,-6.1540596E-2,-9.379124E-2,8.954995E-2,2.9941106E-3,-7.672762E-2,7.559916E-2],"categories":[],"categories_nodes":[],"categories_segments":[],"categories_sizes":[],"default_left":[0,0,0,0,0,0,0,0,0],"id":13,"left_children":[1,3,5,7,-1,-1,-1,-1,-1],"loss_changes":[3.6210272E0,1.740089E0,1.2087365E0,4.2243876E0,0E0,0E0,0E0,0E0,0E0],"parents":[2147483647,0,0,1,1,2,2,3,3],"right_children":[2,4,6,8,-1,-1,-1,-1,-1],"split_conditions":[2.2505127E-2,1.5573186E-2,1E0,6.481616E-3,-9.379124E-2,8.954995E-2,2.9941106E-3,-7.672762E-2,7.559916E-2],"split_indices":[9,9,3,9,0,0,0,0,0],"split_type":[0,0,0,0,0,0,0,0,0],"sum_hessian":[1.4147639E1,8.472961E0,5.6746774E0,5.3164225E0,3.1565394E0,2.663449E0,3.0112283E0,2.8862963E0,2.430126E0],"tree_param":{"num_deleted":"0","num_feature":"22","num_nodes":"9","size_leaf_vector":"1"}},{"base_weights":[-5.8752587E-3,-2.9007524E-1,4.981648E-1,4.1849792E-2,-5.505215E-1,7.35228E-2,8.953737E-3,-1.0268455E-1,3.3533367E-4],"categories":[],"categories_nodes":[],"categories_segments":[],"categories_sizes":[],"default_left":[0,0,0,0,0,0,0,0,0],"id":14,"left_children":[1,3,5,-1,7,-1,-1,-1,-1],"loss_changes":[2.3562517E0,2.1690545E0,5.0908446E-1,0E0,2.1439714E0,0E0,0E0,0E0,0E0],"parents":[2147483647,0,0,1,1,2,2,4,4],"right_children":[2,4,6,-1,8,-1,-1,-1,-1],"split_conditions":[1.5953951E1,2.2758369E-1,1.2074283E-1,4.1849792E-2,4.704509E-2,7.35228E-2,8.953737E-3,-1.0268455E-1,3.3533367E-4],"split_indices":[18,0,19,0,19,0,0,0,0],"split_type":[0,0,0,0,0,0,0,0,0],"sum_hessian":[1.4439961E1,9.505079E0,4.934882E0,2.3916042E0,7.113475E0,2.6172411E0,2.3176413E0,3.3653743E0,3.7481008E0],"tree_param":{"num_deleted":"0","num_feature":"22","num_nodes":"9","size_leaf_vector":"1"}},{"base_weights":[-1.227175E-1,-6.112916E-2,8.482712E-2,-1.419678E-1,5.3777676E-2,2.8946986E-2,-6.436186E-2],"categories":[],"categories_nodes":[],"categories_segments":[],"categories_sizes":[],"default_left":[0,0,0,0,0,0,0],"id":15,"left_children":[1,-1,3,5,-1,-1,-1],"loss_changes":[1.6651038E0,0E0,1.3136259E0,2.0945702E0,0E0,0E0,0E0],"parents":[2147483647,0,0,2,2,3,3],"right_children":[2,-1,4,6,-1,-1,-1],"split_conditions":[6.481616E-3,-6.112916E-2,1.5953951E1,2.93721E-2,5.3777676E-2,2.8946986E-2,-6.436186E-2],"split_indices":[9,0,18,20,0,0,0],"split_type":[0,0,0,0,0,0,0],"sum_hessian":[1.49096155E1,3.8652368E0,1.1044379E1,7.8169503E0,3.2274287E0,4.4299765E0,3.3869734E0],"tree_param":{"num_deleted":"0","num_feature":"22","num_nodes":"7","size_leaf_vector":"1"}},{"base_weights":[-4.8458993E-2,-4.1703242E-1,4.2682284E-1,1.3439438E-1,-8.7613535E-1,6.995369E-1,-1.8965095E-2,-2.202188E-2,4.2978954E-2,-4.057188E-2,-1.0692128E-1,1.9680109E-2,9.8157585E-2],"categories":[],"categories_nodes":[],"categories_segments":[],"categories_sizes":[],"default_left":[0,0,0,0,0,0,0,0,0,0,0,0,0],"id":16,"left_children":[1,3,5,7,9,11,-1,-1,-1,-1,-1,-1,-1],"loss_changes":[2.9527159E0,2.5043204E0,1.3788654E0,6.341054E-1,4.550886E-2,5.6574345E-1,0E0,0E0,0E0,0E0,0E0,0E0,0E0],"parents":[2147483647,0,0,1,1,2,2,3,3,4,4,5,5],"right_children":[2,4,6,8,10,12,-1,-1,-1,-1,-1,-1,-1],"split_conditions":[8.426624E-1,3.1934616E-1,1.8743545E0,-8.9109994E-2,-3.274942E-2,1.5236957E-2,-1.8965095E-2,-2.202188E-2,4.2978954E-2,-4.057188E-2,-1.0692128E-1,1.9680109E-2,9.8157585E-2],"split_indices":[0,0,0,21,6,19,0,0,0,0,0,0,0],"split_type":[0,0,0,0,0,0,0,0,0,0,0,0,0],"sum_hessian":[1.4839572E1,8.427071E0,6.412501E0,4.1499043E0,4.277167E0,4.352371E0,2.0601296E0,2.001571E0,2.148333E0,2.147149E0,2.1300178E0,2.1743536E0,2.1780174E0],"tree_param":{"num_deleted":"0","num_feature":"22","num_nodes":"13","size_leaf_vector":"1"}},{"base_weights":[-4.9048547E-2,-6.443905E-2,1.1246783E-1,-2.929312E-1,4.9845493E-1,-7.8664444E-2,2.1397129E-2,9.9160045E-2,-1.9751256E-2],"categories":[],"categories_nodes":[],"categories_segments":[],"categories_sizes":[],"default_left":[0,0,0,0,0,0,0,0,0],"id":17,"left_children":[1,-1,3,5,7,-1,-1,-1,-1],"loss_changes":[1.6012013E0,0E0,2.2360759E0,1.9563233E0,2.6712406E0,0E0,0E0,0E0,0E0],"parents":[2147483647,0,0,2,2,3,3,4,4],"right_children":[2,-1,4,6,8,-1,-1,-1,-1],"split_conditions":[-4.1769344E-2,-6.443905E-2,1.9374246E-2,5.4551184E-1,1E0,-7.8664444E-2,2.1397129E-2,9.9160045E-2,-1.9751256E-2],"split_indices":[19,0,9,0,3,0,0,0,0],"split_type":[0,0,0,0,0,0,0,0,0],"sum_hessian":[1.4898173E1,2.541328E0,1.2356846E1,6.144458E0,6.2123876E0,2.8331547E0,3.3113034E0,3.3873878E0,2.825E0],"tree_param":{"num_deleted":"0","num_feature":"22","num_nodes":"9","size_leaf_vector":"1"}},{"base_weights":[-3.4780785E-2,-3.7481976E-1,4.6042717E-1,9.350701E-2,-1.096547E-1,8.603098E-2,-1.5733999E-3,-3.6654215E-2,6.8716794E-2],"categories":[],"categories_nodes":[],"categories_segments":[],"categories_sizes":[],"default_left":[0,0,0,0,0,0,0,0,0],"id":18,"left_children":[1,3,5,7,-1,-1,-1,-1,-1],"loss_changes":[2.6073627E0,3.186464E0,1.2198256E0,2.0147626E0,0E0,0E0,0E0,0E0,0E0],"parents":[2147483647,0,0,1,1,2,2,3,3],"right_children":[2,4,6,8,-1,-1,-1,-1,-1],"split_conditions":[2.2505127E-2,1.5573186E-2,1.4810847E0,4.1544345E-1,-1.096547E-1,8.603098E-2,-1.5733999E-3,-3.6654215E-2,6.8716794E-2],"split_indices":[9,9,6,0,0,0,0,0,0],"split_type":[0,0,0,0,0,0,0,0,0],"sum_hessian":[1.3459205E1,8.123937E0,5.3352675E0,5.4547834E0,2.6691535E0,2.4614048E0,2.8738627E0,3.2887702E0,2.166013E0],"tree_param":{"num_deleted":"0","num_feature":"22","num_nodes":"9","size_leaf_vector":"1"}},{"base_weights":[2.1761096E-1,3.483472E-2,8.763946E-2,3.9565092E-1,-5.7025947E-2,-1.1211193E-2,8.243142E-2],"categories":[],"categories_nodes":[],"categories_segments":[],"categories_sizes":[],"default_left":[0,0,0,0,0,0,0],"id":19,"left_children":[1,3,-1,5,-1,-1,-1],"loss_changes":[1.6836691E0,2.8861187E0,0E0,1.8824809E0,0E0,0E0,0E0],"parents":[2147483647,0,0,1,1,3,3],"right_children":[2,4,-1,6,-1,-1,-1],"split_conditions":[1.5644751E-1,2.93721E-2,8.763946E-2,2.5466137E0,-5.7025947E-2,-1.1211193E-2,8.243142E-2],"split_indices":[20,20,0,1,0,0,0],"split_type":[0,0,0,0,0,0,0],"sum_hessian":[1.3236345E1,1.1185783E1,2.0505626E0,7.2241645E0,3.9616184E0,3.6450129E0,3.5791516E0],"tree_param":{"num_deleted":"0","num_feature":"22","num_nodes":"7","size_leaf_vector":"1"}},{"base_weights":[1.2153566E-1,-1.0457196E-1,5.8710404E-2,-4.8925644E-1,2.8514096E-1,8.631941E-3,-8.736216E-2,9.369849E-2,-3.4252696E-2],"categories":[],"categories_nodes":[],"categories_segments":[],"categories_sizes":[],"default_left":[0,0,0,0,0,0,0,0,0],"id":20,"left_children":[1,3,-1,5,7,-1,-1,-1,-1],"loss_changes":[1.5216279E0,1.6665192E0,0E0,1.2908894E0,2.6496096E0,0E0,0E0,0E0,0E0],"parents":[2147483647,0,0,1,1,3,3,4,4],"right_children":[2,4,-1,6,8,-1,-1,-1,-1],"split_conditions":[1.2127817E0,9.180432E-2,5.8710404E-2,-1.5734916E1,3.541348E-1,8.631941E-3,-8.736216E-2,9.369849E-2,-3.4252696E-2],"split_indices":[0,21,0,18,21,0,0,0,0],"split_type":[0,0,0,0,0,0,0,0,0],"sum_hessian":[1.2871505E1,9.185749E0,3.685756E0,4.4941545E0,4.691594E0,2.109965E0,2.3841891E0,2.0597281E0,2.6318662E0],"tree_param":{"num_deleted":"0","num_feature":"22","num_nodes":"9","size_leaf_vector":"1"}},{"base_weights":[2.072253E-1,7.251333E-2,-6.782274E-2,4.9901035E-2,-3.26275E-1,-6.94723E-2,2.4395267E-2],"categories":[],"categories_nodes":[],"categories_segments":[],"categories_sizes":[],"default_left":[0,0,0,0,0,0,0],"id":21,"left_children":[1,-1,3,-1,5,-1,-1],"loss_changes":[1.9641345E0,0E0,1.5830657E0,0E0,1.6954758E0,0E0,0E0],"parents":[2147483647,0,0,2,2,4,4],"right_children":[2,-1,4,-1,6,-1,-1],"split_conditions":[2.0738282E0,7.251333E-2,2.6228888E-2,4.9901035E-2,1.3095482E-1,-6.94723E-2,2.4395267E-2],"split_indices":[2,0,19,0,19,0,0],"split_type":[0,0,0,0,0,0,0],"sum_hessian":[1.2443033E1,3.7484381E0,8.694595E0,2.4313767E0,6.2632184E0,3.6721578E0,2.5910606E0],"tree_param":{"num_deleted":"0","num_feature":"22","num_nodes":"7","size_leaf_vector":"1"}},{"base_weights":[-1.9197892E-3,-3.005618E-1,5.23835E-1,4.010176E-2,-6.894088E-1,6.8928204E-2,2.156947E-2,-9.754135E-2,-2.4857314E-2],"categories":[],"categories_nodes":[],"categories_segments":[],"categories_sizes":[],"default_left":[0,0,0,0,0,0,0,0,0],"id":22,"left_children":[1,3,5,-1,7,-1,-1,-1,-1],"loss_changes":[2.3827035E0,2.9155605E0,1.316514E-1,0E0,5.886533E-1,0E0,0E0,0E0,0E0],"parents":[2147483647,0,0,1,1,2,2,4,4],"right_children":[2,4,6,-1,8,-1,-1,-1,-1],"split_conditions":[1E0,-7.9272847E0,2.294329E0,4.010176E-2,5.698007E-1,6.8928204E-2,2.156947E-2,-9.754135E-2,-2.4857314E-2],"split_indices":[14,6,1,0,0,0,0,0,0],"split_type":[0,0,0,0,0,0,0,0,0],"sum_hessian":[1.3172498E1,8.673854E0,4.4986444E0,3.0819428E0,5.591911E0,2.1222527E0,2.3763916E0,2.6560662E0,2.9358447E0],"tree_param":{"num_deleted":"0","num_feature":"22","num_nodes":"9","size_leaf_vector":"1"}},{"base_weights":[-2.7652907E-1,-5.162839E-1,2.6894717E-2,4.6865945E-3,-7.2794527E-1,-1.5988622E-2,-1.04831934E-1],"categories":[],"categories_nodes":[],"categories_segments":[],"categories_sizes":[],"default_left":[0,0,0,0,0,0,0],"id":23,"left_children":[1,3,-1,-1,5,-1,-1],"loss_changes":[1.938551E0,1.2144048E0,0E0,0E0,1.1531868E0,0E0,0E0],"parents":[2147483647,0,0,1,1,4,4],"right_children":[2,4,-1,-1,6,-1,-1],"split_conditions":[1E0,-7.9272847E0,2.6894717E-2,4.6865945E-3,1.9905955E-2,-1.5988622E-2,-1.04831934E-1],"split_indices":[14,6,0,0,20,0,0],"split_type":[0,0,0,0,0,0,0],"sum_hessian":[1.2761202E1,8.901997E0,3.8592052E0,2.6445203E0,6.2574763E0,2.7970517E0,3.4604244E0],"tree_param":{"num_deleted":"0","num_feature":"22","num_nodes":"7","size_leaf_vector":"1"}},{"base_weights":[-2.629067E-2,-1.5994772E-1,5.0711453E-2,1.3372323E-1,-6.8255946E-2,-2.6188686E-2,6.414255E-2],"categories":[],"categories_nodes":[],"categories_segments":[],"categories_sizes":[],"default_left":[0,0,0,0,0,0,0],"id":24,"left_children":[1,3,-1,5,-1,-1,-1],"loss_changes":[1.0987227E0,1.9596652E0,0E0,1.901392E0,0E0,0E0,0E0],"parents":[2147483647,0,0,1,1,3,3],"right_children":[2,4,-1,6,-1,-1,-1],"split_conditions":[1.5644751E-1,2.93721E-2,5.0711453E-2,-8.043206E-2,-6.8255946E-2,-2.6188686E-2,6.414255E-2],"split_indices":[20,20,0,20,0,0,0],"split_type":[0,0,0,0,0,0,0],"sum_hessian":[1.327357E1,1.1173842E1,2.099727E0,7.6302853E0,3.5435576E0,4.560691E0,3.0695944E0],"tree_param":{"num_deleted":"0","num_feature":"22","num_nodes":"7","size_leaf_vector":"1"}},{"base_weights":[-3.9222736E-2,-2.9246524E-1,4.027738E-1,-4.9955577E-1,3.1962913E-2,6.734112E-2,-6.7686266E-3,-1.8801203E-2,-8.004736E-2],"categories":[],"categories_nodes":[],"categories_segments":[],"categories_sizes":[],"default_left":[0,0,0,0,0,0,0,0,0],"id":25,"left_children":[1,3,5,7,-1,-1,-1,-1,-1],"loss_changes":[1.7683367E0,1.4214289E0,7.8302747E-1,5.833491E-1,0E0,0E0,0E0,0E0,0E0],"parents":[2147483647,0,0,1,1,2,2,3,3],"right_children":[2,4,6,8,-1,-1,-1,-1,-1],"split_conditions":[2.2505127E-2,1.5644751E-1,3.6609635E-1,1.5461549E-2,3.1962913E-2,6.734112E-2,-6.7686266E-3,-1.8801203E-2,-8.004736E-2],"split_indices":[9,20,21,9,0,0,0,0,0],"split_type":[0,0,0,0,0,0,0,0,0],"sum_hessian":[1.3745871E1,8.953983E0,4.7918878E0,6.8277884E0,2.126195E0,2.768112E0,2.0237758E0,4.152968E0,2.6748207E0],"tree_param":{"num_deleted":"0","num_feature":"22","num_nodes":"9","size_leaf_vector":"1"}},{"base_weights":[-6.653569E-2,-3.0879816E-1,3.671608E-1,-1.6484002E-2,-7.8782305E-2,9.2522606E-2,-1.9828396E-2,-2.8149834E-2,4.3189734E-2],"categories":[],"categories_nodes":[],"categories_segments":[],"categories_sizes":[],"default_left":[0,0,0,0,0,0,0,0,0],"id":26,"left_children":[1,3,5,7,-1,-1,-1,-1,-1],"loss_changes":[1.7325279E0,1.4475565E0,2.0704458E0,1.0126711E0,0E0,0E0,0E0,0E0,0E0],"parents":[2147483647,0,0,1,1,2,2,3,3],"right_children":[2,4,6,8,-1,-1,-1,-1,-1],"split_conditions":[1.5248542E1,-2.7183237E0,1E0,3.6415942E0,-7.8782305E-2,9.2522606E-2,-1.9828396E-2,-2.8149834E-2,4.3189734E-2],"split_indices":[18,18,5,6,0,0,0,0,0],"split_type":[0,0,0,0,0,0,0,0,0],"sum_hessian":[1.4410432E1,9.430531E0,4.979901E0,6.499046E0,2.9314852E0,2.1860752E0,2.7938256E0,4.3186884E0,2.1803572E0],"tree_param":{"num_deleted":"0","num_feature":"22","num_nodes":"9","size_leaf_vector":"1"}},{"base_weights":[-3.833713E-2,-2.989399E-1,3.7620834E-1,-7.108184E-2,-1.5889113E-3,3.7372205E-4,6.0996886E-2,7.841805E-2,-7.4141495E-2],"categories":[],"categories_nodes":[],"categories_segments":[],"categories_sizes":[],"default_left":[0,0,0,0,0,0,0,0,0],"id":27,"left_children":[1,3,5,-1,7,-1,-1,-1,-1],"loss_changes":[1.5638012E0,1.0773648E0,4.8777568E-1,0E0,4.13698E0,0E0,0E0,0E0,0E0],"parents":[2147483647,0,0,1,1,2,2,4,4],"right_children":[2,4,6,-1,8,-1,-1,-1,-1],"split_conditions":[2.2505127E-2,2.959163E0,1E0,-7.108184E-2,-1.4750788E-1,3.7372205E-4,6.0996886E-2,7.841805E-2,-7.4141495E-2],"split_indices":[9,2,11,0,6,0,0,0,0],"split_type":[0,0,0,0,0,0,0,0,0],"sum_hessian":[1.2434366E1,7.8060126E0,4.6283536E0,2.6897616E0,5.116251E0,2.1764355E0,2.4519181E0,2.4520137E0,2.664237E0],"tree_param":{"num_deleted":"0","num_feature":"22","num_nodes":"9","size_leaf_vector":"1"}},{"base_weights":[-3.245277E-2,2.9529065E-1,-4.1435862E-1,5.8058448E-2,-2.064029E-3,2.7438128E-4,-8.830971E-2],"categories":[],"categories_nodes":[],"categories_segments":[],"categories_sizes":[],"default_left":[0,0,0,0,0,0,0],"id":28,"left_children":[1,3,5,-1,-1,-1,-1],"loss_changes":[1.8270481E0,7.2523284E-1,1.3135339E0,0E0,0E0,0E0,0E0],"parents":[2147483647,0,0,1,1,2,2],"right_children":[2,4,6,-1,-1,-1,-1],"split_conditions":[1E0,1.5573186E-2,3.181835E0,5.8058448E-2,-2.064029E-3,2.7438128E-4,-8.830971E-2],"split_indices":[5,9,2,0,0,0,0],"split_type":[0,0,0,0,0,0,0],"sum_hessian":[1.2619325E1,6.913287E0,5.706038E0,3.192596E0,3.7206912E0,3.5453708E0,2.1606672E0],"tree_param":{"num_deleted":"0","num_feature":"22","num_nodes":"7","size_leaf_vector":"1"}},{"base_weights":[-6.7326374E-2,-2.5265098E-1,3.069215E-2,1.253223E-1,-5.460226E-1,-3.6514588E-2,5.7716142E-2,-9.624385E-4,-9.145463E-2],"categories":[],"categories_nodes":[],"categories_segments":[],"categories_sizes":[],"default_left":[0,0,0,0,0,0,0,0,0],"id":29,"left_children":[1,3,-1,5,7,-1,-1,-1,-1],"loss_changes":[1.0399394E0,1.1583154E0,0E0,1.3428432E0,1.1219805E0,0E0,0E0,0E0,0E0],"parents":[2147483647,0,0,1,1,3,3,4,4],"right_children":[2,4,-1,6,8,-1,-1,-1,-1],"split_conditions":[1E0,1.4810847E0,3.069215E-2,2.9372177E0,2.4434142E0,-3.6514588E-2,5.7716142E-2,-9.624385E-4,-9.145463E-2],"split_indices":[14,6,0,2,2,0,0,0,0],"split_type":[0,0,0,0,0,0,0,0,0],"sum_hessian":[1.2875898E1,8.828838E0,4.0470605E0,4.1084394E0,4.7203984E0,2.0620098E0,2.0464296E0,2.3402314E0,2.3801668E0],"tree_param":{"num_deleted":"0","num_feature":"22","num_nodes":"9","size_leaf_vector":"1"}},{"base_weights":[4.2892225E-2,-5.7073116E-2,3.1495517E-1,6.8802947E-1,-1.8083337E-1,2.8789515E-2,9.028594E-2,-3.326028E-2,3.2348775E-3],"categories":[],"categories_nodes":[],"categories_segments":[],"categories_sizes":[],"default_left":[0,0,0,0,0,0,0,0,0],"id":30,"left_children":[1,-1,3,5,7,-1,-1,-1,-1],"loss_changes":[2.4511743E0,0E0,1.9871817E0,2.5194454E-1,1.7628878E-1,0E0,0E0,0E0,0E0],"parents":[2147483647,0,0,2,2,3,3,4,4],"right_children":[2,-1,4,6,8,-1,-1,-1,-1],"split_conditions":[6.481616E-3,-5.7073116E-2,3.181835E0,1.6525481E0,1.5431791E1,2.8789515E-2,9.028594E-2,-3.326028E-2,3.2348775E-3],"split_indices":[9,0,2,2,18,0,0,0,0],"split_type":[0,0,0,0,0,0,0,0,0],"sum_hessian":[1.2605864E1,3.5350213E0,9.070843E0,4.9547276E0,4.1161146E0,2.5483575E0,2.4063702E0,2.0771565E0,2.038958E0],"tree_param":{"num_deleted":"0","num_feature":"22","num_nodes":"9","size_leaf_vector":"1"}},{"base_weights":[1.2308112E-1,-1.7597367E-1,6.3816524E-1,1.9141307E-1,-4.9924353E-1,2.6095653E-2,8.236077E-2,-3.3480484E-2,6.496511E-2,-2.1788282E-2,-6.2989704E-2],"categories":[],"categories_nodes":[],"categories_segments":[],"categories_sizes":[],"default_left":[0,0,0,0,0,0,0,0,0,0,0],"id":31,"left_children":[1,3,5,7,9,-1,-1,-1,-1,-1,-1],"loss_changes":[2.1988792E0,1.2064836E0,1.4824963E-1,1.4475443E0,5.585575E-2,0E0,0E0,0E0,0E0,0E0,0E0],"parents":[2147483647,0,0,1,1,2,2,3,3,4,4],"right_children":[2,4,6,8,10,-1,-1,-1,-1,-1,-1],"split_conditions":[1E0,1E0,2.1239882E-2,6.481616E-3,1.9019114E-2,2.6095653E-2,8.236077E-2,-3.3480484E-2,6.496511E-2,-2.1788282E-2,-6.2989704E-2],"split_indices":[14,3,9,9,9,0,0,0,0,0,0],"split_type":[0,0,0,0,0,0,0,0,0,0,0],"sum_hessian":[1.2545837E1,8.353946E0,4.1918917E0,4.1010766E0,4.252869E0,2.1749773E0,2.0169144E0,2.034324E0,2.0667524E0,2.194557E0,2.0583122E0],"tree_param":{"num_deleted":"0","num_feature":"22","num_nodes":"11","size_leaf_vector":"1"}},{"base_weights":[3.875409E-2,3.3038226E-1,-4.445297E-1,-9.837793E-2,8.429848E-2,2.2378028E-3,-7.734432E-2,-6.565605E-2,4.6072118E-2],"categories":[],"categories_nodes":[],"categories_segments":[],"categories_sizes":[],"default_left":[0,0,0,0,0,0,0,0,0],"id":32,"left_children":[1,3,5,7,-1,-1,-1,-1,-1],"loss_changes":[1.9651924E0,1.9774307E0,8.284255E-1,2.0467894E0,0E0,0E0,0E0,0E0,0E0],"parents":[2147483647,0,0,1,1,2,2,3,3],"right_children":[2,4,6,8,-1,-1,-1,-1,-1],"split_conditions":[2.9664476E0,2.627845E0,-7.131376E-2,-1.3550036E0,8.429848E-2,2.2378028E-3,-7.734432E-2,-6.565605E-2,4.6072118E-2],"split_indices":[1,2,20,6,0,0,0,0,0],"split_type":[0,0,0,0,0,0,0,0,0],"sum_hessian":[1.1901507E1,7.6198425E0,4.281665E0,4.5892777E0,3.0305648E0,2.1547966E0,2.1268682E0,2.2092905E0,2.3799875E0],"tree_param":{"num_deleted":"0","num_feature":"22","num_nodes":"9","size_leaf_vector":"1"}},{"base_weights":[-6.46524E-3,1.3774523E-1,-4.9124293E-2,-2.1792324E-1,4.4204015E-1,-4.832724E-2,1.2016406E-2,8.138698E-2,-1.7417312E-2],"categories":[],"categories_nodes":[],"categories_segments":[],"categories_sizes":[],"default_left":[0,0,0,0,0,0,0,0,0],"id":33,"left_children":[1,3,-1,5,7,-1,-1,-1,-1],"loss_changes":[9.930543E-1,1.2849988E0,0E0,5.724592E-1,1.5736046E0,0E0,0E0,0E0,0E0],"parents":[2147483647,0,0,1,1,3,3,4,4],"right_children":[2,4,-1,6,8,-1,-1,-1,-1],"split_conditions":[4.722662E-1,2.4934048E-2,-4.9124293E-2,2.627845E0,2.8919325E0,-4.832724E-2,1.2016406E-2,8.138698E-2,-1.7417312E-2],"split_indices":[21,21,0,2,1,0,0,0,0],"split_type":[0,0,0,0,0,0,0,0,0],"sum_hessian":[1.2236843E1,9.982987E0,2.2538557E0,4.7338142E0,5.249173E0,2.4116163E0,2.3221977E0,3.0737062E0,2.175467E0],"tree_param":{"num_deleted":"0","num_feature":"22","num_nodes":"9","size_leaf_vector":"1"}},{"base_weights":[-9.9670514E-2,-2.8927487E-1,3.9836865E-2,2.1969547E-2,-4.890273E-1,1.6851755E-3,-1.0349685E-1],"categories":[],"categories_nodes":[],"categories_segments":[],"categories_sizes":[],"default_left":[0,0,0,0,0,0,0],"id":34,"left_children":[1,3,-1,-1,5,-1,-1],"loss_changes":[1.4521104E0,1.2088039E0,0E0,0E0,2.2516572E0,0E0,0E0],"parents":[2147483647,0,0,1,1,4,4],"right_children":[2,4,-1,-1,6,-1,-1],"split_conditions":[1.5953951E1,1.3628664E0,3.9836865E-2,2.1969547E-2,-2.7183237E0,1.6851755E-3,-1.0349685E-1],"split_indices":[18,1,0,0,18,0,0],"split_type":[0,0,0,0,0,0,0],"sum_hessian":[1.3157227E1,9.832971E0,3.3242562E0,2.7432683E0,7.089702E0,4.1828914E0,2.9068108E0],"tree_param":{"num_deleted":"0","num_feature":"22","num_nodes":"7","size_leaf_vector":"1"}},{"base_weights":[-3.4600399E-3,-2.676957E-1,3.9648554E-1,-7.147494E-2,1.0629289E-2,6.47799E-2,-3.3211343E-3,-4.005302E-2,3.3085335E-2],"categories":[],"categories_nodes":[],"categories_segments":[],"categories_sizes":[],"default_left":[0,0,0,0,0,0,0,0,0],"id":35,"left_children":[1,3,5,-1,7,-1,-1,-1,-1],"loss_changes":[1.4969196E0,1.0679104E0,6.3043046E-1,0E0,9.537335E-1,0E0,0E0,0E0,0E0],"parents":[2147483647,0,0,1,1,2,2,4,4],"right_children":[2,4,6,-1,8,-1,-1,-1,-1],"split_conditions":[2.2505127E-2,-8.043206E-2,2.4861872E0,-7.147494E-2,2.959163E0,6.47799E-2,-3.3211343E-3,-4.005302E-2,3.3085335E-2],"split_indices":[9,20,2,0,2,0,0,0,0],"split_type":[0,0,0,0,0,0,0,0,0],"sum_hessian":[1.2160331E1,7.521622E0,4.638708E0,2.2843668E0,5.2372556E0,2.6066217E0,2.0320864E0,2.1832445E0,3.054011E0],"tree_param":{"num_deleted":"0","num_feature":"22","num_nodes":"9","size_leaf_vector":"1"}},{"base_weights":[-3.4933284E-2,-2.7985403E-1,5.2767307E-2,-7.186956E-2,1.0323548E-1,4.7713436E-2,-3.4758605E-2],"categories":[],"categories_nodes":[],"categories_segments":[],"categories_sizes":[],"default_left":[0,0,0,0,0,0,0],"id":36,"left_children":[1,3,-1,-1,5,-1,-1],"loss_changes":[1.8938683E0,1.6683381E0,0E0,0E0,1.1666311E0,0E0,0E0],"parents":[2147483647,0,0,1,1,4,4],"right_children":[2,4,-1,-1,6,-1,-1],"split_conditions":[1.2127817E0,9.180432E-2,5.2767307E-2,-7.186956E-2,1.5281152E1,4.7713436E-2,-3.4758605E-2],"split_indices":[0,21,0,0,6,0,0],"split_type":[0,0,0,0,0,0,0],"sum_hessian":[1.167252E1,8.482423E0,3.1900973E0,3.5452137E0,4.937209E0,2.666949E0,2.2702599E0],"tree_param":{"num_deleted":"0","num_feature":"22","num_nodes":"7","size_leaf_vector":"1"}},{"base_weights":[-5.2400675E-2,-2.1373618E-1,5.186673E-2,1.1741472E-1,-6.2312644E-2,-3.7504237E-2,6.5780245E-2],"categories":[],"categories_nodes":[],"categories_segments":[],"categories_sizes":[],"default_left":[0,0,0,0,0,0,0],"id":37,"left_children":[1,3,-1,5,-1,-1,-1],"loss_changes":[1.2589152E0,1.4863557E0,0E0,2.0041842E0,0E0,0E0,0E0],"parents":[2147483647,0,0,1,1,3,3],"right_children":[2,4,-1,6,-1,-1,-1],"split_conditions":[3.5526305E-2,2.3660321E0,5.186673E-2,2.959163E0,-6.2312644E-2,-3.7504237E-2,6.5780245E-2],"split_indices":[9,1,0,2,0,0,0],"split_type":[0,0,0,0,0,0,0],"sum_hessian":[1.1460795E1,9.424075E0,2.0367208E0,5.604145E0,3.8199298E0,3.092194E0,2.511951E0],"tree_param":{"num_deleted":"0","num_feature":"22","num_nodes":"7","size_leaf_vector":"1"}},{"base_weights":[6.281745E-2,-1.6058199E-1,3.9761087E-1,1.8026279E-1,-7.219167E-2,6.499707E-2,-3.651209E-3,-2.739926E-2,6.0961492E-2],"categories":[],"categories_nodes":[],"categories_segments":[],"categories_sizes":[],"default_left":[0,0,0,0,0,0,0,0,0],"id":38,"left_children":[1,3,5,7,-1,-1,-1,-1,-1],"loss_changes":[1.080324E0,1.8260052E0,6.5114194E-1,1.3987107E0,0E0,0E0,0E0,0E0,0E0],"parents":[2147483647,0,0,1,1,2,2,3,3],"right_children":[2,4,6,8,-1,-1,-1,-1,-1],"split_conditions":[2.2505127E-2,1.5573186E-2,2.4861872E0,4.526115E-1,-7.219167E-2,6.499707E-2,-3.651209E-3,-2.739926E-2,6.0961492E-2],"split_indices":[9,9,2,0,0,0,0,0,0],"split_type":[0,0,0,0,0,0,0,0,0],"sum_hessian":[1.25905695E1,7.863682E0,4.726887E0,5.315161E0,2.5485208E0,2.6747975E0,2.0520895E0,2.7585046E0,2.5566566E0],"tree_param":{"num_deleted":"0","num_feature":"22","num_nodes":"9","size_leaf_vector":"1"}},{"base_weights":[-5.2149175E-3,2.995148E-1,-3.6361194E-1,-4.7085814E-2,7.631682E-2,1.3417423E-2,-6.444373E-2,-2.7674958E-2,2.1805182E-2],"categories":[],"categories_nodes":[],"categories_segments":[],"categories_sizes":[],"default_left":[0,0,0,0,0,0,0,0,0],"id":39,"left_children":[1,3,5,7,-1,-1,-1,-1,-1],"loss_changes":[1.5430037E0,1.2645378E0,9.931286E-1,3.840941E-1,0E0,0E0,0E0,0E0,0E0],"parents":[2147483647,0,0,1,1,2,2,3,3],"right_children":[2,4,6,8,-1,-1,-1,-1,-1],"split_conditions":[1E0,5.8898535E-2,1.3210381E0,3.208043E0,7.631682E-2,1.3417423E-2,-6.444373E-2,-2.7674958E-2,2.1805182E-2],"split_indices":[5,19,18,2,0,0,0,0,0],"split_type":[0,0,0,0,0,0,0,0,0],"sum_hessian":[1.2131043E1,6.645203E0,5.48584E0,4.3167186E0,2.3284848E0,2.1669521E0,3.3188877E0,2.289631E0,2.0270877E0],"tree_param":{"num_deleted":"0","num_feature":"22","num_nodes":"9","size_leaf_vector":"1"}},{"base_weights":[9.680154E-3,-1.2994604E-1,5.271976E-2,-3.84942E-1,3.2356665E-2,-8.8117225E-3,-7.9911254E-2],"categories":[],"categories_nodes":[],"categories_segments":[],"categories_sizes":[],"default_left":[0,0,0,0,0,0,0],"id":40,"left_children":[1,3,-1,5,-1,-1,-1],"loss_changes":[1.0312341E0,1.4307156E0,0E0,8.7451446E-1,0E0,0E0,0E0],"parents":[2147483647,0,0,1,1,3,3],"right_children":[2,4,-1,6,-1,-1,-1],"split_conditions":[1.5644751E-1,8.426624E-1,5.271976E-2,4.2827338E-2,3.2356665E-2,-8.8117225E-3,-7.9911254E-2],"split_indices":[20,0,0,20,0,0,0],"split_type":[0,0,0,0,0,0,0],"sum_hessian":[1.2323282E1,1.02946825E1,2.0286E0,6.6863537E0,3.6083283E0,4.6014066E0,2.0849473E0],"tree_param":{"num_deleted":"0","num_feature":"22","num_nodes":"7","size_leaf_vector":"1"}},{"base_weights":[8.618252E-2,-8.647133E-2,4.6839654E-2,2.8313646E-2,-3.429568E-1,2.1391313E-3,-6.587062E-2],"categories":[],"categories_nodes":[],"categories_segments":[],"categories_sizes":[],"default_left":[0,0,0,0,0,0,0],"id":41,"left_children":[1,3,-1,-1,5,-1,-1],"loss_changes":[8.8787997E-1,1.0156516E0,0E0,0E0,7.2416645E-1,0E0,0E0],"parents":[2147483647,0,0,1,1,4,4],"right_children":[2,4,-1,-1,6,-1,-1],"split_conditions":[1.2127817E0,3.1934616E-1,4.6839654E-2,2.8313646E-2,1E0,2.1391313E-3,-6.587062E-2],"split_indices":[0,0,0,0,5,0,0],"split_type":[0,0,0,0,0,0,0],"sum_hessian":[1.1840852E1,8.6894245E0,3.1514277E0,3.517144E0,5.1722803E0,2.834156E0,2.3381243E0],"tree_param":{"num_deleted":"0","num_feature":"22","num_nodes":"7","size_leaf_vector":"1"}},{"base_weights":[-4.8776515E-2,2.6074657E-1,-3.024567E-1,-1.0622973E-2,6.827961E-2,-6.1918903E-2,6.80476E-3],"categories":[],"categories_nodes":[],"categories_segments":[],"categories_sizes":[],"default_left":[0,0,0,0,0,0,0],"id":42,"left_children":[1,3,5,-1,-1,-1,-1],"loss_changes":[1.1021019E0,1.064826E0,9.3691117E-1,0E0,0E0,0E0,0E0],"parents":[2147483647,0,0,1,1,2,2],"right_children":[2,4,6,-1,-1,-1,-1],"split_conditions":[2.1496413E0,-1.3550036E0,1.084436E0,-1.0622973E-2,6.827961E-2,-6.1918903E-2,6.80476E-3],"split_indices":[1,6,0,0,0,0,0],"split_type":[0,0,0,0,0,0,0],"sum_hessian":[1.2031571E1,5.40676E0,6.6248116E0,3.2923386E0,2.1144214E0,3.209719E0,3.4150925E0],"tree_param":{"num_deleted":"0","num_feature":"22","num_nodes":"7","size_leaf_vector":"1"}},{"base_weights":[-6.2665045E-2,4.72338E-2,-2.6767242E-1,-6.497975E-1,3.062421E-2,-9.224E-2,-1.6539946E-2],"categories":[],"categories_nodes":[],"categories_segments":[],"categories_sizes":[],"default_left":[0,0,0,0,0,0,0],"id":43,"left_children":[1,-1,3,5,-1,-1,-1],"loss_changes":[1.453151E0,0E0,2.2568688E0,6.3355637E-1,0E0,0E0,0E0],"parents":[2147483647,0,0,2,2,3,3],"right_children":[2,-1,4,6,-1,-1,-1],"split_conditions":[2.9067877E-1,4.72338E-2,1.5248542E1,2.2505127E-2,3.062421E-2,-9.224E-2,-1.6539946E-2],"split_indices":[0,0,18,9,0,0,0],"split_type":[0,0,0,0,0,0,0],"sum_hessian":[1.1096318E1,2.712795E0,8.383523E0,4.9532914E0,3.4302316E0,2.5909662E0,2.3623254E0],"tree_param":{"num_deleted":"0","num_feature":"22","num_nodes":"7","size_leaf_vector":"1"}},{"base_weights":[-7.757866E-2,1.2338066E-1,-3.1089538E-1,4.592285E-2,-7.764532E-2,-5.524967E-2,9.768882E-3,-4.537224E-2,2.7430926E-2],"categories":[],"categories_nodes":[],"categories_segments":[],"categories_sizes":[],"default_left":[0,0,0,0,0,0,0,0,0],"id":44,"left_children":[1,3,5,-1,7,-1,-1,-1,-1],"loss_changes":[6.634229E-1,5.6754434E-1,6.9098514E-1,0E0,8.899966E-1,0E0,0E0,0E0,0E0],"parents":[2147483647,0,0,1,1,2,2,4,4],"right_children":[2,4,6,-1,8,-1,-1,-1,-1],"split_conditions":[1E0,-5.5255942E-2,3.5557938E-1,4.592285E-2,4.704509E-2,-5.524967E-2,9.768882E-3,-4.537224E-2,2.7430926E-2],"split_indices":[5,21,21,0,19,0,0,0,0],"split_type":[0,0,0,0,0,0,0,0,0],"sum_hessian":[1.2331244E1,6.878164E0,5.4530807E0,2.0945091E0,4.7836547E0,3.2054396E0,2.2476413E0,2.172792E0,2.6108627E0],"tree_param":{"num_deleted":"0","num_feature":"22","num_nodes":"9","size_leaf_vector":"1"}},{"base_weights":[1.9668557E-2,5.3163834E-2,-1.5847956E-1,6.747356E-2,-6.3627146E-2,-4.2306647E-2,3.483681E-2],"categories":[],"categories_nodes":[],"categories_segments":[],"categories_sizes":[],"default_left":[0,0,0,0,0,0,0],"id":45,"left_children":[1,-1,3,5,-1,-1,-1],"loss_changes":[1.2032987E0,0E0,1.1087512E0,1.1955276E0,0E0,0E0,0E0],"parents":[2147483647,0,0,2,2,3,3],"right_children":[2,-1,4,6,-1,-1,-1],"split_conditions":[-1.4102298E1,5.3163834E-2,5.0609684E0,5.287978E-2,-6.3627146E-2,-4.2306647E-2,3.483681E-2],"split_indices":[18,0,2,21,0,0,0],"split_type":[0,0,0,0,0,0,0],"sum_hessian":[1.12693615E1,2.3968732E0,8.872488E0,6.6068263E0,2.2656615E0,2.2213802E0,4.385446E0],"tree_param":{"num_deleted":"0","num_feature":"22","num_nodes":"7","size_leaf_vector":"1"}},{"base_weights":[6.5654896E-2,-2.191546E-1,4.9071878E-1,-5.86024E-2,5.3931203E-2,7.4792834E-4,8.1805125E-2,4.8418563E-2,-3.4489423E-2],"categories":[],"categories_nodes":[],"categories_segments":[],"categories_sizes":[],"default_left":[0,0,0,0,0,0,0,0,0],"id":46,"left_children":[1,3,5,-1,7,-1,-1,-1,-1],"loss_changes":[1.58343E0,8.32217E-1,8.164097E-1,0E0,1.110235E0,0E0,0E0,0E0,0E0],"parents":[2147483647,0,0,1,1,2,2,4,4],"right_children":[2,4,6,-1,8,-1,-1,-1,-1],"split_conditions":[2.2505127E-2,2.959163E0,5.6524944E-2,-5.86024E-2,4.205619E-2,7.4792834E-4,8.1805125E-2,4.8418563E-2,-3.4489423E-2],"split_indices":[9,2,19,0,21,0,0,0,0],"split_type":[0,0,0,0,0,0,0,0,0],"sum_hessian":[1.1191142E1,6.9911904E0,4.199952E0,2.4943254E0,4.496865E0,2.1091185E0,2.0908337E0,2.0602405E0,2.4366243E0],"tree_param":{"num_deleted":"0","num_feature":"22","num_nodes":"9","size_leaf_vector":"1"}},{"base_weights":[-5.776013E-2,1.8844345E-1,-2.8089043E-1,-2.1141596E-2,6.505139E-2,1.4535117E-2,-6.0775906E-2],"categories":[],"categories_nodes":[],"categories_segments":[],"categories_sizes":[],"default_left":[0,0,0,0,0,0,0],"id":47,"left_children":[1,3,5,-1,-1,-1,-1],"loss_changes":[6.9156265E-1,1.2692562E0,9.93926E-1,0E0,0E0,0E0,0E0],"parents":[2147483647,0,0,1,1,2,2],"right_children":[2,4,6,-1,-1,-1,-1],"split_conditions":[2.1496413E0,-1.3550036E0,3.7265673E0,-2.1141596E-2,6.505139E-2,1.4535117E-2,-6.0775906E-2],"split_indices":[1,6,2,0,0,0,0],"split_type":[0,0,0,0,0,0,0],"sum_hessian":[1.0625104E1,5.125284E0,5.4998198E0,3.0384104E0,2.0868735E0,2.6280828E0,2.871737E0],"tree_param":{"num_deleted":"0","num_feature":"22","num_nodes":"7","size_leaf_vector":"1"}},{"base_weights":[-7.546199E-3,-4.397915E-2,1.322938E-1,-2.7276827E-2,3.1894547E-1,-1.0323273E-2,6.578277E-2],"categories":[],"categories_nodes":[],"categories_segments":[],"categories_sizes":[],"default_left":[0,0,0,0,0,0,0],"id":48,"left_children":[1,-1,3,-1,5,-1,-1],"loss_changes":[8.3963877E-1,0E0,8.8364697E-1,0E0,1.1658335E0,0E0,0E0],"parents":[2147483647,0,0,2,2,4,4],"right_children":[2,-1,4,-1,6,-1,-1],"split_conditions":[-4.1769344E-2,-4.397915E-2,6.481616E-3,-2.7276827E-2,-8.401995E-2,-1.0323273E-2,6.578277E-2],"split_indices":[19,0,9,0,20,0,0],"split_type":[0,0,0,0,0,0,0],"sum_hessian":[1.192836E1,2.3914452E0,9.536915E0,2.8628106E0,6.6741047E0,3.281454E0,3.3926504E0],"tree_param":{"num_deleted":"0","num_feature":"22","num_nodes":"7","size_leaf_vector":"1"}},{"base_weights":[-5.9783123E-2,1.6290894E-1,-2.4925987E-1,-1.582747E-2,4.938841E-2,2.4042185E-2,-4.81291E-1,-9.180843E-3,-7.317133E-2],"categories":[],"categories_nodes":[],"categories_segments":[],"categories_sizes":[],"default_left":[0,0,0,0,0,0,0,0,0],"id":49,"left_children":[1,3,5,-1,-1,-1,7,-1,-1],"loss_changes":[5.807618E-1,7.6804334E-1,9.464859E-1,0E0,0E0,0E0,4.4918883E-1,0E0,0E0],"parents":[2147483647,0,0,1,1,2,2,6,6],"right_children":[2,4,6,-1,-1,-1,8,-1,-1],"split_conditions":[2.1496413E0,-1.3550036E0,-1.4750788E-1,-1.582747E-2,4.938841E-2,2.4042185E-2,3.9126554E0,-9.180843E-3,-7.317133E-2],"split_indices":[1,6,6,0,0,0,2,0,0],"split_type":[0,0,0,0,0,0,0,0,0],"sum_hessian":[1.1801411E1,5.489646E0,6.311765E0,3.050847E0,2.4387987E0,2.0176103E0,4.294155E0,2.2153027E0,2.0788522E0],"tree_param":{"num_deleted":"0","num_feature":"22","num_nodes":"9","size_leaf_vector":"1"}},{"base_weights":[-7.252456E-3,-2.4300115E-1,4.308422E-2,-4.9693137E-2,1.9283678E-2,4.5433067E-2,-4.3907292E-2],"categories":[],"categories_nodes":[],"categories_segments":[],"categories_sizes":[],"default_left":[0,0,0,0,0,0,0],"id":50,"left_children":[1,3,-1,-1,5,-1,-1],"loss_changes":[1.3909684E0,5.914446E-1,0E0,0E0,1.2483926E0,0E0,0E0],"parents":[2147483647,0,0,1,1,4,4],"right_children":[2,4,-1,-1,6,-1,-1],"split_conditions":[1E0,5.698007E-1,4.308422E-2,-4.9693137E-2,3.6074607E0,4.5433067E-2,-4.3907292E-2],"split_indices":[14,0,0,0,2,0,0],"split_type":[0,0,0,0,0,0,0],"sum_hessian":[1.1454206E1,7.7363977E0,3.7178085E0,3.476251E0,4.2601466E0,2.190155E0,2.0699916E0],"tree_param":{"num_deleted":"0","num_feature":"22","num_nodes":"7","size_leaf_vector":"1"}},{"base_weights":[7.53355E-2,2.5149092E-1,-1.8616876E-2,-1.100323E-2,6.315016E-2],"categories":[],"categories_nodes":[],"categories_segments":[],"categories_sizes":[],"default_left":[0,0,0,0,0],"id":51,"left_children":[1,3,-1,-1,-1],"loss_changes":[5.607379E-1,1.0437095E0,0E0,0E0,0E0],"parents":[2147483647,0,0,1,1],"right_children":[2,4,-1,-1,-1],"split_conditions":[1.0721645E1,3.208043E0,-1.8616876E-2,-1.100323E-2,6.315016E-2],"split_indices":[6,2,0,0,0],"split_type":[0,0,0,0,0],"sum_hessian":[1.0156274E1,6.0913134E0,4.0649605E0,3.4856703E0,2.605643E0],"tree_param":{"num_deleted":"0","num_feature":"22","num_nodes":"5","size_leaf_vector":"1"}},{"base_weights":[1.081096E-1,4.5138708E-1,-2.6550302E-1,1.5362786E-2,6.599552E-2,-6.1703123E-2,1.5678968E-2],"categories":[],"categories_nodes":[],"categories_segments":[],"categories_sizes":[],"default_left":[0,0,0,0,0,0,0],"id":52,"left_children":[1,3,5,-1,-1,-1,-1],"loss_changes":[1.5019944E0,2.704078E-1,9.562596E-1,0E0,0E0,0E0,0E0],"parents":[2147483647,0,0,1,1,2,2],"right_children":[2,4,6,-1,-1,-1,-1],"split_conditions":[2.93721E-2,-1.24231756E-1,1.195279E-1,1.5362786E-2,6.599552E-2,-6.1703123E-2,1.5678968E-2],"split_indices":[20,20,20,0,0,0,0],"split_type":[0,0,0,0,0,0,0],"sum_hessian":[9.776761E0,4.9867435E0,4.7900176E0,2.7694964E0,2.217247E0,2.3623695E0,2.427648E0],"tree_param":{"num_deleted":"0","num_feature":"22","num_nodes":"7","size_leaf_vector":"1"}},{"base_weights":[1.8170213E-2,3.8781643E-2,-1.5895554E-1,-5.0851632E-2,2.836946E-2],"categories":[],"categories_nodes":[],"categories_segments":[],"categories_sizes":[],"default_left":[0,0,0,0,0],"id":53,"left_children":[1,-1,3,-1,-1],"loss_changes":[8.13715E-1,0E0,1.4555944E0,0E0,0E0],"parents":[2147483647,0,0,2,2],"right_children":[2,-1,4,-1,-1],"split_conditions":[-6.411932E-3,3.8781643E-2,1.5953951E1,-5.0851632E-2,2.836946E-2],"split_indices":[21,0,18,0,0],"split_type":[0,0,0,0,0],"sum_hessian":[1.0486558E1,3.0117655E0,7.4747925E0,4.09342E0,3.3813727E0],"tree_param":{"num_deleted":"0","num_feature":"22","num_nodes":"5","size_leaf_vector":"1"}},{"base_weights":[-9.179957E-2,-2.8591624E-1,2.661564E-2,7.1899123E-3,-5.3783625E-2],"categories":[],"categories_nodes":[],"categories_segments":[],"categories_sizes":[],"default_left":[0,0,0,0,0],"id":54,"left_children":[1,3,-1,-1,-1],"loss_changes":[8.1002027E-1,6.9944996E-1,0E0,0E0,0E0],"parents":[2147483647,0,0,1,1],"right_children":[2,4,-1,-1,-1],"split_conditions":[8.960256E-2,1.5321034E-2,2.661564E-2,7.1899123E-3,-5.3783625E-2],"split_indices":[19,9,0,0,0],"split_type":[0,0,0,0,0],"sum_hessian":[9.562271E0,6.330529E0,3.2317424E0,2.910784E0,3.4197452E0],"tree_param":{"num_deleted":"0","num_feature":"22","num_nodes":"5","size_leaf_vector":"1"}},{"base_weights":[2.3336922E-1,-3.6348253E-2,7.697969E-2,2.622527E-1,-6.535656E-2,6.873081E-2,-2.0563785E-2],"categories":[],"categories_nodes":[],"categories_segments":[],"categories_sizes":[],"default_left":[0,0,0,0,0,0,0],"id":55,"left_children":[1,3,-1,5,-1,-1,-1],"loss_changes":[1.6303724E0,1.7056284E0,0E0,1.3990477E0,0E0,0E0,0E0],"parents":[2147483647,0,0,1,1,3,3],"right_children":[2,4,-1,6,-1,-1,-1],"split_conditions":[1.5953951E1,4.424336E0,7.697969E-2,3.7088934E-2,-6.535656E-2,6.873081E-2,-2.0563785E-2],"split_indices":[18,18,0,19,0,0,0],"split_type":[0,0,0,0,0,0,0],"sum_hessian":[1.0075121E1,7.324553E0,2.7505677E0,5.3239884E0,2.0005648E0,2.5439682E0,2.7800202E0],"tree_param":{"num_deleted":"0","num_feature":"22","num_nodes":"7","size_leaf_vector":"1"}},{"base_weights":[-6.136326E-2,-2.832314E-1,2.8302824E-2,-5.6622703E-2,-5.8453422E-2,2.357613E-2,-3.1405132E-2],"categories":[],"categories_nodes":[],"categories_segments":[],"categories_sizes":[],"default_left":[0,0,0,0,0,0,0],"id":56,"left_children":[1,3,-1,5,-1,-1,-1],"loss_changes":[9.777404E-1,4.888283E-1,0E0,4.8576602E-1,0E0,0E0,0E0],"parents":[2147483647,0,0,1,1,3,3],"right_children":[2,4,-1,6,-1,-1,-1],"split_conditions":[2.2505127E-2,1.5573186E-2,2.8302824E-2,2.1962576E-1,-5.8453422E-2,2.357613E-2,-3.1405132E-2],"split_indices":[9,9,0,21,0,0,0],"split_type":[0,0,0,0,0,0,0],"sum_hessian":[1.074694E1,6.644151E0,4.1027884E0,4.470118E0,2.1740332E0,2.1323695E0,2.3377485E0],"tree_param":{"num_deleted":"0","num_feature":"22","num_nodes":"7","size_leaf_vector":"1"}},{"base_weights":[-4.1967236E-2,-3.12287E-1,5.1366664E-2,1.5644176E-2,-6.952601E-2],"categories":[],"categories_nodes":[],"categories_segments":[],"categories_sizes":[],"default_left":[0,0,0,0,0],"id":57,"left_children":[1,3,-1,-1,-1],"loss_changes":[1.8332299E0,1.5653535E0,0E0,0E0,0E0],"parents":[2147483647,0,0,1,1],"right_children":[2,4,-1,-1,-1],"split_conditions":[1E0,1E0,5.1366664E-2,1.5644176E-2,-6.952601E-2],"split_indices":[14,3,0,0,0],"split_type":[0,0,0,0,0],"sum_hessian":[1.0137362E1,7.1142106E0,3.0231507E0,3.4649243E0,3.649286E0],"tree_param":{"num_deleted":"0","num_feature":"22","num_nodes":"5","size_leaf_vector":"1"}},{"base_weights":[-1.9130968E-2,2.5545084E-1,-2.4322438E-1,4.1713785E-2,-4.978633E-4,1.2870507E-2,-6.552835E-2],"categories":[],"categories_nodes":[],"categories_segments":[],"categories_sizes":[],"default_left":[0,0,0,0,0,0,0],"id":58,"left_children":[1,3,5,-1,-1,-1,-1],"loss_changes":[7.550493E-1,2.3570168E-1,1.113132E0,0E0,0E0,0E0,0E0],"parents":[2147483647,0,0,1,1,2,2],"right_children":[2,4,6,-1,-1,-1,-1],"split_conditions":[2.1496413E0,1.5321034E-2,2.93721E-2,4.1713785E-2,-4.978633E-4,1.2870507E-2,-6.552835E-2],"split_indices":[1,9,20,0,0,0,0],"split_type":[0,0,0,0,0,0,0],"sum_hessian":[1.0261094E1,4.548223E0,5.712871E0,2.4348328E0,2.1133904E0,3.3640726E0,2.3487985E0],"tree_param":{"num_deleted":"0","num_feature":"22","num_nodes":"7","size_leaf_vector":"1"}},{"base_weights":[-4.7062866E-2,-2.4947105E-1,1.361104E-1,6.669546E-3,-4.7582224E-2,4.1046735E-2,-9.933471E-3],"categories":[],"categories_nodes":[],"categories_segments":[],"categories_sizes":[],"default_left":[0,0,0,0,0,0,0],"id":59,"left_children":[1,3,5,-1,-1,-1,-1],"loss_changes":[4.7633007E-1,4.6264106E-1,4.8715943E-1,0E0,0E0,0E0,0E0],"parents":[2147483647,0,0,1,1,2,2],"right_children":[2,4,6,-1,-1,-1,-1],"split_conditions":[9.180432E-2,-1.4102298E1,1.0721645E1,6.669546E-3,-4.7582224E-2,4.1046735E-2,-9.933471E-3],"split_indices":[21,18,6,0,0,0,0],"split_type":[0,0,0,0,0,0,0],"sum_hessian":[1.0931634E1,5.0212097E0,5.910424E0,2.3892539E0,2.6319559E0,2.3863347E0,3.5240896E0],"tree_param":{"num_deleted":"0","num_feature":"22","num_nodes":"7","size_leaf_vector":"1"}}]},"name":"gbtree"},"learner_model_param":{"base_score":"[6.7045456E-1]","boost_from_average":"1","num_class":"0","num_feature":"22","num_target":"1"},"objective":{"name":"binary:logistic","reg_loss_param":{"scale_pos_weight":"1"}}},"version":[3,3,0]}